add:0.87298995 -1.5210516 4.118091 -0.5868371 -2.2789304 1.8116679 -2.7505968 0.67426634 -2.4241939 4.52022 -2.1154053 -4.9891253 1.8325877 -0.8221621 2.2824838 4.1632824 3.5182445 0.53075266 -2.5880659 -0.005401791 -2.8595455 3.3218963 -1.8123107 3.502485 0.74076635 2.7204325 2.4005532 2.21958 1.82065 -2.381334 -2.31924 -1.3531076 -1.8250515 3.7076814 -6.7151475 -3.328612 3.7213628 -0.7522994 -1.0132496 1.5611057 2.1375976 3.3147676 3.6776435 3.6401165 0.9777245 -2.3329146 2.6137035 -0.66367894 -0.33715847 -2.4487102 2.0719235 -12.651426 -1.4845213 -1.2215514 0.28967944 0.43554366 -3.7097397 3.0341208 1.6144338 4.944496 0.75701517 -4.009634 -1.3318162 -0.34488982 0.48040065 2.622618 4.150443 0.4973189 -1.3713808 3.6636267 -2.4690406 -1.0107067 2.292067 -7.003341 -7.2504086 4.1484017 -2.6661963 -1.2943414 -7.5261064 0.38412282 3.0434272 -3.9577498 3.613709 -7.394186 -0.87837243 -5.236941 0.37153175 0.9458962 -1.8436762 2.1429992 6.052384 6.160024 2.267797 4.646726 6.5101357 1.8220952 1.9789352 26.260033 2.0874078 4.728982 0.7338067 4.065031 -0.91383624 5.1688237 2.809872 10.500036 -0.5091552 2.3445234 -11.0044565 -1.3339852 -3.3599017 -1.7164571 3.1564975 1.7738181 -1.4550691 5.8152905 -2.1718845 -1.1490061 2.5284767 1.9743291 -3.5599558 -1.7685444 -6.395907 -1.8496764 0.014919118 -3.679754 1.0283158 -1.1643913 -2.3611739 2.6938877 0.5786843 0.44415396 4.972276 -5.2194066 5.055916 5.4884787 -6.1214404 -1.1719546 2.7803233 2.1438336 -0.13875347 -4.61542 2.8512933 3.2689593 1.3897364 -0.2523493 -0.37356997 -1.0781114 0.21047044 -1.7201384 7.339447 -0.034551624 -2.6062684 3.424375 -0.53933877 -2.8687017 4.8372073 3.877611 -4.7265882 5.5536747 1.082274 -5.0317454 -4.120104 -3.420445 0.28731012 3.1596992 -1.4536605 -4.5395427 -2.231399 -1.4925098 -3.631778 2.3695738 2.1230083 3.859822 -0.89215857 -3.8504856 -1.5697415 -4.3768487 -2.9491832 -3.234272 1.703794 -3.1103926 2.0448947 4.792035 6.077516 0.7908652 3.4691076 -3.5253913 -3.0539207 -1.5456011 -1.5523138 8.171846 -1.2432685 -4.014196 0.3380105 -2.0893 2.5164561 0.39647987 0.33959216 2.2294178 1.3200164 -2.0461226 3.6748843 -2.7561364 4.6168447 1.4259691 -4.3988333 5.3949237 0.5388206 -2.598202 -2.2622278 -4.0607166 3.3311527 -9.855512 4.5245667 -3.2906568 1.267458 -3.890929 3.5020568 3.2112792 2.9236867 -0.17740345 4.63935 3.7247598 0.1780673 -3.0384998 0.86457247 3.3453958 -4.6875443 1.9867982 -0.7910628 -2.680399 -1.8284091 7.5331573 3.0901186 -4.293724 -3.6515508 4.663368 -2.898853 -0.50119555 0.2691608 4.227123 8.828434 0.06453022 1.3290713 1.3906357 2.5080779 0.13607338 1.3367815 0.09642474 2.9288516 -2.4489532 -0.07677071 -0.15203567 0.1426724 -8.968103 -2.5531452 -3.2362103 3.537278 -5.0063725 -2.276197 0.50546724 -11.763229 0.60578793 -2.6595705 -2.700721 0.8414302 -2.3676922 -0.9286902 -2.4675097 -12.278978 0.70022833 -6.988819 5.4169054 2.786108 1.6738124 3.4837813 5.404022 -0.12929 -0.7375325 1.4927312 -0.5921547 -3.0730922 -0.40396312 1.0711973 0.4832119 -8.866287 14.216344 -1.7247463 -4.5793324 5.1544065 -15.346603 8.193122 2.5695682 -5.4296584 1.6879982 7.9374638 -2.7725513 2.6559267 -2.9340382,
addmod:-5.174538 -18.888521 -19.83172 6.31532 -16.735167 -22.492752 17.658146 1.107204 -17.225573 -16.642693 4.693552 11.96838 -23.333801 21.505394 -5.720752 11.555185 20.23146 20.189997 -7.194637 21.265089 1.143481 15.088812 5.2053275 -8.487432 10.779216 2.5290587 20.921177 0.27295002 -7.439917 17.367523 12.129659 -15.597733 2.958578 -2.8531454 10.188138 7.2360706 -23.196516 16.446217 22.709362 -15.534606 4.219251 7.9801393 0.5756017 -1.6176504 17.30413 -24.718294 -2.5998487 -7.760466 2.9732697 20.16103 20.800035 -0.93172044 7.1626024 23.11963 18.427168 24.047897 17.098473 -7.51166 -3.8366137 -19.86929 10.090164 6.347185 -16.737415 1.9025135 -17.24754 -23.208033 2.6695635 -1.2850811 20.200792 2.4542382 -10.234562 -8.511282 -2.4259582 8.21043 -17.786528 -9.110249 23.252138 6.7218013 5.2562547 -21.137024 -2.0488646 -1.0271735 -23.573744 -3.681288 -22.395603 22.800802 22.741528 -25.146822 -6.8234353 -3.9939382 -15.189809 -15.795295 0.06883508 -16.047077 4.257294 -14.854161 18.714962 12.645754 -7.4403124 17.979494 -9.3522415 -18.739126 -24.180256 -4.3355603 16.341398 0.0536789 -14.054294 -0.19878462 14.055395 -7.5825043 -3.0904129 0.05435484 14.723735 5.781099 22.686108 -20.29088 6.6648664 3.9230244 -15.2939625 17.550747 -13.425203 9.444868 19.423336 -24.688908 0.85035914 -5.898969 -15.322891 -7.6524286 20.315445 -18.0442 -22.496641 1.8420496 -20.081522 16.44105 5.0846167 -6.7351823 -8.147542 -11.379759 6.809244 -14.93207 -2.132112 -4.39823 -11.466237 19.952461 5.319995 8.66757 -20.87307 -15.812644 21.917513 -5.0369606 -13.309205 -8.88127 0.2957112 2.64412 3.026761 3.5434942 20.158371 0.6358941 -22.224642 -2.5520394 11.676234 6.293969 22.440897 -22.538872 -23.548725 20.004599 22.563261 15.538883 20.39156 20.292389 -6.082686 -12.355278 -19.036093 -17.02212 -2.7906337 14.163073 24.470964 23.734543 18.429773 -6.209556 11.358574 -18.646618 -4.4557567 10.999334 -12.189902 22.745123 -12.702591 2.4474187 -24.66009 -5.094487 -3.5803802 -13.537998 -14.859615 -7.461506 -13.782605 -12.84238 16.753876 6.016302 23.798386 -13.883694 17.399858 12.988141 -1.8043388 24.187174 9.474719 1.522639 -21.751595 -14.893567 -18.233212 0.7159978 -16.345858 3.301916 -4.1146765 7.667118 -20.812737 -16.412935 -7.63563 1.0336323 -23.103058 -18.678778 1.8603992 20.53127 -23.486526 -1.1587487 9.756837 -19.585957 -18.318003 17.461922 0.012326892 -22.031527 3.9548047 19.50131 -13.866783 -12.349326 17.881899 2.5037596 12.259841 -2.119338 -20.167416 0.62713826 -13.625073 -11.56906 -10.457736 -0.4902009 -16.885742 5.013882 24.143867 4.5138106 -16.108793 -15.767408 22.998308 16.531569 -19.988546 10.767748 -13.793115 1.636148 16.558447 20.1158 14.695335 -16.987217 -6.853708 -3.1996408 3.7168329 -13.760087 23.30086 6.5230994 22.11117 -1.4965174 15.508309 11.210493 -3.670545 -2.458476 13.788221 -0.14396898 13.272776 -23.053423 -0.062671766 20.45562 2.708037 0.026543742 17.66068 12.638344 21.263285 16.201263 -25.01696 -9.482389 14.542847 -13.018245 15.303066 0.16479956 17.789413 -3.2992647 -3.3293288 -8.072177 -14.353605 11.019326 -20.032845 23.957058 11.556759 -10.5493355,
address:3.8871665 -5.1172123 0.7930248 -0.4749565 -5.4571266 -0.008400224 -4.6161976 -0.6519674 -7.203007 1.4134289 2.2890737 -9.091669 0.15551722 -6.9471264 -2.817548 -5.0115905 7.0287194 -6.824282 3.7162812 4.397289 -9.2097025 4.22081 -4.783298 -1.5698086 2.4622157 -5.5421367 -0.06657594 0.35654107 4.7818274 5.180981 -6.7452087 1.3447739 -8.077811 1.5424612 -3.3614938 -7.9746795 -4.7461615 1.4861534 -5.275255 -5.741467 -9.9347515 -0.48367637 -5.6423173 -5.9797354 -3.2511976 3.4439623 -8.588273 -2.3939836 1.0575578 0.2798557 -3.823836 -3.6390722 2.8026643 -0.13408424 5.934815 -2.3460577 -7.1035237 2.817128 7.7246623 2.9809575 -3.4427197 3.8393595 2.9546173 2.0840096 6.913916 4.0443945 6.7505064 1.0651597 -2.313232 7.445593 -6.5907974 -0.8988827 0.026453799 -7.5619283 -7.229973 7.0556197 -5.588055 -4.6972075 -9.651626 -2.9655054 0.6304137 -1.491421 0.90009016 -2.62529 -0.08045816 -7.94964 -0.048190784 3.2765286 3.5911124 4.299091 3.707562 0.43873093 -6.581739 1.8989476 6.164898 3.065553 -8.670059 4.855988 5.5273566 2.9986045 -2.1591666 4.2779593 -3.829337 -1.2324593 0.46359313 -2.052505 -5.579365 4.234099 -8.326003 0.4555282 -0.19461988 -1.201127 4.212096 -3.3494833 -3.4855652 7.082998 1.8570759 0.7826227 -3.5392108 4.248755 8.335689 2.683534 -5.7827635 -6.766491 1.6720463 -0.8118774 -1.9509203 0.096967585 -6.3090186 0.79876214 -5.4233413 5.840906 3.5196154 -2.578275 -0.6144156 3.462803 7.5813627 2.064138 1.9278889 3.3924537 -7.651963 3.5337381 3.1591477 5.7668705 1.7955053 5.1215997 -6.1071444 -3.9920902 -0.06063582 4.2875476 3.377507 -7.9930077 -6.9877243 2.1136284 2.1339417 -1.5538346 -5.3411837 6.2017455 -4.0815167 -1.1187913 -3.1379423 -6.779847 -2.2356563 -8.893464 3.0630155 0.522422 5.472909 6.6600833 3.2775435 0.80999017 -4.455782 3.3749778 -7.5539865 7.8215804 -1.3624992 -0.3075468 -3.640937 -0.58979875 2.4839573 -6.0527253 -1.7964318 -1.4997017 -3.2243369 -3.8920863 9.24306 1.563147 -4.2563233 2.2146747 2.926492 -6.847853 -3.5701532 -4.8752885 -7.675532 7.6790433 3.6697352 0.36778945 -1.4934882 -0.50824344 5.316254 -5.601836 3.3915577 0.12116989 -6.9267173 -3.2822638 -7.9308467 0.18144493 -3.0230186 5.9820614 4.784368 0.24887864 2.4639258 1.022373 2.7309663 -8.187848 7.0819798 -2.663696 3.8861897 1.8775635 0.59779185 6.1653466 -0.617563 -1.6738588 -0.7912054 1.0984725 -3.108091 -4.49328 2.5363512 -4.1635504 -0.61610717 7.144256 -1.4234898 -1.2636926 7.696535 0.30214605 6.6018867 -2.2594473 3.5372198 7.4797273 4.2831173 3.3316584 -3.8387728 0.9353239 7.077586 -1.9868941 3.712843 4.8143315 -0.13568538 0.5728867 8.439899 -2.1311667 7.422001 -2.9353008 0.8555038 6.8669176 -2.8427598 3.7101417 -2.4884295 -3.5323818 6.9677043 -5.24394 -6.9234843 -0.7529699 -2.1315007 2.3548844 -3.9293797 7.881601 3.6394644 -0.3715754 -0.54244655 -2.1629548 1.7782168 -8.492223 -0.9451921 -2.8565106 0.20437036 0.82793015 2.9951332 6.4433327 2.8685703 1.2572904 6.291115 -7.3569016 1.5042263 -7.975194 -4.247438 1.0096409 -5.209658 0.3010411 -5.5466 -6.54414 -4.521037 1.1771177 1.5011945 3.4056528 7.182906 5.1823997 -6.7678995 2.4006314 -2.8163412 -2.3593645,
addressTy:-7.9889445 -12.352259 -7.8003516 10.51866 1.5777286 -5.4164605 3.5929642 4.246473 0.24914171 12.262163 5.9056377 13.948755 10.227555 -11.366978 -13.132268 -7.020645 5.1044507 5.698979 17.569754 2.6090155 10.683535 -2.480701 12.173873 -11.305735 -3.4867258 -8.461174 -9.205718 -11.252451 -10.375653 1.9001057 -12.622591 -1.3454108 10.311854 -7.548939 12.607792 -1.061135 -17.160692 10.262006 3.677407 5.2033796 -9.750097 -4.843185 -13.6718235 -13.619275 2.2593627 16.629457 -5.4918876 6.1611047 -9.079925 7.240547 -12.736706 0.27211204 1.4359957 11.980798 2.2326818 -1.7967781 -0.6920292 -0.5709787 4.281914 -12.292466 -1.9251498 2.4170325 -1.1100494 -5.15025 7.7766976 -8.433616 4.5805545 -10.565419 -7.177033 0.785041 -16.789402 3.6772156 10.025025 -1.9173309 13.579376 17.905384 2.6610396 -4.678579 10.433264 0.2252012 5.8711076 -11.66828 -14.556992 -4.864564 -6.1171236 -5.975921 -8.339833 -7.5986843 -3.1970706 -4.728523 -5.7214484 3.5212996 -10.043644 1.7504132 -11.544731 13.57809 6.317573 -7.866709 -7.3960834 -6.7281585 3.5725014 3.8207674 -2.1780527 -12.101592 -13.267467 -5.6853075 -5.011309 -4.712294 4.7012663 -9.535933 -7.291339 8.056657 -1.0823715 3.2674358 -0.54922456 4.831024 9.036516 -10.947137 0.3854662 -8.163492 -6.0081453 -14.988796 8.084285 -2.7130554 12.139828 3.6992853 4.6839533 -8.606469 -9.420665 -10.01593 -10.445554 -11.376963 11.9227085 -1.9205811 -5.1690946 -14.1543665 11.1649 -0.42082852 -6.165153 -4.2985415 10.988772 13.027312 1.3842405 -8.548931 3.5509942 8.786421 -19.616896 -7.9583716 0.2342354 14.217697 -4.092284 -9.317121 -15.754154 -1.9602785 -7.585515 -11.489998 -7.922348 -7.025616 6.4013076 -12.532272 -2.99878 16.448576 6.436051 15.133783 -0.68044215 2.108783 -9.507107 4.160668 13.488353 10.439938 6.6086855 11.005384 8.092486 -8.211062 -8.676351 3.5020177 7.956445 9.399885 -15.386114 -12.075727 7.231966 5.646817 5.4479723 -10.471558 -10.375021 13.055059 -16.21559 10.62444 15.925033 -15.981296 -14.509232 -3.7519996 12.103902 -12.491151 -9.594618 8.2828045 2.2191322 1.2528645 -9.677855 -3.503076 -9.456831 2.4406233 -18.475723 -11.396277 0.4971206 10.378384 -2.9268703 15.407574 14.821102 12.497825 -4.119142 0.2239348 -7.7630386 -5.8209257 3.0912092 4.9352436 -0.9083773 4.4675407 -8.196525 12.912116 0.3161402 4.5335016 -1.7669593 -9.8113785 -4.37785 11.393055 -7.5272565 7.394546 11.246629 -10.110961 4.894593 9.364553 -11.490415 -5.5470095 8.804172 2.954509 11.257058 13.106533 15.143612 13.95173 5.5029464 -9.695595 -5.4837155 -5.1946177 -9.808987 -13.031986 9.677362 -0.25481823 6.379675 11.458102 7.2813406 7.171618 5.1243644 -10.073626 13.491479 2.1732633 -16.38229 7.33874 -13.428739 0.26216108 -8.16325 -9.204102 1.351956 -5.258483 6.399897 17.044764 -4.5650926 11.524672 -13.699528 -16.945786 3.252574 -9.095999 5.485796 -13.472295 9.214293 -8.311654 12.617444 -13.876604 13.979268 10.139441 -9.206303 -11.801381 5.876623 10.963541 -13.215139 -12.878762 8.887783 -2.076571 4.855882 -9.156829 -13.674538 8.781708 10.812085 -7.4554915 9.42457 11.625239 -8.668113 13.009556 -15.750663 11.506296,
and:3.037132 -0.7773253 -0.43709335 -5.331325 -2.4204469 -0.17978612 2.4077063 0.40930665 -2.0747685 -0.7035911 -2.0199697 -1.9922874 -0.69731003 1.0540582 1.2960675 5.7400727 -2.359665 5.4532833 -2.5055857 -3.5322456 -10.12954 -0.083629854 1.092323 6.3425345 -0.7523813 -1.5992047 3.1053283 -0.33684194 2.599771 -2.4079452 -2.5957325 -0.42456236 0.7010139 -3.542695 -7.096983 -3.3906057 2.58239 -5.9148335 -4.677339 2.2231095 1.6629368 -4.1742377 3.6847465 -0.7253191 -9.704134 -2.9931977 2.860467 4.2028503 7.9659033 -3.9543934 3.445514 -2.6824782 -0.6250798 -1.0342815 6.798487 -5.353748 -2.2469285 -8.825669 -0.39974657 -0.7549435 2.044473 -3.355634 2.43408 5.6697865 -0.7086962 3.0599904 2.5181236 -0.23995617 6.350462 -4.7049637 0.15368998 -0.20223051 1.6272542 -6.2559066 -1.1515015 2.3362663 5.261649 4.018283 -1.7899796 0.004974596 -5.645858 2.6896794 0.13402508 -4.958007 3.509049 -0.3678186 -1.2301072 -0.8432417 -2.102654 4.187705 1.0904648 8.843916 1.3256052 3.7309642 4.433233 -0.99970984 2.433096 12.356892 2.4656274 -1.70451 3.4487846 2.5152981 -0.1654897 3.9471471 2.8428466 0.8118234 5.6271687 2.793771 -9.490801 0.7010453 6.7080607 2.6596456 0.80464447 2.8579767 0.23887922 1.0867163 -1.7444423 0.2601998 -3.0409663 -4.31765 -3.4106472 -0.7224033 -5.715182 -3.0406034 1.9456387 -5.86105 8.1949625 1.350423 -0.86640215 6.535296 -0.0001117097 -0.80580497 4.799304 1.2472941 5.1001587 2.2327824 -3.5918665 -4.501254 4.2131734 3.7120185 1.7995249 -0.88245994 7.269753 -0.58983207 -1.1363443 6.9549127 2.433928 -2.6066427 -5.726075 -0.59775245 0.20484501 2.572065 -1.2841809 -2.8452747 0.86354035 -3.140787 -2.0681572 -0.9264893 -2.6427894 7.3863015 -2.9740167 -5.0901647 3.1567614 -2.0796542 -0.02747415 2.5117443 0.58312005 -2.6288717 -1.3631251 0.2566441 -2.940691 -3.3251255 1.4765308 2.2014496 -6.446231 -5.676024 -3.7778256 -3.5079234 0.6847356 3.2850258 -1.733817 -4.239097 -2.3036923 6.305593 3.1284318 -2.4012012 1.9270868 -3.196863 -2.1020963 -1.3916631 2.8710833 7.8693233 5.68029 -4.2625885 -3.1347218 -1.1866317 1.7390134 -9.997172 -0.947971 0.39215684 0.14259022 -5.3806214 0.7008737 -0.66369444 -0.43809023 -2.9669552 2.498627 -2.7985587 -6.9343467 -2.379678 1.1843338 -4.261964 4.102251 -9.590842 1.5170149 -4.823574 3.130366 -1.2401942 3.1267836 -3.1299002 -2.3862634 2.541453 4.1209173 3.8861935 1.897785 3.1655703 5.39384 1.0956212 3.0970974 0.48267952 -5.169101 -3.9352865 -1.8045635 7.3018007 1.0620794 5.6512947 -3.22989 1.3400244 -0.3922207 -2.4463081 2.047559 4.6097746 -6.6593275 3.9813876 1.9485255 6.9275455 2.7011266 3.2089865 -0.3452799 -1.3223037 2.6520286 4.315303 -0.90461177 2.2143223 4.869332 0.11005785 3.4294267 -2.9866521 3.3799577 1.6599426 0.39741212 1.9754554 -16.461662 4.2601314 -1.8088235 -2.292851 0.3899376 -3.2422507 4.0553255 -2.5785286 -2.4548335 -7.3876424 -7.4433465 0.9739415 -6.852086 4.729087 -0.6250574 -1.5517819 -2.2941055 -3.8007464 -2.017712 -1.6427606 -0.19624291 -1.6040539 1.4616861 3.2356164 -5.2277966 -4.2467494 -1.2276338 0.98331255 -3.3844337 -7.8784523 3.0805168 0.8953033 -2.6418948 4.6267834 14.425417 -3.4387465 2.4620929 3.3527286,
balance:0.6475707 -9.517611 5.5868573 2.715706 -5.2040806 0.6909758 0.13308585 -0.15894386 4.5193686 -5.5896454 -5.2969613 -2.2543664 7.154613 1.1822425 2.521037 2.1342561 -5.3544884 1.4448524 7.3423676 1.371395 0.44628406 -6.002995 8.393851 -3.108031 6.813582 2.1316717 -3.793534 -8.022775 4.463328 5.3769875 -0.027936326 5.876333 -0.77560323 -1.3234512 6.2795453 -1.421491 10.492626 5.564264 3.549686 -7.368791 -4.5021067 1.5963535 7.178958 2.5799952 -3.471855 4.688118 -9.540399 -6.817418 -9.076827 6.169808 -7.5097365 -1.0820923 1.7972741 -5.2954593 -1.7581911 -1.593872 -7.5658875 2.9506679 5.6134953 5.5954847 3.7634225 8.621109 9.149531 -1.7603555 -1.5744954 6.7628326 -2.8938591 5.186955 6.0678816 -2.6478465 0.34143725 5.74377 1.7388806 4.9255333 -3.5715632 5.2068276 -0.64705926 -5.1447296 -5.5140333 -9.288845 3.7975106 -3.453888 -8.056448 1.9915502 2.0048482 -4.317684 5.074513 -1.0410252 -1.990038 3.5684626 -5.733368 -5.7369533 0.52580327 6.1739564 1.9616579 -6.120374 -6.1261783 4.944178 -3.3718877 1.678802 -8.754015 10.979412 2.4014704 3.4266343 6.270221 0.61466485 -4.4761024 2.7967634 -0.6706361 1.3381929 -0.29100418 6.6098037 -4.1483064 -3.3492963 -8.9267025 0.62985295 -3.3272948 -5.5676093 0.78841823 0.38107193 1.5189451 -1.717942 -4.4142504 -0.48254877 0.14111453 -7.6310515 5.783557 -3.5123873 -0.9947479 -5.291876 -7.8630037 0.4476766 -0.68311316 5.688413 1.6707617 5.0980954 4.5769796 7.811543 2.311179 6.5757046 -9.010522 -4.8897214 -4.24832 8.249771 3.5961196 1.7260625 2.5079794 7.5168743 8.202977 7.2838945 -5.1626296 -4.2063646 0.18691823 -6.35074 -0.18398997 -5.411648 3.3285127 3.8008964 -5.1885614 -1.641761 -3.4749553 -3.5831058 -6.4087443 4.8520045 7.880136 -0.28426355 -0.24782355 -4.576643 7.3862476 6.036561 2.546055 -2.1009674 5.486552 1.7678801 0.55708694 -8.0251255 -4.0995255 -6.1066403 -5.747354 3.2678182 3.237781 5.3145194 -3.6790671 -4.8953233 6.7960668 -0.9853644 -7.4081435 -0.09910372 -4.861725 -1.6028054 2.8895674 3.8408473 -3.5491407 4.640981 -1.2724653 -2.8606653 1.0563431 4.6721597 4.6306887 -0.8026593 1.4147172 -7.1937976 6.2611527 4.4537325 -4.4277396 8.136186 0.36410168 2.5036092 8.602438 -1.1014794 0.81262517 6.915055 2.5855765 -1.8301946 3.8003252 -5.288332 1.7340226 -6.34933 1.1049057 -5.676303 9.151985 -2.746477 -3.7894964 -0.202021 -6.5566826 -6.3166156 7.2200284 -5.3129044 -5.9276366 -1.1468661 -0.7250286 0.32317445 1.2737161 -4.600235 8.877457 -6.866145 -3.0737371 -0.2821053 -9.447698 -6.88108 -2.2033846 -0.88007116 2.8500352 0.04216007 3.59382 4.661119 -0.43289444 -1.55117 -0.79920757 -1.0679461 2.96447 -5.107979 2.1153307 -6.8518114 -8.797371 1.0560222 0.67659736 0.41284025 5.0995007 -3.4540648 0.16598783 7.928006 4.372316 -4.1765676 -9.715365 1.9120618 2.5235004 -6.4256372 1.2313032 2.9466283 -2.4314587 -0.93519014 -5.3391485 1.3104591 -0.1336299 -7.9465957 1.1899316 2.3673246 0.8937271 -4.451535 8.125726 -1.0149703 -6.6571536 5.5365195 1.8022667 -3.5820892 -3.9235334 -2.6764765 1.546638 2.1724079 -5.4598866 -0.9580659 -2.1688461 0.23310389 2.4375567 -1.6232662 -2.6406298 2.5102663 9.80927 -0.569006,
basefee:-5.732735 -8.595068 6.3518467 6.2243443 2.7911181 0.84729564 3.0110877 -4.003663 -9.334787 -6.316748 -12.833394 -7.399685 -8.043757 -2.1662977 -7.708647 -3.4469645 0.058700677 -3.0453992 -2.7826347 -4.4674225 7.519492 6.4891562 -6.174988 6.472252 7.308973 1.8569529 1.5948634 -0.407138 -6.6094294 -7.8057184 0.15281983 1.0681107 7.498424 -0.56607056 5.093781 3.9097428 8.21817 -3.848515 -5.421008 -5.187732 -10.646649 7.2535286 -3.068797 8.732441 -1.0779068 2.1153169 6.5343685 -1.29396 -3.5200052 9.041136 5.390363 -1.707234 -8.548033 -8.09938 2.7715516 4.040949 -10.2446785 -1.6705939 -7.074944 -6.6324573 6.928904 8.050464 -7.061562 7.325104 -7.5867577 -2.1698952 -6.390009 -5.125007 -4.636075 -8.623593 1.547998 11.564393 -8.713685 1.2842989 -5.5363927 -6.8906 -2.9527056 11.403204 -7.2211437 7.828859 -6.6356688 4.3257003 4.833729 -2.7772398 -1.0288795 2.935772 -3.5742657 1.954168 -2.454109 -0.964961 8.39441 -1.5919684 -6.300182 -3.5678496 -5.683472 -5.5551643 -6.521059 -1.5479889 -3.5928307 5.2917285 2.0527952 -8.107001 -6.6830177 -0.018342534 -0.22610456 -6.3807535 7.028148 -8.242185 6.4407845 3.519645 7.141217 2.6542032 3.1531708 1.3438755 -2.6979089 1.459896 3.1875417 -6.2234898 3.6088748 8.504554 3.44748 -1.6720934 6.532727 2.759537 4.2298026 8.040146 4.555378 -6.9746256 -3.1816113 3.0901089 6.3947973 7.6183863 -7.721076 -4.0432544 -0.3197032 1.8082045 8.217166 -3.0638158 -2.7589955 -8.697672 -2.3374298 -6.756388 3.953468 -6.205553 -5.875676 0.6913554 6.396169 -6.8646436 7.1907215 -2.6394863 -4.0754185 0.7801298 6.765918 5.475388 5.1398044 2.3273823 0.8553106 0.16017994 -1.3300823 0.9980373 -5.0292125 -0.78330684 -1.4471842 -7.6487617 5.8027935 0.84004205 4.4161816 1.0454177 -5.641139 8.339228 -0.15039892 1.362167 -6.6551437 -6.093039 -2.6274886 4.9491105 1.2379359 -1.8228148 -4.493511 7.5224595 1.3681618 4.3785753 -4.539482 -7.013292 -5.5517173 -3.7044237 -5.811435 4.015972 8.446866 -4.891887 -1.6913857 -7.6929307 -0.8041001 3.4009633 4.9804444 1.070764 -2.2910852 8.275291 3.7561648 4.322893 1.4538933 4.850387 -6.5949607 8.641409 1.6328728 0.8500372 7.5794134 0.37711436 -4.5832334 3.950765 10.768641 -9.894727 -3.1687393 -3.1752367 -1.8121238 6.9936514 -6.888758 -13.03321 -6.80768 3.0053613 7.979412 -4.3205895 -4.66534 -1.0808963 -5.6880474 -9.941096 -3.574599 9.079952 8.370791 6.8298936 -1.8511999 4.17074 -7.371814 -3.9702601 0.35749295 -4.0646 4.29378 2.9078422 8.432019 -7.0044074 8.713291 -6.15808 1.7323766 3.2694294 -6.435389 0.639568 -6.9100056 -3.9328637 6.2800026 8.388393 3.3533108 7.091792 6.7893085 -4.5119295 -5.5107074 7.168021 6.5293617 3.6185222 -3.1676898 6.911807 -1.5610292 -1.6500484 4.4752483 0.7591449 7.267067 -5.8701143 -5.0413136 8.165974 9.90918 10.188048 -1.0977483 8.38234 -1.1437057 -4.383728 8.318862 -2.9116945 -6.617141 4.6247325 -6.074644 -0.8905029 -8.123261 1.2614156 -5.5886316 -9.390576 3.9181318 -7.4695816 -3.1552262 2.3528583 4.859305 -7.385868 7.0570498 -3.2050848 -2.279415 -3.1220057 -7.4998136 0.23930743 -2.527766 8.198415 -6.4162464 5.172231,
blockhash:-0.3502954 0.8381725 2.923219 2.391282 -7.0736804 4.2271204 -1.753543 4.2722554 3.1886253 -5.0621243 4.7900496 -1.9696367 -3.203973 -5.34244 -6.129645 -4.047332 -5.561661 0.017315365 0.12803774 -7.3620167 3.79326 -3.2881615 -5.7287903 2.7926016 1.1137325 2.6581392 -1.20872 7.330468 -1.7826339 -3.2958958 -4.4742155 2.046592 -2.9613366 -6.2734947 6.928271 3.338321 -0.33373258 -2.6991017 -2.2089365 -6.275855 -4.7854114 3.5146537 0.6458304 6.985717 -10.4970875 4.174189 -0.98445517 0.7927609 -4.345979 -4.154576 0.33575696 0.5541256 2.8990953 -2.179792 -2.208008 1.0338145 -4.429712 -0.35750312 3.850126 4.5178723 -7.60583 0.26158893 -3.745257 2.4636955 3.7325535 5.186305 0.85492927 -5.3916025 2.9705913 -7.349812 -6.668653 5.213303 -3.1148345 3.9859695 -1.9525255 4.40463 -5.660658 -3.5268722 5.2418523 2.7715719 -3.9702942 -2.9436417 4.498603 1.1937178 4.8168335 3.1467946 4.404645 -3.2786193 -1.6336944 -1.2980063 -4.456901 -3.9632068 6.932467 5.2657523 -4.07197 -5.1161704 -4.78191 4.8065104 -2.5648322 4.3747563 4.866882 -2.5756185 -5.6282187 0.43189293 -1.881882 0.51208836 1.9680912 -0.9404551 -0.48185804 4.09764 4.054914 -7.2874436 -2.712297 -2.409751 -3.3735213 -1.5899916 -5.3518753 4.6234984 5.0814924 4.861156 6.987248 3.4537024 4.846839 4.87204 5.3742537 1.4862454 4.8149223 -2.1833282 -1.5844659 3.655723 3.8627622 3.6499586 0.6707332 -5.9854445 2.1751716 -0.06331603 2.5626955 -3.9141839 1.7593234 -3.231925 -2.3628628 -3.8818755 -3.380951 1.9548777 -4.3539023 1.4936059 -5.2001095 -6.6007166 -2.7423742 0.6670796 -3.489284 -2.4739077 4.7943277 -3.1332636 -1.6112615 2.0759525 -5.9696727 -0.736793 0.88851994 3.847528 3.7823322 -3.257287 -4.344623 -5.0421367 5.3972507 -2.9489133 3.6489065 4.31108 5.2803783 6.404403 1.4148206 3.929676 -5.2441936 -5.5931387 6.0310907 4.5295434 1.0644689 1.1746858 -4.929408 2.4749236 2.8442216 -4.593422 1.9420427 -1.5238721 -2.8479323 -0.34841123 -6.0206213 -3.5212624 1.2239437 -5.5321383 -4.254753 2.6157424 2.7775085 2.5793288 2.289437 -2.6163766 5.615252 -2.065029 7.0919623 -3.5081692 5.075934 -5.009672 -4.872542 3.7187862 -4.1155853 6.592309 5.761687 -2.4288256 -0.53889406 3.9403024 7.0808225 6.1810446 -1.3187205 1.3672383 3.4202783 -4.095558 -3.8931458 -5.587601 -5.1015024 -0.46823987 1.4920352 4.555872 -2.8794239 -6.760105 -6.744741 -4.973758 6.4661183 -3.8227193 -4.6193438 3.6895218 -3.8133469 3.633907 5.143275 -1.9265518 4.466143 -6.0673733 -3.333028 -5.6097584 0.9834351 -4.8800387 4.4212317 -2.6954212 -3.9254742 -8.222153 -2.647381 2.6730797 -0.5908832 -5.4012804 4.113994 -4.782003 2.0820549 3.525412 3.1391969 -1.6304889 -3.9783084 1.3253499 0.7905458 1.0822995 3.8865645 4.972779 -6.3991776 3.3485024 1.5679252 -3.1132488 2.1851952 2.7518237 -2.107644 5.680954 5.0440803 5.8028708 -1.894228 -0.101162165 -4.4846487 3.1443534 -2.6367223 -2.2007017 -4.5210624 1.6930069 -0.5062249 -0.44543085 1.5208534 -0.395209 -4.8262005 -4.030305 1.0334756 -3.6065874 2.1968968 -2.4889066 7.233566 -2.7621098 1.0782801 -6.464641 -1.4453411 -3.7987351 2.9113274 0.8622117 -0.56255454 2.4425921 -1.494776 -0.87654203,
booleanTy:3.872542 -10.23678 -4.267563 -2.898597 6.219411 -7.8963585 -6.964846 10.9221325 -2.2296429 4.9043555 -4.8083405 -1.2622955 -0.6546088 -2.1885424 -6.8387146 4.790244 -3.5197947 0.27030098 7.9978757 -8.385998 2.9691837 -2.9886868 4.2417665 0.19099195 -10.629816 -5.6675663 9.483446 -10.715864 -5.4730306 -6.0144424 -1.4766903 5.833563 -7.3806653 -6.677857 2.723837 -6.0095825 -5.1495285 4.8511977 1.6425592 7.346371 -3.9662032 -0.88798434 -4.4542866 -9.97162 -3.7857797 8.653801 2.1296594 0.5665811 4.622799 4.857441 -5.181912 -3.320928 10.29148 7.4189725 4.5692906 -1.2083936 3.8484027 3.5654225 -5.2927628 -11.588726 0.8161311 -4.3188977 -0.109936565 3.6186247 2.83328 -6.9141936 -2.8625379 -8.128167 1.870919 -1.7625316 -8.307665 9.791453 2.4529338 3.9505749 0.706482 -8.322369 11.316432 3.8687477 5.969524 3.6225646 -0.6553299 -0.012858451 -10.407178 -2.7983024 -2.13179 8.502163 -6.576808 -7.8086224 -5.6320715 -3.3724494 6.3243394 -0.10063357 2.809783 4.7415066 -6.746004 4.0623064 -6.023019 2.1898718 -3.6605084 -12.475153 -4.1245737 7.8812666 0.46965986 3.4483707 -5.4840436 -3.1815932 8.550409 -6.613055 8.548535 -10.303149 -3.3139732 11.865879 -9.520942 8.699511 4.3289604 -7.418013 10.531108 -6.8493953 -0.88156265 -6.075655 7.1078134 -5.388108 7.8466215 1.379669 -6.6702294 -6.113099 8.279699 1.1005969 -6.780147 -4.2480116 -11.16495 6.321967 4.847851 -0.15757602 3.578471 -1.4555476 6.897994 6.575346 1.035567 10.36305 0.6349318 10.596163 4.540474 -10.052924 0.19063812 4.784621 -0.36697868 -4.8784537 6.777644 9.8124075 -0.24456014 9.238851 -9.685902 0.06864977 -5.635112 -10.688023 -8.933433 -5.53308 5.6687045 -6.8246355 4.31973 5.3203835 7.7174845 7.1807737 -1.3527638 4.5125217 9.249491 2.1864245 9.0049925 5.998652 3.6149418 0.075954676 4.5916095 -5.45816 -4.4428654 4.752938 9.161669 9.845327 -7.6998262 8.749913 0.86985844 1.1827707 -1.6542295 8.6849375 -8.203849 6.5345078 -5.094961 2.7741714 7.8231354 -3.2317178 -0.8283334 -3.534292 10.436053 2.8897688 0.35678643 7.294278 -4.746524 4.3663025 -9.368286 5.406408 -10.973537 -3.7215528 -9.249004 -1.3388518 -11.222843 -1.9505309 10.541075 8.511405 -4.5118017 2.5420058 -3.8665783 8.244782 -6.8670692 -4.1501207 -5.190284 4.836906 -4.334618 9.884737 -3.4690545 -5.2355304 -2.4956832 4.4537077 -5.377267 -10.200733 9.482662 11.026576 -1.5470284 -6.9164357 11.678133 -5.115251 -7.634713 7.454061 6.408968 4.8505383 6.2057757 5.2435517 -11.835105 12.461211 7.7235055 9.58689 9.733726 -5.452056 -1.2131785 -6.119365 -3.5996175 -1.6896393 10.491606 13.5885515 8.055937 6.195367 -10.2106285 3.0708237 -8.729481 -6.3387847 11.313095 -5.6124196 -7.846421 -6.7403045 -3.2179193 10.802299 -8.437465 -8.407983 -2.094553 0.24954027 3.1958451 -4.951589 5.347502 6.010783 -4.7575307 -7.150752 0.59232837 3.5601933 0.05849204 3.3250613 -3.1896586 -7.2157493 -6.459313 -11.022393 2.8219652 3.1831815 -4.4436474 -7.357781 1.0105293 3.4879043 -6.9289174 -3.5685792 4.384862 -2.8546188 -10.328704 5.5085764 -5.796776 6.787152 -2.0200343 -6.4616346 -0.823841 0.48191845 0.7478482 -1.3388928 -9.17495 12.611403,
break:3.517978 -6.4213347 -5.4972463 2.828159 3.2272878 -2.0316637 7.9739537 -4.2199492 0.20352824 -4.4782057 3.1008692 3.7947962 -1.726905 3.198446 6.7082767 -4.4478583 3.3401902 -4.136794 -3.9572706 -3.648931 -2.485538 6.0907507 -1.4843385 -3.0129335 -2.855384 -0.20999797 -0.041970346 2.0881596 7.411658 0.3499365 -0.5216041 -2.139141 -3.6326675 3.826808 -0.69850093 -2.9864016 -4.635775 1.3814701 -5.214743 -4.962455 -3.7839782 -4.714684 6.6642895 6.430305 2.5927641 -7.083476 4.4899364 -0.9075814 -2.428141 2.470273 8.194263 -2.7848089 2.0136764 1.9852896 6.835539 -2.4988985 -1.7085062 3.0573275 3.2437701 6.943199 -5.955427 -2.9896278 5.4963784 0.076166816 4.4963045 5.652936 3.6531324 -1.4917656 -0.2554641 -5.143791 -3.0437336 -0.2220318 -5.1481986 -2.652768 -2.2619636 0.52339643 5.171597 -1.7208765 6.439134 -7.295165 1.4964519 -3.7608273 3.5441408 1.3458943 5.2685437 -3.5418265 -0.49869952 1.4039074 -0.40985268 -0.36342812 2.20634 0.94278365 4.4292974 -4.680257 4.1979475 5.2170687 6.1517687 -4.9377775 -3.082813 3.652056 -1.1860595 8.545265 -4.0076513 3.7188506 -1.8159242 6.11387 1.3342401 1.6669482 -3.3631854 -3.3242607 4.506641 -4.5931273 -2.4986305 -4.3388023 3.883547 0.7464874 -5.4681387 2.2976618 -5.999719 2.325444 2.2285492 2.457999 -4.622768 3.5906613 3.3554056 3.9169471 -4.1172237 5.700445 -0.8854282 5.138623 0.15703745 -5.00474 -3.7260046 -3.1508665 -3.20568 2.515583 3.7805753 6.6024427 -3.0347714 4.809163 5.59009 -0.7494916 -1.9275517 6.904774 2.2247818 6.498247 5.224115 -4.745533 0.6153708 -5.308634 -4.9946184 0.93786013 -5.9984474 -5.935516 4.522652 -1.1691841 -1.8750656 -4.710008 -1.4264745 -5.6651554 -2.6510577 -2.6798608 -5.349283 0.81801933 2.597786 -2.4796424 0.8438808 -5.5327706 -2.1234217 -3.6781533 -3.2887866 -2.2155087 6.706237 -7.7122016 -0.62635213 -3.8790717 -1.7496245 -4.669345 -4.1202917 3.406048 -5.8035493 0.16660473 5.1175427 -0.34732634 3.2736435 -3.0983465 -4.974888 -5.8542266 4.290792 4.6121764 3.0109067 5.6505613 -5.629929 -8.115528 -1.0286236 -4.082922 1.5911424 4.940168 5.4902263 -0.37453097 4.1921215 5.381224 -0.44299883 -4.994668 0.5828786 2.8298528 -3.979448 1.9252751 -5.273069 5.8121405 2.421147 -0.060409993 -2.5039282 -3.341415 3.2875369 0.91174567 7.152203 5.3842087 3.4334037 2.238666 6.4376493 -3.100229 5.305867 4.2644076 -4.4532557 6.171106 0.8164824 -0.36357814 1.1620663 1.588559 -2.9339015 -5.5098944 3.753924 1.0625814 -5.183213 2.2266636 3.1855645 -3.2496433 -5.3144 -1.542605 -0.6290387 5.240206 2.7283013 4.4712143 0.7769797 2.2352157 -2.1412766 5.1842446 3.5079637 0.16607417 6.89119 0.7888743 1.84652 5.867203 -0.49205282 -5.2938213 -1.390788 2.9399636 2.0560415 -4.4406476 4.2673635 -2.9087303 3.4900286 -0.9852975 -5.6447186 -3.873796 1.9411464 0.5960015 5.4124684 -3.6540575 8.629184 -3.1875975 2.430899 0.34335506 -0.8221478 -1.1198996 -2.2845323 -4.8693357 -3.5705285 -3.079565 0.13965797 -1.3580995 5.1183844 0.023258727 1.037159 0.5068131 -1.2801224 1.1557547 0.513017 3.8645563 -0.5027516 -1.9867783 -5.6995206 4.825325 4.175047 5.2362895 4.2672377 -5.8494606 0.8032635 2.362604,
byte:-1.3286517 -0.103953354 -0.12418462 -6.137366 1.103539 -7.101468 3.3344154 0.3463702 2.4389524 1.940087 4.4888234 3.7738116 5.4985485 -3.1294723 3.4941316 0.8159023 8.808588 -2.3193188 0.14590582 -6.8474536 0.3375089 -0.3094558 3.463005 -2.2103808 -1.7476593 2.8470795 -2.5720236 -0.36174667 -5.640253 -4.7782702 -8.541561 -5.757446 -2.9219422 -0.6373873 -7.13694 4.552021 -4.568355 -2.4302223 3.5170088 -3.6722429 1.7641684 1.7737653 3.1176543 2.4965394 5.3009605 -4.979924 -0.30863157 0.3588455 -5.335053 1.6695672 3.7254953 -0.38746616 -4.911231 -3.0982673 -5.5363865 -5.667747 3.2211032 -4.323253 3.008106 3.7829678 4.1906633 -1.4140606 -5.4088764 -1.0514501 0.8564606 0.5966983 -0.5244405 6.522305 -7.230293 -0.2141324 5.9040604 -0.9966574 0.30466557 2.404793 5.55865 6.3246255 -7.578927 -2.7977943 5.487767 4.88541 -2.0280538 -2.5528247 2.121547 -2.8160563 -6.3909926 2.9639966 3.6637053 -1.5674987 0.74929035 -4.5008016 -4.531718 -5.313955 7.218066 -4.6781254 0.6976301 -8.7566595 0.2136163 3.0537891 6.9118195 -0.23625596 -3.080786 4.595459 0.5043086 3.3532526 1.038825 -0.59326243 1.4440285 5.6297493 1.1356366 1.0208588 5.2026505 -0.24995665 -0.86158323 -0.50875026 1.8461639 -0.17723568 -8.73211 -6.214498 2.106539 7.218078 -3.7538018 -1.1705991 -1.0752851 1.5418824 6.6788087 -1.5901446 -5.0697393 -8.256527 -1.3852476 0.43774492 -6.757011 -6.4437804 7.4354835 -2.3647594 5.4039664 -0.7304601 -4.349807 -2.2596424 2.5885262 7.083315 -1.3066399 -2.9241247 1.084007 1.4806613 -2.0149138 2.1915421 4.437439 0.9021289 -4.5763206 -0.6664015 -3.6690757 -2.4096227 5.196889 -4.0681844 -0.9317957 -5.5386906 2.4923594 0.44771028 0.058681406 -0.12807629 2.7494218 4.3310595 -7.3627396 -6.671788 4.704778 3.0896058 -1.208529 -1.8549018 -3.0070903 -2.6578553 -3.9763484 0.9098224 2.125871 -4.7612896 8.0459175 -3.1924827 -0.81943274 -5.01292 0.023785757 -0.4700607 -0.23603928 -5.907585 4.1935687 -6.0025015 -3.3223984 2.7644067 -4.102595 -1.315388 -6.9491053 -0.68541324 0.41792056 -5.1324134 6.877252 -2.083978 4.0966005 6.472034 -9.625387 -0.3129211 0.9569418 7.0142837 -6.526858 -5.0769806 3.2891064 -2.3350124 0.9251352 -2.063487 -3.3396723 -2.928186 1.4377205 0.6109711 -4.6165586 -4.9963646 -0.9147667 -0.8373805 -1.4147598 4.932985 -7.945386 5.0792527 0.3625558 -0.8553623 1.0572722 2.6948154 2.2168427 2.56837 3.2873383 -7.7505007 -1.4334221 0.20423235 -4.789211 -9.473871 1.7081634 2.2134721 -4.5049133 2.9288 1.0232446 -5.8323884 2.4845428 -7.182268 6.70253 -4.6495204 -5.0236807 2.2176714 -6.662577 0.63762116 -5.3757 2.6190653 -1.6036956 1.7272776 3.9634762 -8.405548 0.5751599 3.490236 -4.432655 -6.1826735 -4.481564 1.1534469 7.7919097 2.9239533 4.358789 -4.595417 1.0074683 -0.6731844 3.7706375 7.458294 0.13428575 6.6954346 -3.1652203 -3.7348459 -2.9481611 -0.022707645 -1.9782254 0.033619337 -2.4045193 5.562363 5.347408 2.6735816 -7.1100726 -4.9957232 0.7016646 6.0750957 6.888623 1.9850395 -9.13207 5.2677913 6.7755904 -0.87389207 4.838921 1.571031 1.802845 1.6186094 1.3414786 -2.4778323 -1.0438577 6.7153893 -5.4600663 2.3911748 -4.0658135 -2.747385 0.67886347 -7.9753556,
call:-3.7648509 3.8960016 -1.3686682 4.5862536 1.0769418 3.827259 9.204303 -3.3555045 0.16158992 7.6057563 -5.727784 3.5363681 5.7928834 1.5672665 -3.5963676 7.7896576 1.2717602 -1.6214019 -1.984548 2.4860122 -3.0666149 -7.204606 -1.0346918 -4.6681256 -1.8655179 0.6543765 0.08552563 6.2938395 -5.3217893 -0.32063666 0.4382464 -2.2281854 -1.1375567 7.177215 -0.82181984 -4.301017 0.6186932 4.561519 -2.023412 -0.14825656 2.275089 1.6698585 6.610373 1.632762 5.298575 -0.2253432 5.947223 6.7931404 4.898012 -7.052372 -0.26026252 1.7080082 3.6390228 -2.973476 -6.3114614 -1.7464952 -7.1423388 -4.2316284 -5.1105165 2.677338 -2.3797817 6.954293 -4.6990705 4.760981 2.162717 -1.5446255 0.93718827 -2.5383878 3.5796494 0.16231449 4.4428816 3.2252123 4.627214 1.6159468 6.825045 -6.102257 -1.0000046 -1.3924491 -4.359893 7.4039016 -4.2377243 -2.3529608 2.5843704 1.1216582 -2.1991072 -2.45459 -8.277429 -2.2636275 7.5490284 7.205211 -3.8924608 4.1276298 4.0933146 4.9361544 1.3893378 4.873068 -0.049704976 1.816683 -0.94210666 1.3395039 6.7206464 -6.3371124 -2.7922173 3.9119985 1.8600565 1.9377797 2.916237 5.353027 -1.0349234 -2.9199371 -7.6871 -1.307256 4.9370666 5.9826684 -4.139372 -3.576275 -1.9444518 -4.742962 0.82978535 0.044276513 -0.7006215 -4.687187 -5.1257405 -3.5896575 -0.14193037 6.4500303 -4.9774895 8.887724 5.1510634 -4.925219 5.7637815 5.949486 -1.7850314 -2.4311128 0.7753615 -4.8087964 -2.3342514 6.2205973 1.7709018 5.7246737 -3.0313091 -3.0913713 -0.3232531 1.3891529 9.373396 -3.0664709 3.5849295 3.1141772 -5.05245 -5.6469836 5.2073774 -1.5324023 5.5418806 0.36860627 -0.39745554 -0.6584815 2.7184389 1.9392816 -4.2450256 4.711828 4.8189993 -4.185846 0.44913143 -0.3123252 -7.790005 0.087113805 -1.4147782 -1.2183285 -3.3348453 -3.003093 -3.865509 -1.0917045 3.5594447 4.184731 0.13080388 -8.865282 -0.10810198 -5.1784043 0.1920346 -1.2361981 5.4725466 0.5465606 6.754051 1.4449766 2.9226248 0.21526201 6.7128344 0.6218346 -5.5282364 0.3643194 6.028037 5.1041174 -7.4216423 0.53969115 3.738294 -3.331307 4.904965 -5.146334 -2.4210463 -0.80954385 -0.56412673 -6.068827 1.9092096 4.256017 4.375024 7.7506537 -5.9827347 1.3847159 -10.119005 0.23302445 6.102331 -6.2903776 1.0926441 -4.1303806 2.7401903 1.855728 -0.5208972 4.0357566 1.7735212 -0.1601198 -7.6365952 -1.4949911 6.891093 3.010528 -3.9503186 -0.5957987 -1.9802043 1.0107752 -1.7325336 -2.2826197 1.0628148 -2.3159218 -4.218504 12.030575 4.4142647 0.97369003 -0.35074514 -5.228329 -2.4548109 -1.5625743 -3.0686414 2.8767452 -4.1154685 2.1823835 4.3656964 -4.042535 3.0885377 1.9388782 -4.812574 2.3968434 1.1464093 3.5959926 0.41994584 2.3015254 -2.8912857 -0.7200403 -5.13397 0.045007642 0.73762375 -2.822023 0.23918056 2.642821 -7.436891 6.4590697 4.964526 0.6854034 1.484499 -0.20743454 -3.0722814 7.189277 -3.935969 -0.7400307 -11.602751 7.4875646 -8.170626 2.1652355 3.1164453 2.0790563 6.4144387 -1.021432 -6.0276017 2.6043997 5.233456 0.92115355 0.26440507 4.7434325 4.144403 3.6273906 1.2768401 4.6830373 0.91519177 -2.8252218 -0.75169885 2.0770273 4.079359 -0.8765554 2.9000225 -4.632784 8.875428 -8.507524,
calldatacopy:-1.5725734 5.276102 -1.1110444 8.177935 6.287023 1.1811537 1.8434314 -0.32429263 4.0400696 9.749988 -1.3497574 5.0759645 1.0717721 0.5117091 9.017946 -8.592421 0.9020807 -2.6463466 -1.4019967 0.11069054 -11.925845 3.8156202 -5.3535323 -1.9578394 2.290329 -1.8584194 -4.654827 -0.009183977 4.573307 0.2966204 4.121957 3.1202981 -10.544406 5.6937003 -10.558719 -1.2775569 2.9195309 7.0753546 0.2515101 -2.9533951 3.1449564 5.203096 -2.1573436 2.7039373 4.2239485 1.9103541 5.9464827 -3.360601 1.0797843 -5.112658 3.870688 1.2552744 -5.724569 -1.7921973 -4.0995474 3.518875 -4.5674567 -5.2239914 4.88274 -6.061079 -5.977086 -0.43187287 -0.9841196 2.5649798 -0.061525207 -0.9768202 2.434071 5.2691393 7.883397 3.1995618 -0.25742808 -9.664311 -9.020974 5.4791937 -3.741377 -7.865969 -1.3987985 -4.706358 -4.2689385 5.588252 7.776367 4.20853 6.653776 -4.542606 -0.44860518 -1.3361193 0.6165828 -0.30655125 1.6411047 -1.7974458 7.7941775 6.4298515 0.3076384 -6.7980413 7.55322 1.37082 4.3131385 3.7120168 2.179722 2.8750803 -7.34903 -1.2981936 -3.3696182 -1.6813581 0.07572976 1.5304177 -0.6121898 -5.9799685 4.194593 0.7002186 -1.4277321 -3.8819048 5.4983234 -7.747003 7.734301 -0.93045586 -3.695248 0.52936953 1.0969633 -0.79128414 -3.8091977 5.0220585 -4.135001 -2.580387 1.5761693 3.8109589 -1.576275 2.0384736 5.6312666 1.1330596 3.565848 -2.4156463 -4.25407 -0.7540114 -0.25060764 3.259826 -4.216294 -4.30934 3.423252 0.5137323 1.9099152 4.461256 0.9917072 5.244882 -2.5287113 -6.6881824 2.57107 -2.5772521 -2.5799644 -7.183791 3.721658 -0.2915325 -0.0027282666 0.3221743 2.630036 3.0184753 3.1931376 4.733196 -3.0438442 8.810672 0.43497038 0.7753708 -2.189874 -7.1523085 -5.4425683 -0.0679857 0.6414784 -3.3682446 -7.5512753 -7.0594177 -3.3870344 3.8699846 4.9263067 1.4210755 2.2555819 -1.0811183 -1.2533311 -6.400918 7.326576 -5.871996 -8.204167 2.4194372 1.7479461 7.340893 3.1154408 -1.6344658 6.674973 -0.45574525 -0.6460121 8.117257 -0.8573764 3.2359753 -3.7063553 -5.1697593 2.819251 -0.24777728 -0.96080524 5.3355246 4.2378206 0.40318862 3.2093644 -7.0014534 4.257851 0.54561883 5.3352203 -8.904472 -4.2991705 -2.8861556 -2.5474746 1.6312882 0.17554834 -4.0415134 -5.04036 7.521002 0.24270812 -1.0099423 0.21836777 1.2442285 0.78033465 9.068184 -5.317272 -2.758186 7.6119747 5.806986 3.6552305 1.1444511 -1.766395 1.2526294 3.01761 -1.1779909 -0.88333035 -3.5026386 0.6991676 11.263705 -0.0024905764 6.4559236 9.5870905 1.9032682 -5.8362207 1.3109549 1.8373919 4.2185626 9.531514 -7.1559997 3.4862616 -6.0775175 0.8330832 -0.11650071 -7.168959 -1.7661424 2.7094302 -7.0212603 0.7348431 7.553594 -2.4056964 -0.47783777 -0.3142845 -5.870794 0.6234758 -2.813274 0.5744382 -0.928234 0.0718724 0.81680655 1.8469759 1.4330684 3.8631997 -0.56773883 -1.8567281 5.507999 -4.6562896 -1.2467375 -2.7169464 3.2970948 0.34417057 0.036930412 1.5933675 2.2287357 4.192419 3.9032094 -4.1815653 1.9243749 -0.31141645 4.9317594 2.2211359 6.2202964 -7.4813304 0.15510625 -6.137491 -7.5550776 3.5932624 -1.6095091 -0.15494005 3.9412017 -1.6072875 7.832668 -5.7688956 -4.337965 -6.532734 -3.5137286,
calldataload:1.2902495 5.817478 3.104663 -3.069598 -5.9240055 0.6424861 5.512475 -0.15063953 4.3130064 -1.3770223 1.524696 5.533339 0.71501195 0.50426143 2.3191018 -4.9778237 0.112677485 -0.33268347 0.1275012 -1.2915646 -10.444778 3.429091 0.8385397 -0.62591225 2.4690564 -1.9059404 -4.8473616 1.3919809 4.943823 -0.3893763 -7.0446405 3.571419 -8.926271 -5.989356 -4.533292 -1.5791018 -4.2061276 -0.33774078 4.6316004 6.5633054 3.35266 8.206975 6.7216716 2.5009873 2.142855 4.349895 -3.205461 -3.3629236 6.026656 -4.5322 6.008418 -2.938226 -0.34284014 -1.2971876 -2.7167501 -7.7408147 -2.9272602 -5.1144485 4.1013074 2.5309207 3.4752252 -0.04617327 2.2925625 1.9123839 -1.4638088 6.6973906 1.8515568 4.18737 -4.964055 7.3287444 -5.106707 -6.634351 -7.261151 -7.582084 -4.023555 3.558482 -6.225627 1.527616 -4.3392344 1.8768629 4.3974643 -1.5271821 1.4107045 3.031754 -4.528353 4.146559 0.6128921 -0.43152252 2.1224163 -1.8803526 5.6659126 6.2058477 0.47851548 -6.4793525 -2.9738042 0.8484928 3.9532323 7.1018057 4.5387397 -3.6820867 -3.149775 -9.52442 -2.5152702 0.9720089 -0.7491341 -1.4844562 -2.6180396 -4.8606277 4.771946 2.4116752 -1.1149862 1.2943648 5.05879 -2.0268648 0.71980363 1.8892019 -4.6887045 0.012714928 0.49206173 5.542999 -6.3593087 2.918462 -4.748282 -3.0677001 1.85337 7.0887666 -2.018494 -5.451264 -0.23568372 0.35565168 -2.3453548 -3.062078 3.1080923 -1.0130163 -0.5446727 2.7463205 -9.945529 -2.8358397 9.003813 -4.5365653 1.1598046 -4.649573 -5.0144906 5.333158 1.3520839 4.116326 2.423164 -2.5167153 -2.6072931 -3.10385 4.278899 -0.74114794 0.972633 0.29146048 3.074177 -3.366539 2.6258328 5.597984 -2.973239 7.1665993 -1.8851943 2.1925232 0.7024528 6.663714 -4.158258 -0.0041391375 2.6245098 -3.4930804 0.0012416659 -0.19835366 -3.261435 3.1624115 4.7425966 -5.4533224 -3.7243261 -0.5832193 -3.0884998 -3.322294 -6.18471 0.99949396 -7.328227 7.3468003 -2.96438 -4.0907235 -2.367153 -2.5142126 0.60578215 -3.1090248 -0.060361743 -5.931111 -1.0978359 3.5846431 -4.0679297 -5.422836 1.7230667 0.31160498 -1.1561308 -1.9711869 -3.3987646 6.000834 2.4906864 -10.0292015 5.818264 -2.366909 3.5870566 -0.121515274 -2.0387082 -5.384037 -1.493578 -7.7315483 0.91733044 -2.7831833 6.172403 7.354509 -6.831734 -1.5636636 -5.771657 0.7586403 -0.36732578 -7.125109 4.7999754 0.77015424 -5.113228 5.9211564 1.5074853 -6.013943 1.2456771 2.0796993 2.9715595 -1.0307958 -0.9450747 -4.7450767 -6.813859 -3.8224006 0.94621104 6.219018 6.729142 -0.5750675 4.2159486 -3.763585 1.7377083 4.255842 -11.642198 -1.9215151 3.1733904 1.4707749 -0.42760205 0.2619466 -1.2502831 -2.2957532 5.029125 -3.1236944 4.26655 6.120812 -2.8290222 1.3639256 -6.4138637 6.0399847 1.2486107 -3.576568 2.4925117 -0.9989225 -4.4295435 -1.15487 -2.907252 7.4628596 3.375437 -0.86676186 0.2083185 -5.684377 -4.3950195 -1.2043469 -2.778671 3.3393195 1.0650204 5.2707963 -0.29495397 7.5725064 0.71700037 4.0115237 -1.5247484 1.1269745 1.2237334 8.551793 2.5563676 -0.4084729 -5.5334144 0.89295226 -5.251712 -5.624535 -0.91482186 -0.9370997 -1.9600518 7.650238 -10.464965 -5.709493 10.175493 -4.2223563 -0.9585157 -5.551898,
calldatasize:1.0545902 1.3003135 4.9839435 -2.7791681 -5.1341553 4.497075 5.149763 1.2184176 6.830556 2.5155368 5.5869455 -8.28998 1.8580477 -4.2395887 -0.48906344 1.1435572 -5.8638372 1.9122523 7.181784 1.5058835 3.8646433 0.44115585 1.1965495 2.5065184 1.2077526 0.7865812 6.361378 3.0711896 3.9104857 -4.496547 -4.7614665 -8.053489 -0.08760477 4.7515235 3.770803 3.06737 1.9020722 -3.0716958 6.7555904 4.416636 4.044221 -2.7140412 3.429038 2.6580925 -2.8569589 -5.0250654 -0.10744446 -5.0313873 0.6102842 -4.477278 -6.57283 6.8803916 4.5607495 -5.442148 -2.4612207 8.103343 3.8062356 3.626351 -1.376821 4.874043 3.5076869 -4.153455 -6.9349356 -1.4597999 -5.075808 -5.528263 -3.3195481 1.7052019 -5.540036 0.5471922 -2.9836388 -2.9134107 0.37181643 -8.187265 -10.890381 -2.9150562 -5.3708506 1.2467479 3.454006 -0.17933139 1.412122 -2.1709824 -1.7873693 0.114425465 -2.897935 6.235175 1.4735434 -0.539393 0.86487377 -0.013536549 -2.4223037 -5.444545 -0.06685919 -1.7666119 -5.6323147 1.9521009 6.752636 4.0866885 1.2092382 -6.139295 -0.93513995 3.1369858 7.192858 -1.5120274 5.5875697 -0.68495005 2.7300732 -4.108113 5.2356086 -8.245228 5.8134003 -0.24481791 -2.8240154 1.7989204 0.3920869 -4.167611 -6.096488 6.4659147 -3.2847874 5.073202 6.2846003 -1.3484842 1.4739572 -2.489269 -0.015043172 -0.7091035 -4.57857 -3.2622714 -8.452455 -5.421945 3.7122989 -6.2182455 7.5000377 -1.6458472 7.165264 8.048286 -4.150211 1.1111871 2.2728245 -1.4298056 -7.8191395 -3.943226 -0.37355083 -3.6866066 4.117948 1.4513439 0.7014485 -0.29463854 1.8365073 6.7261815 -4.149662 4.4293475 5.627321 -1.7658662 0.29126248 -5.09265 -4.369418 7.5088954 2.1744723 -0.92976314 -3.2397313 2.7444143 -2.0217164 5.7236404 -0.3086624 -5.8845825 5.060851 4.989161 -3.5859275 -7.08534 -3.8241673 6.3921137 -5.657682 -7.0439105 -0.8650883 4.3413997 -4.33017 -1.6643475 0.1564577 -1.817916 2.932731 -4.8902884 -3.953403 1.322953 -5.5967016 -7.0530157 -0.5547289 7.929299 2.2893178 -1.305667 -1.3235656 -5.319579 -1.9477563 -2.0493708 -1.1791303 -2.9772434 -2.13759 4.53511 0.3554648 4.5804315 2.3640158 1.5140882 7.8681126 9.59876 -1.903603 2.0184276 3.4354439 9.683925 -4.980853 -6.1415863 3.6233919 1.4353575 2.6734898 7.953815 8.406977 -2.0814006 2.8638854 5.9837866 4.1626935 6.7695417 0.91701347 1.629503 -3.0794938 7.7962327 -3.5318239 -5.443281 0.18632248 -4.6099105 -0.9062985 -6.4742465 8.746471 -6.313363 -8.562056 0.85408264 0.43649012 0.03553166 4.248532 -6.078424 -0.1611283 -2.1541486 0.99824023 -0.50586003 -5.300713 7.6279635 7.0060024 1.0116097 -3.6388893 1.4948792 -5.495651 3.1537647 -4.97844 -5.2726097 5.9797907 -0.51131356 -0.76394403 1.8924412 -4.421337 -5.890895 6.8327117 -8.988067 -4.711014 3.009934 5.8873024 -3.5180762 -4.157497 1.8272952 7.0629907 2.6945236 -8.230341 -7.7605615 -1.7146751 -0.49026644 -4.891254 6.186778 -1.3842338 4.783706 -1.3767401 7.082163 0.82431227 2.8970199 -0.73346424 -1.7344431 -0.79704607 -1.8533083 -7.7142386 -3.2723832 4.7040377 -7.4832644 1.126287 0.03499261 3.107378 -0.85185444 1.8769059 -3.2402413 2.236053 -8.003911 -6.2218165 2.533436 3.8140545 -4.421612,
caller:1.6397889 -1.608915 8.05869 -2.7838662 -4.4021816 1.4066684 4.905991 -9.040818 -4.3509164 -1.5270094 -1.8083391 -4.8324375 1.433497 -1.0792094 -0.9638065 4.282447 -1.3113945 4.3577256 3.0028787 -4.797777 -10.3540535 -1.2313647 0.8522843 -4.9948683 1.0374727 -8.222445 3.0124605 5.161314 2.1672342 0.52496886 -2.6560104 -2.188471 -7.3436756 -3.0435846 5.887166 -5.1418476 -3.4961746 -0.73381406 -3.6287518 1.9442422 -1.155387 -0.83678085 5.194064 3.2826996 -6.5284944 -2.185704 -5.343496 -2.2836175 -2.1400166 -0.13954304 2.5598118 -12.29502 -1.8351316 -3.1174097 2.5155401 -5.153812 -4.3552413 12.215157 5.660332 -0.3117879 -0.42267448 3.7647312 2.8026783 -3.1381004 -2.9345872 4.7759876 4.484399 2.1514647 -1.0096563 0.90439767 -0.51197624 0.96929365 4.5626745 -7.466745 -3.371165 7.055991 -3.3198934 2.435438 1.544145 -2.890299 0.0042122696 -1.5389749 -1.4487722 -7.2748895 3.3396418 -3.776491 2.699493 1.1840845 5.3602886 2.2013614 -0.8614048 -7.529508 3.5774944 1.2737573 3.291267 -0.74302566 -2.793816 -4.039852 4.5349994 3.3356292 2.715535 0.18830425 2.5766473 -5.9408503 2.9615781 8.539036 -0.5417185 3.4125128 -10.862896 0.28417447 -0.32843408 -2.3199513 0.056486484 -5.4007707 -5.8954883 3.6976092 -3.0438762 -2.3133974 -5.3305516 1.0723532 -2.4633684 -2.3448875 -5.1547365 -1.5814853 2.1799872 1.1417217 0.17283578 0.76059586 -4.480949 -1.8865807 1.2495129 -1.1700145 3.3538117 1.0094209 5.5892935 2.4825954 7.3137293 3.1865005 -2.68007 6.5979667 -5.1906023 -5.765359 2.1423314 0.391142 5.6804028 -0.7327177 -3.7059155 0.32202366 -6.739496 3.7800815 0.8401811 -4.374141 -2.14696 -1.2572749 10.972536 -3.0537236 -0.405043 4.2266927 -3.3758562 -3.3434117 -7.1461105 -4.7543178 -2.3683426 3.678803 1.5616839 2.8983793 -2.6204486 0.90526265 1.0010357 -1.0801419 -3.679903 0.3672759 -0.3600608 -1.5340942 3.4165008 0.5718969 -5.163728 -3.7104568 -2.7813396 1.5954008 4.846901 -2.0393562 -6.1833687 -6.98148 0.19859464 2.358765 -3.282488 -1.1662261 2.667492 -3.7249033 3.9983826 7.9744167 4.6251464 -2.3444173 -3.64572 -0.76408273 -2.2591197 -6.01701 4.6117234 -1.5850328 1.4304079 -1.3135657 -3.4674027 0.20549287 0.27544445 4.5714984 -1.0691775 5.685205 4.750062 1.8284231 3.9324408 4.2978697 4.2055173 -9.927972 5.282077 -2.6105022 3.576222 -0.859436 3.049821 3.1464183 -1.7672775 -4.8174796 -0.20090187 0.46442717 -5.927089 -1.2524047 2.4288654 -1.7124331 -2.8515422 2.9048471 -0.56362706 0.35296297 -1.7454817 -1.3889866 -1.4780475 -2.8990686 -5.4935317 1.626661 -0.18208237 -2.4076695 0.8232683 1.1269829 -2.8708215 3.7871635 1.3698184 5.9431243 0.551072 -3.5602636 1.9133443 0.56213206 4.5818157 -0.6097712 2.769533 -4.1645045 -4.714156 8.953489 -2.242247 -3.0022328 2.0208666 -6.09927 0.42160743 2.181384 -11.824416 4.4361143 -4.254425 4.228087 1.467492 -1.3424599 1.0459079 -2.7226975 5.0350957 -8.889103 0.04824957 0.6110821 0.11274006 3.4199524 -2.0508847 1.8934736 2.2399695 -4.856461 4.6086946 -3.6740584 4.0636044 -2.758656 2.5024261 -1.5242281 -8.180635 -8.499905 5.1154075 1.018769 -1.5457121 6.18209 10.043536 1.0050832 -1.8802752 -3.4852812 9.478762 -1.7284569 5.444088 -2.6584787,
callvalue:1.9997866 -4.9256754 5.9572353 -0.7253119 -4.0207825 0.74459434 6.0484376 -2.6245933 -3.8270283 0.87614346 -4.0243735 -2.2412329 2.925478 -0.116346784 -3.0457373 1.2119607 -0.4496025 0.09691907 3.0417233 0.35331517 -9.29787 4.369848 1.1845341 -4.2697554 0.39608762 -8.284431 3.753707 5.094925 5.621098 -1.9240221 -1.3243914 5.4018726 -7.4073567 8.140828 4.125979 -4.100126 3.5555336 -1.4171238 -2.0760832 1.6763291 -3.5811944 1.0678496 4.311733 4.636392 -5.4357834 -3.0492313 -2.5705073 -7.2335496 0.33836684 2.5606146 5.074267 -7.4047837 -0.17938578 -3.3981981 -2.7246084 -0.5172121 -1.3253778 12.426568 3.8118796 5.8341336 -4.7013464 -3.011307 2.3968887 -2.287249 -1.5535183 4.029632 -1.8812345 -0.4278588 -1.8997346 0.34802625 -2.2084193 0.7484118 1.0390717 -6.727325 -3.4009783 -2.844012 -3.0054703 1.9733001 -8.456303 -5.0493712 4.9400463 -2.9363446 6.3787036 1.0442777 0.6582985 -2.572241 3.7312233 4.414737 1.0996549 -4.7346525 -4.3237004 -4.880011 0.98233724 1.667037 2.275127 0.27521688 -7.1995306 4.3057566 -8.207456 6.1886225 3.667874 4.777173 1.6595776 1.8574295 3.812347 -1.5637865 -0.8591353 -2.4353852 -5.8956547 -4.396204 -1.2243028 -4.303843 1.5239903 3.7382524 -4.902794 0.69932085 -2.3747084 -5.317921 -2.6004794 1.2984174 2.7932515 -1.0250335 -3.8973048 -1.6895651 -1.5933207 -1.040978 -1.7294658 0.9511132 -8.6850605 -3.8953452 1.9484779 2.5238426 4.8571634 -5.9808674 1.6366874 2.5618784 3.3941758 3.7195947 3.075213 5.272731 -4.7321157 -1.5611334 -6.299464 2.1121752 5.045273 -0.3644386 0.60992825 -2.3760777 3.9081545 -4.065936 1.0186838 -6.186909 -2.6482291 -0.09827082 4.3360243 -2.323461 2.0758572 3.5285666 0.11876201 -2.5149617 -2.9471653 -2.8769598 -3.8055048 -2.7994998 -4.1743436 2.0271208 -3.9310462 -3.83473 -0.63242495 -5.212295 -4.5819407 -4.358835 -5.6232796 6.6358852 -1.137412 0.42553058 -3.032169 -5.151029 5.4574537 -0.008593996 2.9618585 -2.6640275 -2.920887 -3.0655735 6.682483 1.047912 -2.975519 -0.27772358 2.589518 1.3074747 7.144843 -2.809128 -6.5637193 -2.6730866 -0.70329684 0.20369825 -4.149211 7.233625 -0.1317121 1.5977322 -2.9566913 -2.7111864 -1.4868144 -1.4937953 0.9176867 5.858092 0.19338804 5.77399 -5.996942 -6.5819755 3.581118 3.7517827 3.716441 -9.686091 -0.33633092 -2.2222419 4.245427 0.42893767 2.741512 5.183096 4.435995 -4.530654 -0.52883714 0.31669614 -5.428497 -2.0612721 -2.8972695 -1.880131 -4.6437397 6.910525 5.978704 -4.897129 2.1147761 1.1263642 1.0520697 -4.839911 -0.06412506 2.1692655 -0.7216752 -2.5141506 -1.1439656 0.3288448 3.4901717 3.7789888 -0.047358427 -1.8207766 -3.5533998 -1.6313629 0.021939697 0.6624619 -2.7263727 -2.3891692 1.407212 -3.2979932 0.62722296 1.8930188 -1.3286451 -2.987286 3.3024263 -5.537462 -1.65607 -2.4400625 4.229694 4.216734 -6.368294 -4.382586 -0.28750724 3.927856 -0.016685545 1.5037129 1.2646799 -5.116529 8.847141 0.7158465 -0.89538145 1.6285242 4.254953 5.0479 0.47424462 -3.6172175 4.3936057 -0.77567333 7.186177 -2.089154 -0.9505181 2.9218044 -3.6529906 0.6942326 -0.9868527 1.2172273 4.6455784 -0.34516746 -1.3123605 3.6906881 -1.1647062 -0.8387188 8.953006 1.5999494 5.896683 -4.2740016,
chainid:2.143658 6.484905 6.5257525 4.7302446 0.60825896 1.1255707 -1.0488603 -4.2953396 -4.6351066 -5.2223115 6.163778 -1.9115678 -7.6570053 1.4092661 -0.39045036 -6.472487 -4.995161 -7.219657 -6.368929 -4.1339154 4.551287 -4.1605844 -6.330699 6.442031 0.94248754 6.7651916 -1.394284 3.434687 4.4373193 -2.9805572 -6.0935545 3.3903866 2.5851347 3.3721676 -2.830104 3.7766194 -2.858489 1.0456353 -1.8915241 2.812591 -4.080469 7.3468437 -5.0729437 -4.868356 -5.513508 0.3789918 -7.8539133 2.5626626 -5.0822434 -0.8857989 -0.7185121 -3.1835501 3.4476016 7.914218 -1.40621 -7.628073 -1.7812396 3.2207098 9.228328 -7.860338 -2.4451845 6.9649158 0.9097458 -2.6602614 -1.7954744 5.9880476 8.162685 -1.7306751 -2.8428557 9.331095 -0.38039804 3.5884907 7.6110096 -5.919003 -2.1407447 4.4385195 -6.115243 -6.4210224 -1.6793416 -0.08989529 3.6160684 6.2537093 -2.205238 1.6087059 -4.83112 -4.1773834 2.4428942 -0.5239368 7.5634966 4.2659745 0.8393501 -4.777552 8.248643 -1.8922095 3.3518078 1.7571443 -0.662534 2.6087925 3.771253 1.5216378 -1.1179059 -2.4342203 -4.5356464 2.0760274 -5.3691225 -0.22524704 8.809063 3.1897583 -6.9927216 1.4486337 -2.4630318 -4.845651 -3.5805874 -9.069793 -3.4415815 0.38111773 0.06916444 6.337026 -8.437153 1.3286649 4.806756 3.0828161 2.1185372 -4.7596374 6.6022825 -1.3555746 -3.2572253 1.762427 0.5178943 -3.7662654 -0.8908416 -2.2745287 0.9966093 4.796669 0.81620777 4.1296477 4.1144023 1.5231575 1.6667354 6.2831473 -7.760552 -7.1837897 6.762232 -1.895326 4.1792817 1.2075069 -6.566128 5.146972 -8.321355 4.9736886 -4.4201093 -6.361093 -5.484011 7.781983 -0.97905886 7.7939324 -3.9074566 4.0612845 -4.4871593 -1.5953188 -3.4926288 2.5453548 -7.138248 -0.78375316 -6.2154145 -0.22151668 -5.521136 4.179419 -0.37791386 -0.3869739 -5.4547334 -2.618517 -0.48267314 0.8375013 2.3036156 5.1034846 -3.48049 -1.695455 6.5388813 1.9728843 4.7563705 -0.64022946 -3.4977353 -3.7220016 -4.399183 6.651432 2.9199898 0.8220851 -2.108945 6.188164 -5.606688 3.1047862 5.775233 4.4541855 -2.4988837 7.946343 1.5098914 5.5087423 6.6309443 -0.9113879 7.1370096 4.1596746 -6.4254265 4.1745315 -4.7945843 1.6393096 0.13402201 2.3269384 4.447335 -1.9978896 5.7988863 7.3402233 5.738821 -4.0175977 3.844841 -5.3095894 2.0309532 -6.0943913 3.5166733 0.1442697 -4.9978356 -1.691138 -3.394771 6.520991 -3.7070768 -1.6794701 2.348112 6.003194 -5.775738 -0.47816622 -3.9579668 2.7914786 -5.8603134 -3.9317281 -5.407464 -6.635107 6.747714 5.653332 -5.9596457 -6.540914 4.581845 -8.022535 3.9195068 4.70002 3.4598362 8.449081 -0.21475631 -1.9151566 6.1869245 -7.4366665 -3.3647974 -3.835904 5.436121 -1.5701306 6.896648 1.2343196 6.735989 -6.0010667 3.7732344 -3.8152695 6.6612577 3.4757984 2.3039534 2.652387 -8.272062 8.100054 3.1869736 0.49374825 1.224489 -6.514822 -1.3904631 0.044344857 6.260233 -6.41694 -0.6909852 7.7375355 -5.7473016 5.435907 6.9712844 5.359206 -6.719854 7.464502 -6.907359 -2.4701538 1.5596777 2.6605718 -4.3742414 0.36336437 0.43164963 -4.7712517 -4.97515 3.486753 -2.1136675 -6.017004 2.531011 -1.7590908 -3.210636 0.07687804 -7.8967543 -2.731952,
codecopy:-2.9383872 -13.601351 -2.5606809 -12.000016 -0.30872747 -12.508143 5.7454615 1.1066673 1.9841365 -10.979863 6.835754 0.32577866 -6.4470024 -11.716071 -0.70824736 9.772105 13.347171 12.667222 -13.98295 10.726809 0.24132301 -8.97535 -10.03683 -5.740899 -5.8581204 2.2647038 11.364519 -13.092111 -13.880224 10.343684 8.409136 -10.166023 11.587116 11.655088 -3.6213224 13.941382 12.585396 4.2640495 9.032547 -10.377466 15.238413 -9.502317 1.8202682 -13.362486 11.018189 0.6525419 10.488872 -6.3728666 11.658639 -1.0373518 -6.0622373 4.696045 -9.407577 -5.6132197 8.717435 2.6634245 -13.092314 -1.6020174 -1.7457479 -14.137955 6.6822033 11.9190645 -9.082723 -12.618632 -12.0643 2.360418 -11.049297 -14.180914 11.549471 2.1816494 -2.9857287 -5.7458615 -3.9174502 7.272961 7.2898607 -15.151131 -2.526936 -9.585406 -12.039562 9.777042 -0.38383168 9.03886 14.217038 -4.5012317 -13.769734 15.50684 14.5363455 -4.4899297 -15.1396 -12.028867 -8.267735 8.975644 11.245844 -4.0902224 -7.199197 -11.473742 -0.18520918 -0.045416914 -15.530865 -15.831131 16.089375 -11.253136 1.2691494 -2.4876378 0.060404032 4.2929206 -10.381232 -1.6914635 5.169806 13.768613 11.791391 0.1029555 -9.668497 -13.805152 3.028212 -15.097627 13.980574 12.036198 2.5941124 11.840181 13.258143 9.577444 12.713301 6.3020997 -10.556525 -3.628287 -8.079253 -15.159099 -10.181146 11.104656 -5.8193936 3.9170246 -0.9936028 10.492713 0.41592988 -2.2842538 10.3281555 3.7668293 -0.9378511 -10.39791 8.712972 -3.7021747 -7.901233 11.800889 -7.4195232 -11.453245 11.275369 -9.994031 4.345525 -15.070566 -8.222365 -15.027962 -0.92237073 -10.12752 -1.5578314 2.1681838 -10.467792 -10.841368 14.492084 9.391021 7.2222023 7.0399766 -10.569751 0.20605168 -3.2229524 -1.8860871 0.49137604 10.038404 14.087119 -7.9653435 -14.93984 -7.8762326 15.220731 3.0065567 10.432851 -6.8213654 -2.1654227 -3.544565 -1.814966 -9.31766 -1.2238964 1.6373321 9.937683 -6.6925006 -12.37131 0.9951468 -7.245719 10.53913 16.073042 7.54283 -12.359603 -9.98224 0.0685968 10.984165 -10.018813 -8.371657 4.991612 0.99623805 -2.820162 -12.816085 -10.652453 7.7912292 -11.94844 4.3114333 4.945046 -3.5429893 5.247928 14.139449 3.301478 12.500567 -10.142717 4.617111 -2.5471606 2.0910568 8.903405 -2.1746936 18.128233 1.8217555 2.2290888 1.2662812 3.9233599 11.384193 -6.195969 6.8463593 -6.7599945 -12.305088 -1.2092285 -13.304311 -0.561319 10.090644 3.6956413 12.364152 -12.689764 13.592617 13.955027 3.5639765 7.3655214 -1.823094 -13.221565 13.616462 -6.5456862 1.6849155 -5.2627234 -11.933712 -11.697344 9.463977 -15.529884 -9.209815 -12.717507 -11.970252 1.1996132 -9.457952 -8.595393 -2.6619227 -1.2149915 -0.77702117 10.369116 -13.060644 -5.6219034 -2.5224118 14.309962 -13.303253 -0.04183745 -9.030999 6.221518 10.394773 6.7437167 -0.2647944 -10.529704 5.52329 -2.439071 4.2528777 4.1826377 -10.885833 8.00895 -0.68123543 2.171022 -9.101468 -10.910538 12.078079 -10.174407 7.0406694 10.763677 10.734101 -14.495438 -14.141216 10.477015 -5.5993524 9.853535 12.682013 -9.039491 -4.4970555 -2.1451893 9.002747 -12.638259 -8.117387 8.749794 -0.7129458 -13.457156 13.288414,
coinbase:0.5564018 -5.8595796 1.65112 -3.780884 -0.18491045 -7.3035727 -6.1163383 -5.852862 -4.437222 -4.53547 -2.4963226 0.48310506 -1.7438346 4.994419 -5.8541713 4.1193037 -5.003567 2.5504975 5.6895294 -4.194509 -3.2442253 -5.102402 -1.9826101 -3.2820837 8.792261 1.7007895 6.3472013 8.187884 -1.3198915 1.3129299 7.894439 -6.7470007 -5.8237906 -8.644951 7.6761603 -4.856376 -6.192607 -2.8680897 -1.4845493 4.262089 -3.8097332 -4.593256 7.0555205 7.1263485 5.439574 -4.1970997 3.3707438 -5.920446 2.6649737 5.321091 -0.83501166 -0.6273037 1.2291423 -3.4555626 -0.7227937 -3.0847628 -1.5702351 1.3445926 0.20528369 -1.9620365 3.8006344 -4.5628266 0.19502868 -5.1126256 -4.081228 1.327841 3.0835862 -4.024921 -5.8294597 -1.5458376 -4.0341077 8.228516 -0.91148776 -4.807593 3.703098 7.032079 -5.8049426 3.873985 6.1166606 0.10876289 6.383788 -5.272859 -2.249936 1.7140611 2.8857248 2.8858871 4.78084 7.6012506 -2.1175106 -0.32293043 -7.802458 -2.690933 6.7127447 -3.3892348 -4.6297083 5.155044 -0.06391878 -8.672538 -2.801437 7.125211 6.229695 -3.6462111 1.6559209 -0.1578896 6.0415606 1.4943328 -3.0681555 -1.2042316 -4.994208 -3.0424528 -4.1724124 -7.382767 -4.4570217 -4.693293 3.6341472 3.639352 -2.3215191 -3.3650095 -5.4349284 4.5067377 0.51723236 0.7379618 1.8018019 5.554591 7.0013638 -1.2787967 -3.0297318 4.5447993 -6.363573 -3.7425768 -0.13187015 0.7205364 -7.769363 5.737729 -0.2629611 0.089374006 3.7584536 -4.138823 -3.9251065 0.20094426 -1.5365201 -4.952898 -4.341737 3.9469497 -0.13685365 -7.5361404 -1.8803908 -6.0830264 -4.070672 6.6061373 6.8980203 0.7014218 -5.0834274 3.3815918 0.120913334 7.228406 -2.6636386 3.2426422 -6.4341307 -5.6981373 6.0847044 -2.2361476 -6.7824984 -0.012047495 -1.6670107 6.6076 3.7602444 -6.345829 -0.49842393 3.8060105 5.8356595 -0.4903116 -0.5130878 -0.8167381 9.066914 4.895441 5.1238017 3.5745893 1.8261943 -0.46785924 6.95285 -0.11585202 -6.0582185 -0.35308054 -4.618071 -5.4797845 -6.1114006 -2.5818346 5.128277 3.729244 4.575816 -3.3124406 6.4999027 4.5205483 -1.0036196 4.9101806 4.351896 -5.2222733 6.927184 -0.20308983 -1.528838 3.4724157 -1.1161091 2.5977416 2.0558264 1.3612956 0.09682314 9.776502 6.764758 -5.779944 -4.356175 7.4735537 -0.35053083 -3.6225054 7.8205957 0.68176377 0.18791433 -5.7733083 -5.132181 6.3892703 -5.145221 -7.1638618 -2.957383 2.7853706 3.8510065 -5.930115 -0.30001783 1.3330258 -5.7602153 5.5715876 4.7831745 3.735506 -0.1938625 3.7183683 -5.147823 -5.98482 -2.6808138 3.6726155 2.2513003 -2.1391652 2.3650637 -1.492045 1.1347456 -0.79987466 -0.5876395 -4.718926 -6.0389466 -3.2600963 -3.425559 1.648588 -1.7620602 -4.494617 -4.7489653 -6.4089675 -7.3027554 -1.0045614 -5.660127 -6.610698 -2.815645 -5.634301 5.7216477 3.8976665 -0.29793993 8.507905 -3.8459005 -4.8801613 0.45579395 6.9000125 -2.5890348 -0.026522847 -2.322808 8.426048 3.2118084 3.5682628 6.2545695 6.621698 -5.0599756 7.392363 -6.0467443 -7.7353244 7.2633557 -1.7661468 -0.04932511 -1.0243202 7.1219683 -3.161616 -5.9996 0.7891947 8.211041 -4.947573 6.1305847 -1.0896183 -4.4609456 0.13721788 1.1321388 -1.7652537 4.4410706 -1.1327208 0.17787598 -4.7123113,
constant:-6.9891963 7.598873 -6.597849 -1.4112469 -4.2330933 -2.387249 -8.6115055 -5.197909 5.0720315 5.220534 3.47035 -3.9663498 3.0561633 -3.3670335 -0.18191537 -3.296079 -2.2738152 -2.4747558 4.9285803 3.9620838 0.3052293 2.0725758 -6.5830383 9.054139 9.162603 -1.262577 -6.1270103 -0.93215865 0.14755216 6.684168 5.098931 0.9377179 2.7468357 -2.839998 -4.2070665 3.4492028 -5.8482585 2.6004639 5.331742 5.412111 7.3421154 7.3107643 -4.878217 -3.3312051 0.9409039 5.2556353 4.56449 4.342022 -4.7172585 0.8759249 -1.8740103 4.2494817 -4.0949283 4.72092 -5.9285455 5.6076207 5.682974 -2.844136 -6.2796063 -5.431571 -0.03424763 -6.6874332 -2.7132177 5.2135234 8.419041 -5.406787 -4.010955 -1.3076913 -0.9293863 3.6171913 6.6053085 -7.4771776 5.6285906 1.2829611 7.6378026 0.16278264 2.7327647 6.5288415 0.9762669 0.89688957 -0.2773544 7.4415684 -3.6827574 -0.93801796 0.20356463 3.465346 -5.347009 2.1129801 -6.5151596 -2.5049896 -4.0957413 -0.17524318 -2.2346046 1.8996943 -4.2734447 2.609936 4.8143096 -6.0089407 2.515843 -4.4065247 0.36526102 2.594648 4.6876965 1.1377807 -4.262866 4.0318284 7.316978 -2.0262856 2.2398775 4.1701913 -4.361454 -3.8446946 0.74792564 2.8343363 6.1889825 2.217644 -5.0896316 -1.9402744 1.463819 -9.348402 1.1316693 -1.659159 5.270766 5.396355 -2.7914166 7.2281594 -2.0054746 1.9671834 -0.35057664 -3.9598694 -4.5466037 3.909232 0.92548615 -6.5111556 -2.0276 -6.6030307 -0.89820033 3.42062 -1.8032353 -2.6521244 6.2985168 1.8439871 6.9730935 -5.3910365 -6.3285174 -6.0852957 -2.4035337 4.5547976 -3.7571993 3.976083 0.5801804 1.2327085 5.260629 9.352133 2.0664425 6.4453926 9.353119 -8.084389 2.9388201 -0.20477578 3.0323975 9.19544 7.4803514 4.7842197 -6.535407 3.3691344 3.4006855 -6.420074 -8.916833 3.251435 1.1925894 -3.856779 5.4861765 6.224209 -3.2322037 -5.7854877 4.3417554 3.4463701 -2.2958047 -5.8852243 -3.8393478 4.2125254 1.4652288 1.2972903 -2.020446 2.786761 2.952691 4.0815043 -4.8648324 -8.192692 5.830404 8.319474 4.6850667 -2.9672487 9.529181 1.4455283 0.54656535 0.048686594 -2.8998885 -7.8796134 0.65537167 -2.176952 -3.0861979 1.3605386 0.11838851 -0.6597425 -8.223136 4.9153047 3.1085565 -6.307029 -3.7487392 -9.674796 2.642809 -2.1839657 -4.9147153 2.9770608 -4.429964 3.4447243 -2.3893046 -3.7457933 -5.877242 4.5268197 10.580778 -1.1861583 -0.4564893 6.3112288 -6.265628 -3.5115583 6.614674 2.1284075 6.7878 -6.887044 2.66149 -0.4981736 -4.887591 -1.5536021 2.2709959 4.269724 3.3116236 5.1831355 -7.8757935 -2.871276 2.212616 4.1750655 0.11346966 -2.7603188 5.666103 -9.405619 -2.5029666 4.209603 -1.7645633 -1.3929324 4.852788 8.25632 9.519603 3.0462887 -6.772206 6.6840897 5.4991336 3.1765635 5.4006743 -5.1243043 -1.2203295 -0.4400269 5.094694 5.3846865 -5.4473996 1.5593393 -6.650218 -4.3312097 0.44318393 5.6249967 3.1094038 1.698278 0.027198553 -3.3380492 -2.5428495 -7.2963023 -8.775338 2.052935 -7.975457 5.0730534 -4.6624794 -4.4995027 -3.27665 -1.6583191 -4.5087547 2.6289158 -1.3725667 2.1726723 -2.597776 -4.0578985 2.609262 -2.5180142 -1.0077661 -4.6017737 -2.4348266 3.5738332 -6.4489665 -4.5037537,
continue:-6.445509 -5.45092 -6.8498793 -5.151563 5.952812 -3.3943563 3.217515 -0.27960482 -0.13106705 -6.194972 1.193432 -2.4889095 3.8526888 1.8373356 -2.0258698 8.378687 -0.10099268 6.6931934 -6.2414746 -4.129305 -0.20682932 5.1587615 6.3354034 -1.8008041 -7.0179462 -0.51493394 -0.09118955 -0.742966 4.3449473 -4.9026628 -0.57590973 -2.595811 5.8290296 -2.4313657 -3.8363593 -1.528114 3.9988372 -0.27948448 4.4985676 1.187216 -3.44989 -5.306974 6.3467813 5.49128 5.046222 -8.496345 5.163395 -1.1182566 -2.4479778 -0.53515285 6.253422 -3.1113274 -5.329834 0.6646646 3.5417547 3.3134165 -1.8211026 -0.6237457 -0.56536156 3.0887897 -3.9253569 7.5601907 2.5586581 5.038396 -6.289938 2.6572366 4.6083274 4.32329 7.874718 -5.0772676 4.08313 -0.4740523 7.8158875 -4.0655265 -4.1538157 2.443386 5.347545 5.0926657 -3.9140313 -6.089792 -7.069747 0.3750009 -7.453668 1.0325824 -6.6805625 -3.2413518 -1.2006835 1.6636072 6.7202015 7.4803762 -6.5180964 1.9471861 6.204054 -5.42292 -0.82263637 6.0343633 -0.0027994942 -0.621467 6.928686 -6.1467376 4.023086 4.6939316 2.5445573 3.25643 0.5822468 2.0692236 3.5072854 6.0566635 -6.238747 3.344323 0.047723472 -0.78763425 -11.11707 4.8620615 -8.899915 -7.3711567 -3.152985 -1.1971 0.38667265 5.8930874 2.5519087 7.694265 -5.610479 1.6363853 4.113849 -7.4846444 -6.2107644 5.3511024 6.056465 6.2445245 6.959428 -0.9121631 -3.9547465 -2.9953496 0.2781816 8.421523 6.731481 6.9206905 -0.790952 3.3405972 -1.0737481 7.130697 8.216747 5.645219 2.6602423 -2.9544203 2.3261833 -4.1194563 5.5523033 -4.792437 -6.568571 3.197382 -0.14425898 -7.3378277 2.7561097 -1.3206269 -1.787687 -5.7963724 -1.395281 -6.978449 -3.4875085 -4.8112884 1.7814819 -0.3004494 2.5459795 1.0942167 2.4656467 -1.1234853 -1.1172783 1.0650654 4.17617 4.028954 -6.384127 -1.1932349 -2.796734 5.791574 -7.129988 -5.8699703 -4.2516546 4.2989798 -6.711493 -6.4878597 -4.208158 9.351599 3.2938967 -3.1269062 0.42507532 -6.572894 -1.6537693 8.91844 -1.24825 4.748657 0.19241692 0.23671263 -7.087249 -4.690617 -1.574139 -5.2499695 -5.0088625 4.9400377 2.8153553 3.9144382 -1.6182606 5.715037 -1.1661404 5.051326 -4.375371 2.115247 -5.182184 3.838817 1.3378316 0.9856081 1.2046381 -4.759677 2.4938445 1.4947778 3.7467873 0.6348011 -5.189698 -6.862434 4.900013 -5.3334002 -3.6582053 -1.765446 4.0891166 -0.65702856 7.6948295 0.312304 4.131749 -0.96624833 -1.8562943 5.8391232 1.1277254 -4.086539 -6.640394 7.027287 6.6874633 0.80923855 4.994225 1.8415666 0.7207105 5.104214 4.05008 5.37203 -5.6094666 -1.8865068 -6.1046896 6.757801 -4.313536 -0.6654523 7.0930905 2.5383456 4.1385407 -6.823654 -4.100968 -2.5719554 -0.4235684 3.6334739 1.0969015 2.9566545 -0.29473725 -1.4671688 -2.3069217 -0.71508497 4.470664 -6.042138 3.3008606 -0.4324014 5.1109676 -3.3275332 5.102949 -1.1788428 -10.220833 7.2513194 0.5894228 2.7286572 -2.79952 -3.7875423 -5.2749004 6.8637676 6.766953 -1.396797 6.0618615 -1.5464908 3.8066018 0.4407596 -4.482216 -0.06534262 7.74324 1.6890182 6.6411614 -1.9286563 -5.325921 2.275602 8.352671 8.727996 4.420072 -6.145233 8.303105 0.2728024,
create:-2.7869456 -1.8370378 -1.9165637 -1.3510433 9.221444 5.986607 11.824858 1.4367074 6.461609 1.5407064 -3.1637113 3.583864 -4.6202583 0.9733182 5.8371124 2.961533 1.677914 6.211696 -0.007651334 -7.8206487 -4.2709875 -1.0438726 1.3801497 1.2053473 3.3091762 -1.9498532 -7.266148 -0.039901458 -0.096315145 6.1490965 6.0155706 -7.855436 -1.9236337 -7.1340938 -2.3129869 -6.6151323 1.5607126 8.2464695 -10.133696 -3.3154306 2.691004 -0.27494508 0.45700034 6.345981 6.684744 4.0104537 -3.3926249 -3.9944239 0.00059161463 -4.326518 -1.6006379 2.6823106 -7.9369287 -1.7015079 7.2402396 -7.346138 -4.695005 -7.4437256 4.882606 -0.9616061 -2.1093767 -0.2410544 -7.1499114 1.5670972 10.677598 2.8058367 2.4709737 0.88437396 6.1515737 0.6176317 -7.462853 -4.5509515 -0.9509975 5.518326 4.4367304 -3.8166037 5.5897317 2.7069144 4.425782 1.7034726 -7.472468 -2.656236 0.87153417 -7.572469 -7.9943066 -10.030593 -7.4976587 -2.640645 3.138556 -7.874167 -5.7440896 6.914299 2.0341852 3.4539068 11.611773 9.33481 0.66536474 4.5140033 -10.200864 8.90506 -2.4120018 3.505004 2.0201726 -6.353177 -6.687818 0.6982242 -6.323831 1.5318818 0.06089257 -3.2812839 0.71548927 -6.485486 6.382502 -3.7262685 -9.543273 8.101939 8.308227 -0.39367494 -5.7653112 -3.3405812 -3.2346632 -5.7349567 -1.3010519 8.89114 2.8482018 -1.4644551 -2.7426598 0.04499738 7.067606 0.2528792 3.5273151 -4.5934086 -7.030644 6.5075974 0.18642785 -4.5413756 -3.7315502 4.511148 3.3967555 0.24050936 1.1559982 -8.272053 2.601278 5.89453 -3.6081228 -5.2200885 -7.8213553 -2.7717702 -3.69814 0.7068741 6.6449466 -2.2314184 -0.37609276 2.6439497 2.638573 -1.3181342 9.820858 -9.3005905 2.5769324 -7.9494324 6.9343066 9.603225 -2.7075589 8.20639 9.350825 9.134675 -1.7683378 -3.6789374 -8.303397 0.8993944 -3.9279294 3.378855 -0.09363881 -6.4128137 7.240599 -3.1580553 -1.0901606 -4.07772 -0.520574 -1.1989495 3.703869 8.197824 9.225825 1.6828288 -4.4174266 7.803454 -4.325778 -3.801777 3.263802 -0.22408536 3.4649436 -5.6812534 -4.4242325 -7.2045927 6.5196404 -8.606557 7.918791 -5.741734 2.210899 -6.6773458 5.578621 5.248569 -0.6142212 -2.139417 5.9131103 -0.09665557 -8.046072 -5.9945283 6.7496524 6.0831857 -6.5184956 -8.263559 5.0042443 9.033101 9.161372 -2.231144 7.484761 0.71553206 7.472852 -5.672117 0.8821917 -8.936622 3.8583713 4.262005 -12.592009 1.3109757 -5.8281507 1.3379688 -3.5000281 6.7934246 -0.20302281 -3.822762 0.19305457 4.8155775 -0.1003282 2.80022 -1.3565593 -2.434211 -0.4569637 -3.196777 2.8923504 4.562793 -5.6785254 -9.39835 -1.1492776 4.696995 8.859972 -6.8852925 10.576162 2.5448816 8.859117 5.9588356 9.789755 3.5621862 1.5871515 1.5943842 -4.8247156 9.521799 -5.3202643 -9.0928135 1.1216904 0.7485839 -8.322897 -6.9694676 -4.2031937 4.979472 -7.7835503 -5.3578086 -10.035172 -2.027711 -2.5045712 -1.1203802 4.247984 -1.6157656 7.7519097 -8.886845 -0.8192379 -5.2334375 -0.9065103 -9.327258 -3.8486044 2.2430696 0.60116357 6.873935 -1.0731795 -7.884359 6.65979 -1.8620908 7.791796 0.59711224 1.5143307 -1.2007178 4.028137 5.605069 -4.96532 -7.6951895 7.810574 8.728032 -1.8355172 0.63033885,
create2:-1.4769443 -0.18386547 -0.52956176 9.187464 -4.4646363 2.3957653 3.4857771 -0.30238813 1.129278 -5.331496 -2.005634 2.8369064 -1.9479101 6.615427 -5.978835 -7.9517136 -4.5836234 5.972047 4.253012 0.416757 4.448012 -3.3971455 1.8953876 -1.1385689 0.14259918 3.9288764 -2.6181283 -5.1735015 -2.6250515 5.6318226 4.954975 -2.4792945 -0.071968324 4.578255 4.0282054 2.9905462 -6.6085925 0.024904475 -0.4543854 -3.3434646 -9.607841 5.2857594 1.604176 2.731251 2.7545044 3.326428 -5.6782293 -2.1539404 0.76228774 -6.860673 -0.35059342 3.0296175 -0.06348783 -1.0789108 -6.0257773 -5.9842353 -2.9464593 -4.2004976 8.6946745 -0.8749431 5.120298 3.2994564 -0.6909006 1.4432982 -0.797481 -0.7966938 4.4449444 -5.3611455 4.9180536 -6.5331326 -7.1727233 -2.1275115 -10.685578 4.6710615 5.5689692 2.0756953 -5.782996 3.5726504 -4.1375747 5.813615 -5.8703218 3.8041558 -1.3166988 -3.3121595 2.1099076 -0.8096379 -8.137254 -7.8426538 3.894382 2.7245095 -7.7504783 5.4229407 1.8136785 6.9563537 -0.7901821 4.0142775 1.1195295 3.0456295 2.229009 -1.8370562 -2.6365159 -3.818287 2.7425344 4.2468443 -0.4872526 0.85287696 0.91893685 3.499398 0.51875997 -0.24014129 -4.9988117 -1.2427214 5.8957596 -2.45258 3.0465186 -0.74747497 -3.7568777 4.2797704 -3.8602855 -5.1592326 2.308207 -1.4129746 -1.1714948 -6.4631004 1.3366811 5.1752033 -3.6247416 -1.7803407 -0.79823244 -2.991898 -0.8406928 5.8544044 -5.8357778 3.511622 0.12908475 -7.9381514 -5.6960726 3.672785 2.8498542 -8.3944435 0.9468317 -1.8756919 1.7340523 0.459834 1.3032653 7.0134506 4.163223 0.8669505 -2.298971 -0.5573464 10.635903 -0.19255185 -7.3673744 5.2973614 -1.6681354 1.9568247 -3.5750222 -0.4520659 7.098603 3.6470568 0.5654455 4.623204 2.5115395 3.8823967 -6.6439056 4.3024673 -9.601 -0.6633867 -1.0784914 -3.0979936 -5.2967553 0.4557489 0.405857 1.140638 -6.9659696 4.8154483 -1.8356773 -4.2733164 -3.0435188 3.6370406 -1.3087093 6.3539104 5.458763 3.3242457 1.7366804 -2.6652389 7.296514 -1.2972753 -1.8038357 -3.4888546 4.4376807 1.0316994 -6.6165886 -2.2218692 4.7631955 3.653329 4.216428 4.402021 6.6828084 -5.417324 -2.2024145 -5.6800613 -6.120386 2.0966868 1.8208947 -0.19287847 -4.2240424 -2.0624473 -1.7290946 -0.92451537 8.213094 -4.092998 4.304754 4.0882573 -6.339578 -0.86028695 -8.122223 -0.808669 0.050201792 -4.1515236 -5.933315 -3.2944765 -8.15207 -4.5673733 4.6316624 -1.2797974 0.8962896 7.840638 1.6435708 0.61704636 1.9023763 7.1785197 -7.07473 -10.071737 -9.807957 3.7236562 -6.55069 1.9692221 2.881463 -5.613602 -3.5273724 -7.190684 -7.882207 -0.15177779 -6.485171 -5.6778765 -0.51139843 -5.144975 -5.369983 -2.6997328 2.301271 4.718495 1.6321082 7.188493 1.5723467 0.40610033 -3.1756551 6.0045295 -4.511599 1.5280159 0.5808199 -7.763421 1.874543 8.8623295 1.6214697 3.506793 -6.811021 6.3592215 -2.1398997 -1.8540921 -2.1417136 2.5230181 2.2592132 1.6972973 4.863366 7.280865 2.3565016 -0.346823 3.129313 -3.564561 -3.5459526 -0.15377408 2.9486275 5.6630535 1.4809041 6.028571 5.4434676 -0.050293483 -0.8552099 -9.465265 -0.089852035 -2.321457 -0.91047394 6.9914975 3.5987546 -3.8564522 -5.5163136 -2.2498686 -1.6047913 -7.6114807,
delegatecall:-7.5815883 0.07514272 0.7964775 6.2978296 9.881419 4.3230143 6.668848 0.07799675 1.8568608 7.358581 6.412918 4.4818444 9.819223 7.2583547 -3.119825 1.5525382 -0.5431957 -3.4653697 -1.6968184 6.2415886 4.686382 1.1247486 1.3552972 2.1473706 -1.6073873 2.0011399 -1.6200645 4.5531173 -7.0903916 -5.967493 3.4528341 -6.1439247 -0.73385185 7.73819 4.792837 6.2887783 1.5446874 5.6775203 -4.1093388 0.10860133 2.3730729 1.0799308 2.6765726 2.8674014 6.5917053 8.875009 -0.27565855 -0.42978382 4.792761 -7.889648 -0.97897846 6.6734653 -7.3199625 4.573378 -6.8581285 7.530519 9.697035 -5.8318343 -8.538849 3.4290485 -4.723662 0.70418423 -6.048833 -1.1023875 -10.233761 -2.689154 0.2583542 8.168647 6.4022965 0.69615513 5.208702 -0.73512965 0.49396333 4.3683486 7.0794024 -4.9494524 -2.0377913 -4.3673577 3.3170269 6.4896216 -1.2566274 -1.8192314 4.4435744 -3.8501337 -3.7261736 -3.2504609 2.5228462 -2.6994913 0.8319784 8.720115 11.418365 13.634584 -2.8748803 4.345018 10.769268 5.615668 -6.9209805 4.8153334 -1.5160416 8.326462 3.9962099 -7.422285 -5.190109 -4.047115 4.7564726 2.1680348 2.456777 5.687241 2.3393755 -7.9169064 -8.619613 0.060460966 -1.1096519 -0.67227864 0.34003872 -7.2053795 7.3476977 -7.4051347 6.0033636 6.127141 -0.15944709 -0.47812587 0.73152983 -3.4668663 -0.47687238 -2.390401 -5.7681375 8.497874 2.9489923 1.907917 8.025878 7.376211 -2.1642 -1.9207112 7.156362 -4.0480843 -2.8632417 7.8514786 2.5246377 -6.1098075 -2.7559733 -3.2699585 -0.395827 1.8454623 -5.654373 -5.2572694 1.3934308 2.0601988 -2.2354372 -5.1879168 -3.9013038 -2.2177796 6.605435 -4.519858 -2.4308171 3.566433 2.700183 0.42845625 1.4826716 0.80934125 4.8645415 -4.1508365 -0.8703767 -8.433976 -9.43013 6.4087186 -1.0597339 -1.2667575 3.8279576 -3.0959704 -4.6073647 7.8100123 4.668567 8.545421 -0.93650144 -4.8475833 2.8165402 -8.598155 0.080626205 -4.05678 4.576538 -7.0699954 8.290028 3.8393734 -2.754764 -9.214211 -5.2713156 6.2660503 3.7708757 11.001349 0.2706523 -6.4117985 -4.58242 -1.120165 4.0299063 -4.8800745 6.528182 4.554663 -0.43141004 5.9417415 -3.4552574 -5.5918813 2.2946274 4.555381 1.2764591 -0.56636405 -7.656553 -4.064022 -2.0209115 0.9848804 6.12669 6.802735 -8.105248 5.204638 4.466902 -7.78539 -3.2816823 5.831656 1.3131456 -5.956063 -9.562263 -4.060131 2.5424893 2.2399092 3.5729263 8.117462 -1.2139453 1.3295785 -1.581303 1.1688987 2.0004861 1.2939085 4.436101 6.99742 5.90392 -0.3974576 -9.227807 -6.583949 -2.7895505 8.816906 -3.9986389 3.2824373 -5.925505 -7.148167 -6.4533887 -5.092163 -5.814962 2.3215218 -5.9859614 7.7355814 0.7057073 5.0871506 -5.2944393 2.0105484 -4.0712047 2.3937812 0.9017081 0.97377247 7.321406 2.8117952 0.868985 3.7034297 5.864385 -1.7300646 5.3882565 1.9826226 -2.394895 -2.8142424 -4.932471 9.204841 -2.050015 -1.059796 -4.4940643 4.2707095 4.332665 2.9424424 4.6087074 3.1281116 -7.989329 6.9235697 -9.048476 3.4332123 -0.3693821 5.9509745 -6.0354056 5.908954 5.788039 -0.16807462 1.8098859 -9.185727 1.2969875 -2.4496229 -0.57160205 -1.9348738 4.187435 3.9429004 -6.815545 -2.661708 8.806868 0.8222571,
div:4.8210382 6.5122194 5.894161 -2.17662 -4.46358 4.991252 -0.5601154 -0.45443675 -1.7281058 2.4864192 -4.2022243 -0.97401786 1.1224103 -4.4495354 4.537832 0.94790244 4.532899 3.2644036 -0.23972076 -1.8066316 -17.707754 0.00791772 -1.5658306 4.2089067 2.9161355 2.265294 -1.8611301 -0.5927239 1.7782413 3.88307 0.25874895 4.930103 -1.6653135 -1.3515779 -10.878843 -3.3717566 2.0068765 0.96646553 -0.67943615 6.655816 -2.718047 4.3895617 0.37533182 -1.1507086 -5.636124 0.90291554 0.087972395 -0.41659504 -0.31420338 -0.37066564 4.242586 1.3908347 -4.8034725 -1.5109491 0.71680796 2.4582777 0.25969523 -13.670523 1.4314129 -0.19517224 3.944321 -3.9268942 6.0206685 -0.28024673 -3.4851356 5.2921906 1.3048358 2.0692768 2.9293175 8.490416 -0.021043444 -1.395672 -4.4098306 -2.8303175 -2.1050153 -0.77722424 1.0770289 3.070029 -7.312324 7.5472593 2.5806336 2.375075 3.4603736 1.7900151 2.0223985 0.13911653 0.4337621 4.811291 0.27106443 -3.0844305 3.8822403 10.710166 -3.4553812 4.8172517 2.0139458 -3.51076 0.03788029 4.350989 7.5335193 0.9822122 0.69707626 -2.4332893 2.1112196 4.7966166 0.63295263 1.04079 -3.6582456 -3.9240854 -0.5558317 0.7791707 2.6486094 -4.6920314 4.6388516 5.0307064 3.0622795 5.785372 -3.0326726 -1.8423845 -0.9435319 -2.2371314 -6.201093 -0.36247823 -4.3000526 -3.7828803 0.32608214 -5.887145 4.929168 -2.941193 -2.1497302 1.9021555 -0.7723069 0.72935796 2.670454 5.4659624 1.8503526 0.37719712 -6.3682885 -1.8923589 1.7591996 -2.8233333 -0.62191653 -0.5363737 4.3839297 3.4460437 4.4939823 -3.6485083 1.0473769 -0.99546754 5.0923734 1.0810686 6.323147 -1.862902 -0.13450775 3.169082 2.702133 0.75523925 2.4715233 5.0362043 -3.7192843 5.471818 -11.18229 1.725471 1.1578429 -4.620192 -0.012536007 -0.8468614 -4.7550087 4.455175 -5.8835764 -2.3851771 -2.5451531 0.43361625 -0.94912434 4.3282347 -0.08306396 -3.1745481 -5.7143335 -4.407258 8.999573 2.9972837 -4.515684 -0.0201792 -6.4291058 3.7269135 5.313192 -2.7523847 5.8546987 -3.3175597 -3.9114285 0.9183791 0.25850546 -6.448634 -1.4895322 -2.4321005 -2.9302244 0.93086135 -7.364808 -3.9913619 1.9621221 4.393621 1.6781579 -5.9927454 4.978296 -4.156343 1.7830628 -2.9271083 0.9289249 -6.7754226 1.0218289 -4.631641 -1.7255899 -4.9999423 4.646455 -3.5517452 -1.0419539 -4.172438 -2.049705 -5.839204 3.3911777 1.9735405 1.3323023 2.2732878 2.418223 3.7127864 4.060338 0.30863735 0.66506857 0.101538315 2.364482 -0.3830191 -2.9128942 -5.582322 1.324824 4.9614434 -4.809071 9.845479 9.497091 0.15637133 -4.247322 -1.6468401 -0.7107397 5.3740582 2.5456026 -3.062243 1.0377208 1.2830697 0.41962665 -3.0591779 -3.742399 -4.171407 1.7815623 -4.318044 3.2924564 2.3876324 3.8436286 -0.87281656 3.5283175 -3.533593 -0.9486453 -3.9086874 0.2887653 3.352984 -8.490939 -0.5769758 -5.0581894 -4.591812 2.0718787 -1.9055247 1.3804238 -4.6599755 -2.172443 -0.4226051 -3.9117599 0.8120809 -1.0194308 1.6756425 3.2339346 4.249389 4.6364217 -1.0905676 3.4012384 7.460805 -3.6059334 -1.3965608 4.0166016 4.5084867 -3.5089211 11.127186 -3.0931733 -6.278813 0.9723289 -8.50006 -3.160504 4.4648175 -5.6549277 5.9805865 4.161304 -0.2996314 2.511408 -4.0731115,
eq:-1.9413366 -1.9180627 2.9523532 1.730047 -0.90506667 -0.5290324 6.916984 4.21067 -6.0023704 -6.813602 -8.387835 -4.3294373 1.1801206 0.8804899 -2.5521097 0.94454026 -5.5633063 2.9191246 -1.0997765 -1.6470814 -2.8101432 -7.167626 -1.6621217 2.99996 1.9580102 -1.4722544 3.15558 5.2334213 4.982212 2.4047873 -1.8981296 -3.3790455 -2.002073 0.9485985 3.0233552 -3.9770448 2.3494565 -2.2956073 -2.4925735 4.8305893 -5.713711 1.2294735 4.55029 -0.8271092 -6.064949 -1.6420487 1.5175987 -2.866746 -1.9152721 -2.4583662 -3.4427426 1.0740889 -3.6065807 -4.484573 0.38831913 -4.958161 -3.289708 -4.743766 3.3265765 -1.6990466 5.7056584 -6.1218977 -3.9704244 0.19620715 0.16546978 3.722731 1.6335062 -2.5282128 -0.18367927 -8.712129 -0.48828423 3.4504678 3.7263875 -2.7135887 -5.1098933 -5.2789273 -1.4441229 5.5998044 -6.9408746 7.0005565 -1.6551138 4.0360003 2.2304838 -7.7972584 1.497044 -4.3015647 -0.62544256 1.5529072 0.76197755 3.099304 -3.5780365 2.4557517 2.9587643 2.6718714 3.6421025 -1.0210329 -2.810695 15.918403 4.56558 2.7577453 1.9375572 6.598331 4.2197714 4.2612796 1.7530763 0.6795589 5.9634733 1.9853374 -4.7999964 -4.808342 2.7855713 0.89606756 1.8746271 2.5801136 -1.1498315 -1.8259876 -0.99938667 2.3746333 -4.848557 -0.21866746 2.8222136 1.0013547 -4.1037765 -4.2470155 3.5175114 -3.3929858 3.9759295 3.1816666 -5.147641 2.229336 0.9002991 1.8575991 2.5641341 -2.4289312 4.6905313 1.8512343 6.373908 3.3746529 9.820851 2.5170813 -3.6718814 -2.131943 3.6611454 -1.6131748 6.3365254 3.5831044 4.837238 -3.0674407 2.8418074 4.088982 4.4886656 1.2325727 -0.20966968 0.74953085 2.626215 -0.54988086 -2.7383444 1.8469306 -2.5064828 5.705118 -1.7995987 -3.8862948 -3.496372 0.0009604627 2.632436 5.1021924 1.6805097 3.0201857 -1.3748443 -4.5537043 -3.6198115 -1.6603972 -2.962398 3.661566 -0.6949918 7.31342 -4.620803 -4.5332265 -0.43542102 4.4227076 4.1753488 -2.1311228 -1.0992985 3.6461356 3.446463 -1.1228036 0.4047662 -0.087459005 3.7344327 -1.0997784 5.108068 3.1636298 0.4022249 -4.740566 2.2164786 0.09673269 4.2695646 3.9205844 7.33008 0.21229178 -1.2361264 -3.5984592 -6.1975293 6.076279 -2.1844926 4.3085146 0.021743717 4.449922 -7.586576 0.70094365 5.0458274 3.8713577 3.4167674 -7.167599 5.1908627 -3.2369864 5.471083 -9.502221 -3.2384589 2.1837182 1.3303128 -1.5517557 1.5378137 -2.905895 -2.960733 -2.702769 5.3401823 0.56387013 -2.2753215 3.2838905 -0.6112014 1.0628335 -2.945132 4.968872 -6.6314745 0.22305788 -2.6444829 3.9764628 -2.560389 -6.3751025 -0.9454668 2.8252609 -2.9010787 5.159207 1.1116164 0.5335126 1.3940989 -0.45983857 -1.6273655 -1.8723313 -0.24999316 0.9782227 1.0332452 2.459449 1.7635052 -0.9128085 0.22536013 -0.24640466 0.77529836 2.0945234 -1.6923648 -1.1801674 -6.960158 5.7499394 -4.111945 0.1905269 0.79163677 3.7532668 4.1791215 -0.99435145 -4.9240985 -1.0312042 -7.0080695 6.644265 -5.2286334 -0.6953243 -2.7469134 4.1518273 -1.5681483 -1.3934907 1.1321646 1.6896006 -0.86333776 -5.966335 0.26737416 4.032806 -5.0092497 -2.510667 4.4641166 -0.7420153 1.0229781 -7.633743 3.1226642 4.0377903 2.6063223 1.8491029 3.3813725 0.33184752 5.6474295 0.9574216,
exp:-0.31142423 -7.1708384 -3.5264444 -4.7310734 0.6382577 5.247884 -2.0675735 5.4642673 -5.6219397 1.8058721 -7.884956 -2.963074 2.537716 1.5903891 2.910608 -2.336805 1.5218801 3.6874332 -2.938857 6.017556 -4.29799 5.8313656 -5.4789305 4.511559 4.216153 1.1934444 1.3764524 -5.5181537 -2.162782 7.205781 -1.1327318 -7.9259 7.2037864 -0.9141765 4.959967 9.297572 0.5027173 -3.8855042 -1.0919634 -0.18815549 1.4188613 4.6199956 5.6702986 3.0870643 6.866835 -1.5078597 8.217053 9.837813 7.5646343 -3.0395172 0.5771702 -1.7315977 2.1655717 -7.66301 -0.7664093 3.4700723 3.9356346 -0.34347135 -2.860319 -2.514047 3.195495 -8.769415 -7.7673793 -6.6784406 -3.3407905 -8.658986 6.7861323 -6.726572 2.7346253 0.55292356 1.9465733 -5.860259 9.237892 -4.472 -11.521228 3.641885 -2.5387497 3.6952407 3.9225314 -0.41801772 -5.1067533 4.1392083 4.525211 2.7706616 11.495594 -8.712382 -8.034887 3.7778988 -6.5010786 4.3025117 -5.462892 5.8713417 3.16327 6.7901807 1.5427551 -6.477822 -1.2542077 5.286347 8.443215 8.779399 -9.16496 9.4689865 2.8930461 2.9265409 6.7573686 0.7011002 3.5755897 3.05733 -6.9020534 -4.2657623 6.020909 7.2267823 5.0376487 2.3816307 -4.453676 6.7528405 -1.5754495 7.3307576 7.6470494 -0.5491769 -6.794483 -5.8034754 6.9481535 2.6009932 -3.922205 -1.1190033 4.7151074 10.305048 -2.1033244 2.3953066 -6.7126904 1.1024274 0.7456347 -3.5463367 1.2318364 -4.949709 -3.0419648 -4.718339 3.5538988 -2.0236142 8.292846 -9.866333 -3.2816548 -6.284526 8.720392 3.2837942 1.5646014 -1.5640104 6.500231 0.7528336 6.9587083 6.395531 0.27923042 3.572586 1.20214 -1.5747402 8.648534 3.6224546 -8.515186 5.5037756 7.1390166 -5.546604 -5.5582027 10.941082 -2.285907 8.350832 -2.213574 -2.0293224 4.2630835 8.638054 1.0900948 -1.170289 5.343875 1.6080114 -8.384233 6.8071194 0.27892482 -7.1745863 -3.7826717 -2.3046372 4.184833 7.080299 8.664364 3.4322102 -3.2269492 8.208358 6.1101823 -5.3807545 -1.7521526 -4.258841 -0.3055234 5.192497 -1.6706114 -10.42491 2.927476 5.8371515 7.3276486 -6.236365 3.6816285 -4.5092154 -1.5662634 4.5218997 3.6004431 -5.1048226 9.704499 -6.4126554 -8.188757 3.3203812 2.4962034 6.229876 -5.8406014 1.7157725 3.4619076 -5.4946585 -1.5349715 -9.724441 -0.4684 -7.621535 -6.6080885 2.5473175 0.73829967 2.5086973 5.507827 -5.9198656 4.696496 6.612989 9.764301 6.529956 -5.7574644 -1.4373157 0.8769816 7.0994678 -6.0410585 4.702912 0.7145669 -3.297562 -8.826557 -1.8720943 -3.8007486 -2.1622899 -9.479278 -8.587375 3.7218256 3.5892694 -1.4207224 5.6820016 0.9951085 6.623287 0.47146806 -4.9283814 8.653824 5.27529 4.7656007 3.2356744 -8.319181 -0.5137385 -7.906668 0.16755316 -2.0925186 3.3260183 -8.095857 4.5149426 -8.90122 -6.0272236 3.3355048 -5.6199923 -0.08971111 -5.5391016 10.032439 -2.3578827 -2.1871145 -0.12935525 -5.128367 10.093689 -0.3262089 4.2870407 -6.542223 9.258636 -5.321327 8.133691 1.8407068 -8.843483 -6.216334 -7.7788463 4.542725 -8.490928 -4.4002533 0.6294244 7.378701 1.3274109 7.460017 -1.1705434 -2.168847 -8.4333105 -7.163515 -0.5436082 6.8678904 -6.7815466 5.701385 -1.3157979,
extcodecopy:-7.24022 -1.9830883 -1.810336 -1.5822806 -0.89892983 9.51866 0.33711213 -6.731795 0.48992184 -6.690676 7.6687217 0.9043397 -4.4844823 0.79748505 -7.8662252 1.0024581 9.413078 -10.572294 -1.8607076 -10.004773 -2.7071931 -8.275645 -9.589433 2.9595041 -4.103217 1.0611527 8.542419 8.748055 -0.3724812 0.8971228 6.2302065 -7.420738 8.932515 8.600179 -3.7588787 -7.8331103 2.753863 8.908833 9.990309 -0.9759386 -4.8027115 -7.631531 -1.9845665 -9.967505 6.90851 -6.6356244 3.393463 3.927831 -0.98614216 -5.035789 -3.7821748 4.5564866 -10.104965 5.8356056 -12.917227 12.87322 6.533894 -3.6709788 -1.1984295 5.0647297 -7.688286 -7.489688 3.9405053 -6.02512 0.094642684 3.006309 2.8868005 -9.357283 -5.5832987 1.7049922 -7.902526 8.925404 -2.0033689 6.0107903 9.32763 -4.836994 -8.1192 -5.80955 3.6766233 8.307701 9.632342 -9.643241 11.723818 -6.811094 -3.7113767 -0.9497974 0.2845494 -3.483918 -8.599138 3.0676448 -7.839899 3.3610334 5.440873 -5.66721 2.029975 -1.9530165 0.3230169 3.5964844 -3.8725767 0.8294966 -11.511149 -5.6689997 -5.5410156 -5.1103716 -9.9015665 2.8240154 13.159303 9.021411 -7.764101 9.406039 7.999548 -13.332547 10.756651 -2.5230246 2.8975427 -2.0292096 9.445912 8.660828 -6.832955 -1.045425 -5.217836 8.262321 -2.3235264 -0.15705603 -9.832853 -1.6475252 -5.591601 8.6402235 8.267928 7.1901035 4.577156 2.9304254 -9.014492 7.3818765 -0.7926967 -5.4690967 7.0119 -5.870874 2.772038 -5.479952 5.761462 -9.613529 -7.8032284 -8.051272 -5.3460903 4.458196 8.017835 -5.6589837 6.020712 -9.435031 10.729783 -2.8136117 -2.2547874 4.8287716 0.45693728 3.8300292 -6.339588 -1.0240711 6.536333 -8.047593 8.312165 9.619454 9.020906 -0.86813825 -13.231775 9.51556 -0.72712314 6.677523 9.740555 -3.5266254 5.0869317 8.765225 -0.26973197 0.0614951 -8.998834 -5.5148983 -2.2459214 7.5623507 -1.1923094 -0.8661705 5.722653 -0.15402001 10.0932865 2.4668682 -6.1841865 -10.562163 2.0827615 10.510727 2.4308028 5.306176 7.0938478 -6.2382298 -1.2517004 7.8877044 7.401309 -5.9003797 8.195652 -7.4141197 -0.7444579 1.6153412 11.730451 6.0823817 -1.008774 2.983971 12.056111 7.53684 -0.2885395 -11.214651 -0.033994496 7.3337283 8.558604 -0.6809178 -1.8606694 -5.1879315 -10.263964 11.147749 -0.41777658 6.547268 -3.1995451 -0.5759437 -11.375471 8.352768 -4.890778 4.8833823 -8.436995 -2.9182954 -8.024084 1.0843035 10.360675 8.879297 -5.6822214 8.594422 -0.42017546 6.3945155 -3.5492873 3.06192 -4.5272803 -7.5677 9.320132 6.4275866 -11.595484 10.163241 -7.9726944 -7.718946 -8.868998 -8.67669 -9.63018 -12.844291 -0.33014017 3.6848543 -10.433382 8.193047 -12.08624 4.319677 1.2777984 2.0500093 6.4207487 -9.666496 0.8142325 -1.3576926 7.925268 -11.92093 1.3442949 -10.5112095 4.2280903 4.0035176 -9.8986845 6.914331 -8.990438 3.4121125 -1.7781768 1.7016023 5.5509243 -10.34974 9.589729 9.765194 -0.26819578 -2.7533019 -10.521173 7.287493 -8.097414 6.362478 1.2849182 8.54816 -3.6105027 8.153461 4.56352 -3.286622 8.321504 0.060646284 -7.7083535 -2.2803903 -0.27647778 10.308981 6.4511323 -3.6051943 6.3440766 -0.42587715 -0.7779599 9.425934,
extcodehash:12.336003 10.011597 10.585019 7.842289 0.22599512 -6.6126056 -1.5099027 1.4073062 2.7641952 -7.943302 11.037785 -3.0003264 -11.923545 11.545648 -11.765551 9.959065 4.053356 -0.9412444 -4.081577 8.025198 8.171816 -6.9275417 12.653552 3.6787424 0.014790049 1.479238 -3.6206505 -7.4966774 -7.5584927 -1.017834 -1.121411 10.737948 -0.3518411 -0.65487796 7.967821 13.556666 8.131641 9.215586 12.941367 -7.0740232 -7.117777 2.4017673 -11.774877 12.204659 10.379892 -0.576036 -0.9545898 3.8160725 11.922114 -1.5507576 10.110427 -2.290849 5.831859 7.5017424 -4.2975717 -3.0985625 9.2250185 0.20488574 3.7697237 -13.337359 -8.804543 11.892446 15.891312 -13.390468 11.797036 -10.389596 -10.825473 -12.213541 10.457151 2.7174368 -4.0716977 -0.88736534 -9.95117 8.245707 -6.659796 4.493421 12.830071 15.158354 6.540494 5.9676857 6.268961 -4.926878 -11.348442 1.9149044 -1.7891549 -4.464355 -0.98876727 -1.8996375 15.282332 -10.346197 -7.904593 -9.81851 -13.0155325 -3.8950548 -9.365559 -9.171076 -0.29143548 8.097712 11.322811 -13.315982 -13.501241 -11.70975 -7.0481844 -0.07740341 8.784499 1.20977 3.6183755 -4.8659887 6.978246 2.0028465 10.345001 11.775676 -5.913523 -13.449946 -5.1472263 1.1088952 -9.259268 12.226302 0.60555613 -0.028756548 6.3519926 -2.4615808 -1.942559 -1.3737043 10.510672 12.041518 8.314271 13.292174 1.0526079 -8.402906 -3.4921165 1.4108318 -2.614126 9.438321 3.329931 -4.700973 -4.9352536 -5.757589 4.8611326 12.829821 -7.7752724 10.807428 -6.7887344 5.649107 -8.30091 4.3675585 -0.34103793 10.059663 -6.408325 -7.858893 -6.891529 7.4429526 9.397185 -8.985412 3.3071153 4.374546 2.0138607 0.20761354 -10.368116 5.771798 10.239374 -12.473504 12.674254 -3.208904 -2.1886263 -9.630887 -11.647723 -9.444665 -7.363011 -3.9739776 -13.421686 11.239285 -9.458523 -10.725893 -12.248455 9.347863 9.736065 -2.83665 -0.9531337 11.210675 5.094723 -8.162439 -4.5145383 7.016161 2.565803 -13.269946 3.977569 11.1490345 5.0231433 6.9870377 1.6203059 -8.58164 -7.561844 8.181412 -10.963553 6.731499 4.7692475 7.4586296 1.7162012 -1.7486681 1.9373839 7.0316124 5.559685 5.8842096 -7.5711865 12.305201 -5.0857835 -10.376154 2.7660277 -13.492369 0.5971464 10.601715 2.7423213 13.464153 -1.8666056 4.7979403 7.763901 -10.916492 6.2545643 -0.8107412 8.166914 10.93133 -5.437745 -0.74314505 -8.326169 6.606074 11.6438875 9.039972 -9.041128 -12.706114 1.4388274 11.293428 -6.266977 -5.775461 0.8710209 -10.94469 -3.4789054 -9.917096 11.6431265 13.073791 8.263466 -6.7692385 -9.632222 1.2579457 -1.4403558 8.656771 -9.122361 13.2971735 -9.190306 -10.481926 3.538682 -5.3007 -0.8039994 5.673176 -9.449461 2.375229 -13.035675 -0.16813575 -9.312693 5.1830277 11.4989605 7.2889366 8.7338505 -6.4874463 10.719176 -6.7007027 -2.3784423 -10.477142 2.4029531 6.6204453 -2.7156024 -1.4958825 11.803467 0.64488345 -1.0889324 1.9167893 11.554115 4.187822 12.733656 11.729701 3.2481241 -2.5789669 -10.918701 9.60038 1.861002 -12.633074 8.866496 0.74060714 1.1324029 -8.758718 -0.83464116 0.98989135 -2.788565 12.411591 -10.211975 -2.5779521 -8.635798 4.102333 -12.942568 -1.0916939,
extcodesize:0.53682303 6.0783916 6.3631153 4.9193583 4.0113444 4.4558487 1.4946666 -0.7914084 -3.3094473 -4.534931 -4.8713675 -2.179802 2.2893941 4.842367 4.8167496 1.4824048 -4.66114 4.304201 7.267132 -4.094466 3.670478 4.9812546 -4.8466372 -3.4633303 -6.1622386 0.55058926 -0.4718351 -0.45564434 -6.112309 5.466645 4.787255 -1.9787633 0.9649768 -1.3311527 4.029489 -1.2303877 -6.6754127 0.08930874 -1.8539995 6.4997487 -3.5789807 -4.985005 0.5672407 1.9474158 -3.1789181 -4.4280667 -8.561378 -4.6010847 0.36897835 -8.93701 -6.7281957 -2.3404074 2.730519 -5.011528 -0.86135906 -8.470452 3.7269974 3.197585 4.7811794 3.0048707 3.7574854 7.847223 0.36993912 -3.4887567 -5.6145844 -3.7038143 -3.4323938 4.411152 -4.6495667 -6.2296405 0.35275647 7.3334937 -5.4282107 3.9556646 -1.5853554 -3.2351177 -1.3722063 5.6813664 4.539863 -0.049080107 -4.9290257 2.3410952 -7.0698075 1.627722 3.9099052 -5.247358 -0.27037945 -9.868356 7.235722 -0.02911526 -4.520407 -7.5525165 -5.229333 -1.6836874 2.133311 -4.889568 -3.9906642 6.1203647 8.603436 1.7477273 -2.0815353 -5.1115136 2.1354809 2.8401673 -5.1687617 -0.054326277 -5.1983743 5.626707 4.6397295 -2.015925 0.92387336 4.9221277 3.4537404 -4.8305902 -3.1853313 -6.71883 -2.47115 5.5936604 -8.04579 5.646694 -6.462523 -1.1929744 -3.4810963 -2.8754475 0.4571078 -0.78634226 -6.981686 -3.4931319 -1.5750548 -5.5442314 6.2917123 0.5077865 1.224017 5.276835 0.44293287 -3.9733248 5.0996456 1.1466486 2.1755965 -8.846712 -0.83977956 -6.0957985 -0.6175473 -1.7331688 2.479331 1.1546453 -2.8901136 6.6031733 -7.2665877 0.6015784 7.2080407 -2.470501 0.1592299 2.9657104 0.32739857 -1.938018 7.175962 -2.4968138 5.212352 -1.317073 -3.0129585 -5.7328224 7.3688307 5.593312 6.2533607 -1.8514627 -5.125366 4.759978 3.9432795 -6.131166 -2.8846147 0.6660203 -2.4784417 3.14464 -0.48114833 3.8392122 -7.768331 -4.887564 6.7578764 4.668651 -2.56761 3.3964865 -3.8813968 -4.4256186 -3.3294296 -3.1819963 6.3801637 0.6349867 5.949355 -1.5457473 5.026562 4.0107665 -1.3182069 1.4794511 -2.1347756 0.740788 1.1184838 -4.0966606 4.2331147 -3.2795718 1.7120072 3.9474747 -2.0427492 5.1755915 -0.7277748 1.5409114 0.1298284 -7.6595297 1.434798 4.448367 6.654304 0.95134765 3.0028222 -2.8624747 8.146288 1.5860635 1.2040097 -5.6911554 5.6569715 0.61977386 -4.6351037 -6.8496027 -2.9302695 -0.03569786 1.2965032 3.5422645 8.421666 5.3759546 3.9445736 -6.2044907 -3.3433852 5.905267 -5.1069145 -3.1000867 -4.3445063 2.4327807 -4.1136003 -0.68383366 5.700505 -6.361356 -7.2675757 -0.24529698 -5.3664227 4.025404 -1.3500837 1.4862287 -0.1186432 -3.308877 -0.10709141 7.0304418 -3.5378063 6.443664 1.6547118 2.1103103 -2.995428 1.5207928 -0.34471506 6.4978046 -5.0011744 -2.3760993 6.2126765 -5.571493 3.0293677 7.5056667 -4.4483476 2.8937955 -5.4353943 4.7839303 1.3805876 2.5815492 0.74969256 -0.44502977 -5.15142 0.37903228 -0.50546414 4.5803194 -5.2537255 3.1068957 5.575833 -7.3870897 2.9618812 -1.177158 6.3953276 -2.081363 1.4597121 1.8454518 -3.6974096 0.9079903 7.4181547 0.8006885 -6.38433 -1.1498642 -1.6952938 5.8362207 -5.5025635 -0.8035917 -3.3608832 -8.214695 4.1158514 -2.401877,
forloop:7.729143 -4.991036 5.979112 -0.85130656 -4.039188 -2.2824135 2.4324265 -4.2776966 -0.46335274 1.8337482 -7.869264 -5.048932 2.7617269 -1.9956995 -2.439373 1.477378 1.7897507 6.614448 -2.8224564 -3.3170547 -11.316422 4.5347543 4.2526474 5.5457716 3.4287095 -0.12586664 6.01281 4.062058 3.8120155 3.0096862 -2.2318764 0.9696632 5.077717 4.2718816 2.631565 -3.750589 3.2594328 -5.6570845 -4.442072 4.1373663 -4.488407 -4.256957 4.6466985 0.34593126 -2.8668756 -5.8953023 2.8439713 2.3511827 2.6752756 1.608727 5.3957644 -7.784627 -4.9683557 2.5391355 0.84604704 0.9220956 1.5485322 2.2148764 -0.7125962 -0.15178269 -3.6636212 -3.0666437 7.0524974 -3.478351 -6.0572658 2.8762572 3.8481145 1.8669045 -0.5421377 -7.6760225 1.9519341 -1.1366687 -1.5674694 -7.919903 2.5457952 -2.953739 2.1897063 5.2366257 -7.842959 5.0835347 1.2118719 0.08297976 5.7159376 -2.5937657 5.2054863 -4.4197145 -1.3516085 -0.689934 4.2893896 4.288614 3.373011 -0.5101913 -1.551266 1.4001416 4.529252 -3.6457384 -2.57185 3.9318802 -2.9895737 2.6570206 3.984903 2.8300903 4.2862873 -3.5714858 -0.0089553865 -4.372913 5.782072 1.1154075 -5.9397573 6.385625 4.415394 0.5221625 3.7897856 4.2256455 -2.203122 5.84598 -2.3435085 -4.7224913 2.2489996 -2.9464955 2.442224 -2.2858825 -6.051665 -2.6855175 -1.5712585 3.055976 3.6805358 5.5611634 7.522566 3.9200969 3.6972415 2.3769073 0.70661974 1.3505945 -7.171974 4.8856473 4.98729 1.100799 5.1330633 2.0537267 3.8098485 -0.7929677 -1.1721123 -4.101397 6.7665 4.6397233 3.2698526 4.0403337 4.723963 3.8036923 -0.1689563 3.3186042 -4.5513825 -3.2950652 5.413315 -1.9271456 0.23710427 0.80031973 -2.6059196 5.20231 -3.2489994 -4.489042 -1.0862399 -2.5539424 0.3821276 3.8007507 -5.218797 1.544505 -5.2860227 3.4855042 2.1049953 0.45474255 1.4628642 1.2381182 -2.4969935 -6.467443 -2.2434635 -5.640269 -3.241966 5.030787 -2.2566183 -1.1595871 -3.5269482 -1.0115929 8.903431 -1.921386 2.8402011 -5.5955997 -3.0031528 2.666466 3.9993193 8.299692 -1.0240277 0.51207 -5.653159 -4.832114 -1.8288165 -5.5037923 5.0077934 3.8087912 0.62627774 2.2650223 -0.38722807 -6.478904 0.6325836 0.04603002 1.2621547 5.07504 -1.985215 3.6517253 -1.1377445 -0.039194867 5.978215 -10.153985 -0.47664642 -5.9848714 3.1700814 -5.102793 4.504797 0.18925016 -0.56061256 0.6236025 3.8886807 -4.359647 -2.430227 2.8350728 1.46662 -2.7541935 -4.294127 -0.2648731 -2.856761 -1.3410813 2.771798 0.9120979 -4.9071026 5.826892 -6.6070065 -2.297538 -5.466735 0.21159579 -0.4505269 4.9027534 6.983131 6.2576914 3.2843757 5.3340416 4.819251 3.7450702 2.8539183 2.0311182 3.8603637 -4.3406053 -0.47807682 0.044900466 -1.8975735 5.420255 -2.110653 -3.1579475 -2.2054439 -0.5409155 -2.1704106 4.246303 0.29995096 1.2134155 -7.1728425 -7.7852206 -0.36069265 -0.35013333 2.3926246 -5.3413887 6.2980943 -8.061304 -0.92741525 3.0929377 -0.43131536 3.6586437 4.6852584 3.1927512 3.8587115 -3.1370971 3.6619713 4.8702064 -3.4891672 -4.757419 2.2225916 0.31827754 -7.182329 -4.9314075 -1.2459502 2.0054858 3.3000255 3.9472942 4.129114 0.8404956 -1.2685143 4.3344584 8.653799 -6.717326 4.9724445 1.6048337,
