add:-0.068539314 0.103777185 0.044456866 0.016973637 -0.07394867 0.107025415 -0.07920661 -0.0011094861 -0.10027317 0.07573605 -0.004761873 -0.041093893 -0.042752773 -0.03636823 0.09031996 0.025772657 -0.0702136 -0.008823588 -0.05540769 -0.02383964 0.10633675 0.08774487 -0.044278067 -0.016845552 -0.009549056 -0.120328195 0.012356509 0.10130406 0.040450245 0.010486301 -0.051678646 0.115775585 0.11484475 0.045241233 0.057132725 0.00024166435 0.084400594 -0.09166059 -0.030662125 0.059236407 0.08712972 -0.12382591 0.0603232 -0.058344107 -0.11763276 -0.011359726 0.054031707 0.02209215 -0.030595377 -0.11553591 0.043416504 -0.02847313 0.06881323 0.023107022 0.08300548 0.10640207 -0.0638897 -0.106715314 0.11509806 -0.1021266 0.105025664 0.06685628 0.089191936 -0.10619664 0.08103272 -0.038812395 0.059682194 0.007883608 -0.028852347 0.026948713 -0.058175776 0.04267522 0.071325734 0.052864984 -0.10363264 -0.034029566 0.04395533 0.07257606 0.0840423 0.0791468 -0.105633065 0.07862275 0.012439324 0.005629234 -0.057227056 -0.010902704 0.016134128 -0.123592176 0.07634919 0.024642942 -0.0021650363 0.071267456 0.03406072 0.017787151 0.087879315 -0.094248936 0.013550668 -0.04699058 -0.081176884 -0.06804988 -0.04197395 0.12026733 0.117110476 0.07258122 0.024953362 -0.0617714 0.11068875 0.036086448 0.06441902 -0.08117549 -0.07348285 0.07497414 0.017240552 0.028630212 -0.10289502 -0.0019817073 -0.0014972192 -0.057761647 0.0006650229 0.029972965 0.07786559 -0.0023249567 0.036869925 0.024504632 -0.06819046 -0.04650327 -0.019876419 0.032854892 0.0045682886 -0.05381433 0.11562736 0.06139067 0.09491946 -0.09593067 0.039666217 -0.12314048 -0.04152791 0.106684096 0.0753688 0.01244674 -0.11513185 -0.09623381 0.0051168045 0.10128341 0.022005947 0.12224113 -0.03218418 0.113046 -0.02350709 0.06438034 0.029222691 -0.115785584 -0.11745734 0.032750543 0.07566911 -0.073878266 -0.081091516 -0.05951508 0.09184277 -0.019661967 -0.041075006 0.05772409 0.023256984 -0.025357636 -0.116526216 -0.010520351 -0.021984337 0.055415586 -0.013911634 0.04495464 -0.07400448 -0.09270805 -0.05864442 0.07924844 -0.08728275 0.010572845 -0.1186389 0.031536993 -0.028878698 -0.099431016 0.059866548 0.064348504 0.010202086 -0.032812 -0.07876106 -0.08199324 0.014723854 -0.123742424 -0.039435774 -0.021192612 -0.07816668 0.12236739 0.06977122 -0.00014400283 -0.10380835 0.06511328 -0.052944247 0.09147188 -0.054735877 0.048763394 0.09708329 0.027671639 0.054906514 0.08828607 -0.012590892 -0.105651274 0.0988371 0.082048185 -0.11489256 -0.020148817 -0.06757601 0.0025155535 -0.08484013 0.11481145 0.009794912 -0.044689715 -0.080992386 -0.113807954 0.02376925 0.09188052 -0.01875693 0.05110672 -0.03886822 0.103725985 -0.10833943 0.07281068 0.066357866 0.06982087 0.050085995 -0.02974206 0.0123908715 -0.07802333 -0.050344303 -0.07396692 -0.042482976 0.07444041 -0.09149322 0.033046458 -0.09378772 0.061185654 0.020349046 0.12169281 0.09773139 -0.015420683 -0.053226173 0.12191326 -0.011742867 -0.07242396 0.11750186 -0.025184264 -0.053186476 -0.06414903 0.028556434 -0.022381196 0.020231884 0.08575598 0.10008249 -0.042833954 -0.012677688 -0.021314455 0.07496883 0.086542144 0.0046838 -0.0808732 0.057253808 0.0385847 0.040003687 0.0182769 0.091479875 0.056497887 -0.06569608 -0.106802255 -0.11323381 0.059411608 0.10293234 -0.029497111 -0.11892205 -0.019105693 -0.09251528 -0.065049194 0.0018314621 -0.11980884 0.032076977 0.011279662 0.029603958 0.019211365 -0.08811259 0.0950747 0.0928589 -0.09173029 -0.0013811133 0.107750796 0.042204883 -0.0487775 -0.019785415 0.018614799 -0.05292041 -0.106028125 0.026313266 0.08278794,
addmod:0.05223104 -0.028561309 -0.09878563 -0.040986054 -0.091313116 0.080328666 0.110075675 0.020697601 -0.06635758 0.10881659 0.03631142 0.03349428 -0.013235731 0.02291595 -0.119301565 0.05067798 -0.08237307 0.022372918 -0.075845025 -0.05805979 -0.082396686 0.03175483 -0.024023488 -0.086761236 0.009318599 0.040124413 0.011437293 0.052765734 -0.0056403806 0.07728193 0.009580609 -0.036769085 -0.029735 0.003658079 -0.014291088 -0.09166763 0.0028901333 0.04317007 -0.087969795 -0.102252245 0.011328039 0.03319517 -0.122311786 -0.031223912 -0.09075875 0.0009923696 0.05113496 -0.07555059 -0.113691755 0.052897654 -0.011953216 0.10173947 0.011556447 0.10700514 -0.11282072 0.08049039 -0.09404281 -0.08228328 0.079634756 -0.11685906 -0.0374642 -0.074164756 0.013424812 -0.08257198 0.095814854 0.016531894 0.007482083 -0.10304509 0.05416034 -0.0770288 0.0120542655 0.112688355 -0.10602416 0.121604286 0.10787701 0.117368296 -0.115140304 -0.06424327 -0.07306426 0.056529038 -0.11253138 -0.09349676 0.120304786 -0.0043165474 0.05149591 -0.020040382 -0.12343728 0.034492698 0.07692654 0.033245925 -0.09568506 0.043305434 0.07197625 -0.044187363 -0.08897124 0.06858048 0.08697845 0.054939687 0.08295059 0.10922793 0.032129515 -0.08637723 -0.10478145 0.087953895 0.022835275 -0.06743347 -0.025089724 -0.08616009 -0.10639456 0.03318579 -0.03801651 -0.073686674 -0.05330111 -0.035740018 0.08672196 -0.0425488 0.10374471 0.07168795 -0.09728558 -0.10024048 0.11455754 0.07051521 -0.018957736 0.09066351 0.016038295 0.057673927 -0.05478308 -0.0134217655 0.1101859 0.07184653 0.07343582 -0.115971826 -0.037725337 -0.09808045 -0.0794794 0.11854747 -0.044389464 0.073417306 0.09961708 0.042266756 0.08506287 0.091234654 0.079412825 -0.08027594 -0.04183024 0.025018653 0.09324423 -0.048653547 0.079303734 -0.08512327 -0.07086039 0.08355687 -0.014535413 -0.03522245 0.030096265 -0.1087076 -0.08546166 0.038200136 -0.0114534935 0.10995213 -0.052838426 0.09572235 -0.053821374 0.122635104 -0.014962205 -0.109566756 0.12155754 0.11848374 0.1015555 0.005439142 -0.036987383 -0.055601947 0.12271878 -0.037601653 -0.08491093 -0.04849306 0.04314963 -0.07074455 0.01456588 -0.043910146 1.6764907e-05 -0.020743154 0.10341653 0.08472503 -0.06346678 -0.0695231 0.07352849 0.07319932 -0.07247895 -0.02954338 0.061754234 -0.012103044 -0.017592883 -0.05683066 -0.093671724 -0.10530987 0.10987328 0.11831161 -0.019700505 0.02235055 -0.117446296 -0.036693685 0.04940159 0.05294111 -0.048434414 -0.09253789 -0.06444593 0.12152624 0.10154775 0.030912856 -0.051738318 -0.07113352 0.048249867 -0.027300062 0.04232451 -0.11900327 -0.02832978 0.010523784 -0.041274194 0.06286747 -0.0009231846 -0.09175776 0.031244794 -0.042292587 0.12278534 0.074994735 -0.09683895 -0.105066344 0.10308654 -0.04047389 0.06949325 -0.10743202 -0.08223239 -0.01261592 -0.0011046261 0.030893385 0.035547387 0.05864598 -0.08660995 0.052921955 -0.122908786 0.050952744 0.07175651 0.048187576 -0.061997194 -0.040474813 -0.07849131 0.0027923975 -0.089870796 0.0065388787 -0.108098865 -0.054756418 -0.03136579 0.12063766 0.06031577 -0.108071364 -0.0626652 -0.11877096 0.019987307 -0.120839 -0.093833275 -0.10679154 0.04826575 -0.12369762 -0.0063111703 -0.072490275 -0.024622522 -0.078764506 -0.11626327 0.11235868 -0.11102729 -0.08590813 0.024403092 0.08536648 -0.03397661 0.001899904 -0.08858827 0.075843595 0.09987548 0.081091516 0.10159035 0.05038155 -0.03079666 -0.10363125 0.10612129 -0.08867621 -0.060474917 0.110431276 -0.019523969 0.0011311556 -0.111261174 0.053213973 -0.06905306 0.0042868224 -0.09926152 -0.090693064 0.05499141 -0.08517307 -0.11292808 -0.09064173,
address:-0.119786456 -0.0043027108 0.006344195 0.10204915 0.06693636 -0.09343135 -0.06998649 0.11380837 -0.04775891 0.007424595 0.07993846 0.06710434 -0.12438089 -0.047881942 -0.030335 0.12129622 -0.09783748 -0.04972522 -0.00031853325 0.03352295 0.10542168 0.002078908 -0.10323156 0.12184884 0.071056336 -0.027634721 -0.10251304 -0.035422258 -0.046808276 -0.083958596 -0.02440128 -0.03610776 -0.03887629 0.0037963896 -0.0008625159 -0.09165485 0.05544235 0.042926993 0.0038541006 -0.07722453 -0.08922789 -0.11645395 -0.04006905 0.038779177 -0.04806123 0.053968213 0.040061202 -0.07423663 0.050059687 0.10886662 -0.11223029 -0.0114322845 0.107066974 0.0075340276 0.10374024 -0.084266745 0.086517 -0.023669746 0.08995673 -0.042714056 0.0123625295 0.018351331 0.018462637 -0.039198317 0.07940798 0.048206422 -0.033833086 0.09169748 -0.11729007 -0.08533833 0.039355934 0.05816231 -0.12080452 0.013400527 0.017541563 -0.0988321 -0.065052345 0.0032134375 0.0700247 0.021669595 -0.1044355 -0.02360337 -0.05253116 0.028030733 -0.08812187 0.088383436 0.08836386 -0.11480646 -0.04951664 -0.0038732437 0.06522558 -0.036118925 0.018037569 -0.03629876 0.038345326 -0.072474964 0.08371815 -0.008607577 0.06427095 -0.0028262543 0.10997169 0.10551102 -0.031108668 -0.09016176 0.05964908 0.06183204 -0.041268054 0.055778023 -0.028539462 -0.01747593 0.03515668 0.01772021 0.060748372 0.00680416 0.0907337 0.06884988 0.055273052 -0.032418218 0.10581805 0.003882726 0.08152501 0.03591037 -0.008576692 -0.08341303 -0.08370766 -0.08161479 -0.032066572 0.09268038 -0.066360556 -0.036787067 0.025839062 0.10395606 0.076062284 0.0053428034 0.048113756 -0.029282957 0.122660875 -0.0006170318 0.06492573 0.040206052 0.09391235 0.10443463 0.09937964 -0.08165644 0.06501217 0.08003279 0.05931087 0.102042794 -0.042916335 -0.088795885 -0.10427618 0.09500227 -0.08747553 0.047895007 0.035328757 0.018118495 -0.015837979 -0.116664745 -0.059012283 -0.088218875 -0.016667796 -0.0144474115 0.07254639 0.016558379 0.014776542 0.11636479 0.122074984 -0.0680634 -0.043835197 -0.0274792 -0.06311455 -0.074347146 0.039478786 -0.00089062087 0.09928563 -0.051259033 0.08335142 -0.019947758 -0.12327241 -0.022822924 0.0057602916 0.09225494 0.06439515 0.11014934 -0.11170895 0.07206351 0.061898906 -0.04047649 0.11527094 -0.119740844 -0.06308134 -0.06646083 0.046357185 -0.088429466 -0.011925601 0.0075157913 0.02238182 0.018847635 0.012274083 0.08013816 0.051753744 0.059311986 0.016999438 0.0496945 0.07128127 -0.069101945 0.034197826 -0.06622541 0.1226821 -0.087007746 -0.08268297 0.031446464 -0.04905947 -0.07632019 -0.09701493 -0.115988344 0.02859353 0.04022542 0.054356348 -0.11071285 0.07054394 -0.11664943 0.005957175 0.053598244 -0.011563417 0.0028622514 -0.045620896 0.0820372 0.02517065 0.1028818 0.05419695 -0.05360355 0.027919991 -0.0014689359 -0.010987718 0.04641497 0.09929859 -0.07494926 0.12297784 -0.04530425 -0.029616399 -0.04774408 0.059879214 0.008085961 -0.033203896 0.11894042 -0.08960165 -0.06886568 0.07590918 0.0012852502 -0.034098975 -0.09681972 -0.013813318 0.0039988467 0.0031326448 -0.110705584 -0.038983673 0.11299453 0.093938224 -0.014686237 0.04508378 -0.009283449 -0.05487753 0.11082838 0.11608489 -0.05985971 -0.11805869 0.04785531 0.07002766 0.12353824 -0.006684249 0.07667662 0.048114184 -0.04637774 0.04075583 -0.060712837 0.058723297 -0.08492466 0.030518271 0.119800575 0.084811956 0.05973995 -0.11672129 0.022929445 0.051509243 -0.0027978371 0.021597125 -0.0042453264 0.029213937 0.019385599 -0.10424925 -0.034555625 0.088745154 0.03083609 0.12360747 0.10837883 -0.02158467 0.08965842 -0.05861193 -0.09608768,
addressTy:0.07565313 0.03783645 -0.01973503 0.04054648 0.124453016 -0.116533615 -0.00924867 0.08393376 -0.060332607 0.07778605 0.06303455 0.07815134 0.007822063 -0.020549987 -0.06311192 -0.061798748 0.054323442 -0.04979723 -0.050491475 -0.08903612 0.004158589 0.11615128 -0.104761735 0.11304543 -0.102761336 0.063122496 0.050651986 0.012717312 0.08406628 0.10308573 -0.0155010745 -0.028364277 -0.044625957 -0.11666866 -0.007955885 -0.12253602 0.07584458 -0.080596134 -0.11152932 0.07475618 -0.095653966 0.11365539 -0.0035000164 -0.08755304 -0.12080024 -0.073318 0.03986625 -0.10207348 -0.025281183 0.10320012 0.0017488415 0.09956138 -0.061270222 -0.0016974172 -0.05729474 -0.07536297 0.0082130805 0.10733738 -0.10166588 -0.024779737 -0.11079691 -0.12211649 0.10075948 0.07307376 0.0008325382 -0.07509842 0.109675474 -0.09823883 -0.033316135 -0.01578425 -0.015623839 0.055326663 0.0881767 0.10949413 0.010676719 0.07318402 -0.061036747 0.037443217 -0.050798785 0.06733808 0.07631555 0.10683525 0.12439677 0.04649689 -0.008222935 -0.1067606 -0.0020230992 -0.07678456 -0.023562573 -0.11996235 0.053465534 0.08664801 0.10138474 0.107030466 -0.018932931 0.03651199 -0.11736727 -0.09822755 0.0788672 -0.003783712 0.079602905 0.06650838 -0.09438463 -0.061964422 0.070930675 -0.04660386 -0.07793811 -0.014093863 0.095741995 -0.055090245 -0.01104852 -0.06138236 -0.018161226 0.08020607 0.12423222 -0.12288674 -0.0701041 -0.118047036 0.096054405 0.09067337 -0.12040054 -0.008423935 -0.10814118 0.00597935 0.07002356 0.057056375 -0.03450778 -0.1129286 -0.06473299 -0.028709637 -0.10646253 0.06431274 0.11600589 -0.05250093 -0.010137374 -0.11369275 -0.1190966 -0.12307782 0.044773407 -0.00923522 -0.0884238 0.04849862 0.12015476 0.11278022 -0.019961951 0.038816527 0.033944614 -0.015501788 0.104216136 -0.07061006 -0.060953785 -0.044549696 0.08825403 0.1088924 0.06171928 0.011040925 0.11333907 -0.0017610436 -0.0094458815 0.08756662 -0.07883713 -0.109271064 0.085340425 -0.060686678 0.09227331 -0.0748509 -0.0021759453 0.041591387 0.086182326 -0.077247776 -0.020923927 0.032743365 -0.08763799 -0.08822612 0.013459353 -0.027480835 -0.07396508 -0.07936033 0.1140083 0.052667968 -0.11067737 -0.030869843 0.068768896 0.11377271 -0.11655765 0.07636445 -0.113693185 0.030945448 0.0035676258 -0.058848377 -0.03633312 0.03279846 -0.07898496 -0.082512684 -0.082027085 -0.029551063 -0.092314996 0.0045984895 -0.003059566 -0.04709325 -0.11620892 0.09651165 0.099337146 0.095377415 -0.10487933 -0.11317133 0.052522212 0.11008644 -0.009780079 -0.010587886 -0.017367003 0.10813698 -0.0030058825 0.12008525 0.0026210328 0.0570875 0.0010186911 0.08545231 0.031435095 0.009434526 -0.0012346582 -0.04552154 0.03703032 -0.069216356 0.0044169733 -0.035485618 -0.07081225 -0.10818005 -0.09827775 -0.062195845 0.11823074 -0.07108893 -0.05954494 -0.022852784 0.018253656 -0.010464691 0.0025713772 0.11391086 -0.09562971 -0.08006252 0.07334244 -0.069819435 -0.11959333 0.10925028 0.052491684 -0.06269239 -0.011301197 -0.03614208 0.09948828 -0.08076652 -0.06711009 -0.07245533 0.039936446 -0.12160258 0.014731583 0.026408356 -0.064588904 0.055907756 0.076945335 -0.09021167 0.0433355 0.067638 -0.023677193 -0.07971342 -0.08012098 -0.014657924 0.05003949 -0.050196335 -0.060443558 0.07320773 -0.12212493 0.11477404 -0.124159925 -0.099537715 0.07114191 0.079307675 0.07105707 -0.056412265 0.01858451 0.0058916165 -0.07951032 -0.022538457 -0.10097487 -0.08834458 -0.11972559 -0.020305736 -0.08804669 0.015575328 0.0007098928 -0.04484173 0.051173706 0.107033946 -0.06641461 0.09906078 0.04424552 0.03106576 0.086706795 0.075504445 0.09729171 0.09166536,
and:0.04082072 -0.07441049 0.017458124 0.10845834 0.026006697 -0.043193493 -0.04223929 -0.035475153 0.043017074 0.026374618 0.07408536 0.023598198 0.1029036 -0.0616455 0.065473504 -0.02715713 0.10821507 -0.10966161 0.0026429698 0.12379493 -0.015771111 0.11927421 -0.11173694 0.030475883 -0.110590994 -0.06082897 -0.10078746 -0.051000975 -0.014564825 0.049252965 -0.05862553 0.087673806 -0.10526986 0.058494028 -0.10109813 -0.10183806 0.016368167 0.037014242 -0.101930134 0.06424333 -0.020409774 -0.109881826 0.012274707 -0.0958765 0.07676048 -0.10870106 0.0860683 0.031496298 0.007024868 0.110571265 -0.06667945 0.045678295 0.09870683 -0.0746799 -0.095908426 0.04126022 -0.04820147 -0.07126276 0.008131515 -0.084659696 -0.11469273 -0.11820621 0.08864516 -0.11196781 0.045361843 -0.013201146 -0.024327517 -0.05184026 0.074361145 0.05384135 0.054033462 -0.016283749 0.02236507 -0.04056754 -0.017114652 0.031905834 -0.097050264 -0.0073030493 -0.00791592 0.038244694 -0.082066454 -0.017563144 -0.08632709 0.065807894 -0.09489654 -0.06366358 0.09193722 0.040977165 0.080548204 0.112717785 0.053297292 -0.029420244 0.0024809686 0.11512006 0.065088876 -0.057583105 0.013777499 -0.09085975 -0.021247365 -0.044692136 0.05402704 -0.018741146 0.024558019 -0.104016446 -0.07021295 -0.09676107 -0.04596019 -0.10689522 -0.06642659 -0.05257841 0.09620512 -0.06161261 0.12396921 0.003241706 -0.04541768 0.06912883 -0.06669835 -0.07001872 0.07874656 0.026392082 0.0071971985 -0.051402353 0.051097445 0.1219592 0.015684003 -0.12439396 -0.06601612 -0.08465217 0.060905945 0.091860294 0.053929556 0.014657582 0.08860576 -0.02072963 0.019474506 0.07925976 0.08051549 -0.06202237 0.11025858 0.015030141 0.0065111006 -0.046303086 -0.075222015 -0.04714286 0.04998701 0.09630005 -0.009210756 -0.07840155 -0.021708697 0.0664569 -0.0078063235 0.09846262 0.0527416 0.05220656 0.008877642 0.038548764 0.074619204 0.033907708 -0.057166893 -0.022657447 0.05503567 0.11112811 0.11455237 -0.091998026 -0.00021428762 -0.013014577 0.07929861 0.017387914 0.010617047 0.034194257 0.0043734857 -0.036454547 0.099996164 0.1085044 -0.11157342 -0.021889767 0.020240223 0.002079324 0.038948447 -0.08531318 -0.11117296 -0.08212498 -0.039606724 0.03864381 -0.11956964 -0.040824957 -0.032944873 0.042927615 -0.03555137 -0.028137906 -0.092268564 -0.03156774 -0.11171815 0.0008215845 0.038516767 -0.075640336 -0.09258935 -0.1224162 -0.036313146 0.025316497 -0.12373041 -0.04794043 0.046762098 -0.094197884 -0.10896209 0.12361012 -0.11043177 -0.108363904 -0.096518576 0.0013287527 0.05077395 -0.046813034 -0.030225806 -0.020475095 0.09817906 -0.08611338 -0.021679152 -0.09816219 -0.10094601 -0.01635763 -0.09707185 0.11972012 0.12088273 0.020365454 0.07689812 0.037527192 -0.04503436 -0.01786124 0.033575933 -0.07194395 0.010158226 -0.10675364 0.046922613 0.03218079 0.015590651 -0.057505418 0.08353418 -0.0384462 -0.094274126 0.05160301 -0.122062944 -0.12303436 0.06264188 -0.004353154 0.054985404 0.023497058 -0.08375876 -0.10901564 -0.017817277 -0.03287249 0.036252894 -0.014564603 0.07949411 -0.087314 -0.03096529 0.119284816 0.06852112 -0.025417414 0.065737166 -0.09796275 -0.046676923 0.09435565 0.0072691035 -0.1063172 -0.05205624 0.004174789 0.0431282 0.04956325 -0.069856085 0.016902922 -0.06622815 0.09638007 -0.017202238 -0.09674471 0.10817239 0.051920235 0.040765554 0.022565268 -0.06211957 0.057506427 0.107361205 0.05112805 -0.10919347 -0.106193505 0.096909545 -0.07122528 -0.08571514 0.018204994 0.1070891 0.038879294 -0.058300592 0.0048900023 0.11151632 0.0035045494 0.108944654 0.12361346 -0.06330829 0.10050901 -0.09375818 0.090128675,
balance:0.033992827 0.069897346 0.097224414 0.097489946 0.0012432487 -0.011433325 0.044883598 -0.038668036 0.027271317 0.11628434 0.05743739 -0.11700972 0.09968845 -0.04129592 -0.05224382 -0.051490948 0.089873664 -0.005182764 -0.010183864 -0.08321195 -0.08069109 -0.1149679 -0.041083 -0.10050947 -0.013142186 0.011413454 -0.03563038 0.069291174 -0.036700077 0.07763011 0.1130752 -0.07703833 0.07376512 0.10824294 -0.059388317 -0.0028302523 0.077894635 -0.002448048 0.0026657244 -0.019320427 0.080919035 0.11576389 0.0066945786 0.086967945 0.1243616 -0.0995478 0.107447214 -0.0737974 0.012263337 -0.09171732 0.08556864 0.11853105 -0.044547036 0.10439301 0.1207837 0.12317723 0.035471722 0.024724167 -0.10563327 -0.03940101 -0.058411926 0.113777034 0.03960895 0.052853454 0.053349234 -0.04237112 0.08831301 -0.106700346 0.11695682 -0.10029765 -0.023703454 0.042244475 -0.07472451 0.03179701 0.12044198 -0.10766356 0.04279158 -0.08951873 -0.09865945 0.020626023 0.0029549934 -0.035612676 -0.056840066 -0.04373504 0.06644353 -0.12012655 0.004498524 0.07906378 0.04243812 -0.059628747 0.08720888 0.0016884848 0.083890945 0.07408389 -0.04472754 -0.101137474 -0.05867199 0.076192506 0.046818055 -0.060501013 -0.026836425 -0.008169088 -0.057958398 -0.034645632 0.11326678 -0.027127048 0.039557572 -0.118879095 -0.08349372 0.11716071 -0.027502356 0.06862819 0.10970337 0.09815394 -0.093472354 -0.10971317 0.018603176 0.07092993 -0.033945043 -0.038302716 0.12386795 -0.041060958 0.0033311485 -0.10767046 0.03234083 -0.08748904 0.0945825 -0.067289494 -0.11743587 -0.0919772 -0.08380077 -0.109442785 -0.056351416 -0.04275249 -0.022124892 -0.097780876 -0.030033128 0.12463457 0.04556815 0.092775024 0.060371533 0.085278034 -0.10636148 0.013998936 0.037403192 -0.0140220765 -0.0396205 0.0048569036 0.04549345 -0.05219659 -0.056722015 0.02441299 0.07663067 0.0130176535 0.029228725 0.0268534 -0.09191093 -0.02564585 0.11613484 0.034517992 -0.038841393 -0.03403297 0.046655238 -0.06358017 0.014658028 -0.07491781 0.06868558 0.08191334 -0.030309571 0.049027916 0.03986347 -0.07083609 -0.060877454 -0.041206982 -0.122610345 0.032147232 -0.091918364 -0.050229046 -0.06655068 -0.061933167 0.022738699 0.12294692 -0.043929007 0.0700519 -0.039578203 -0.06232488 -0.019859342 0.022173403 0.07567461 -0.10185388 -0.023829175 -0.036659133 0.083084635 -0.07606792 -0.05759034 0.12192412 0.06919527 0.09386489 -0.030694569 0.0612858 0.053661942 -0.008856405 -0.030475749 -0.12173014 -0.09773459 0.02119551 0.06170913 0.051373012 0.043031298 0.070082515 0.097432695 -0.051804353 -0.10809597 0.11341567 -0.0003453452 0.07749503 0.0055587264 -0.060810555 0.054555357 -0.023356132 0.013233219 -0.027195832 -0.058844738 0.11145321 0.016144205 -0.0271358 0.04987978 0.09699156 0.007850094 -0.08184747 0.09403578 -0.04546851 -0.08369075 0.11751986 0.06799242 0.004512227 0.0911971 0.08134043 -0.08024468 -0.12091129 -0.0025657592 0.0071769115 -0.09903936 0.035509963 -0.027495148 0.06994105 0.114752896 0.10304008 -0.08764215 -0.085366584 0.11787004 0.12227642 -0.08489211 0.039268557 0.053607486 0.0042099836 -0.019465262 0.045048673 0.04696396 0.10254357 -0.010708466 -0.06811341 -0.091681674 0.064064525 0.074874304 0.08768136 0.10255989 -0.052072145 -0.027603392 -0.11278849 -0.052180197 0.111330196 0.004663067 -0.11465795 0.07261681 0.046046305 -0.08308923 -0.08621534 -0.029569998 -0.04428486 0.10764538 -0.053561233 -0.020233326 -0.105521254 -0.0935563 0.10042738 -0.030300742 -0.07370678 0.10225121 0.056568455 0.07923925 0.059916545 0.11688512 0.019060021 0.08320641 0.027442444 0.064297274 -0.12051363 -0.11158617 0.001444814,
basefee:0.11548472 -0.11320434 0.12298036 -0.09483275 0.06791569 -0.09936105 -0.07155258 0.10841246 -0.07529624 0.01740233 0.101864964 0.059037175 -0.08821197 0.07462527 0.091863416 0.058356564 -0.005495917 0.08769124 -0.014945499 0.101738214 0.08567256 -0.08437585 0.055629145 0.06448363 0.1059493 0.04128106 0.028237663 -0.0762078 -0.09031134 -0.0054989937 -0.017206607 0.038119595 -0.06611445 -0.023935443 0.08541825 0.014477196 0.09355307 -0.089634515 0.07770572 0.0036543189 -0.039695453 -0.005521808 0.03681229 -0.10008397 -0.12422167 -0.0180741 0.07248082 -0.020598855 -0.05088466 -0.018515948 -0.0053227097 0.05820382 -0.103513286 -0.10962973 0.027779274 0.082841516 0.037411246 0.023025054 -0.11120681 0.09042547 0.058379613 0.005983095 0.0040799663 0.020778855 0.040584616 0.023207106 -0.03304533 -0.057901412 -0.124361895 -0.1017297 -0.07394598 0.09522395 -0.039442953 -0.08301328 -0.049495775 -0.1109258 -0.0925065 -0.0004708591 0.05058072 -0.10934321 0.063946754 0.02993615 0.1144065 0.024718177 -0.0014801124 -0.057025492 -0.02163281 0.05718947 -0.07554713 -0.02757756 0.015585181 -0.037186645 -0.059612874 0.11525357 -0.0004921719 0.124398574 -0.016088262 -0.051611897 0.07984758 -0.12460207 0.06494412 -0.00944658 -0.034554556 0.061997786 -0.11077851 -0.06343636 0.10093161 0.044980887 -0.03269096 0.10022836 0.034282602 -0.101496816 0.044440515 -0.0286903 0.11296764 0.05169278 -0.056916326 0.00533185 -0.055232167 -0.014860337 -0.03153134 -0.10249213 -0.053283244 -0.053070787 0.01708084 -0.079564214 0.019527476 0.097883165 -0.010019633 -0.09697511 -0.022929624 -0.051665433 0.0125094745 -0.011587672 0.10348059 0.11690765 -0.112875685 -0.01534481 -0.03643603 0.06930436 -0.0024108323 -0.06517983 -0.007894384 -0.034257557 -0.031526633 0.010470339 -0.08044379 -0.018669834 0.04625463 -0.053354334 -0.028386272 -0.0054150354 -0.03501907 0.08265676 -0.02045827 -0.11678366 -0.022020647 0.11011765 0.112325564 -0.0071580955 0.07993931 -0.10424996 -0.04457924 -0.08231755 0.028697718 0.0884198 0.07476869 -0.085282296 0.038965464 -0.10626068 0.08083517 0.01605225 0.07686557 -0.028973447 -0.06614321 0.013594943 -0.07005282 0.059413556 0.012597372 0.07913002 -0.11941995 -0.08546536 -0.11342833 -0.06887975 0.102239184 0.08137319 -0.02865741 -0.012634409 0.078834064 0.11447333 -0.055279445 0.004981838 0.065842316 0.066674426 -0.0117925815 -0.044265434 -0.07761231 0.037707385 0.0953497 -0.06374143 -0.04038938 -0.10439312 0.032973245 0.08983205 -0.018523974 0.11649093 -0.013969062 0.11615202 -0.0900266 -0.11843291 -0.117646195 0.058613118 0.0129007455 0.10479173 -0.072374806 0.10765073 -0.12021403 -0.053454194 -0.06703988 -0.10885676 0.06974744 -0.105912186 -0.07666179 0.09262799 -0.0041864114 -0.011387132 0.020472152 0.11158015 0.04385346 -0.046726473 0.042120848 0.081773005 -0.080449276 -0.0050300076 0.013651228 0.0014141378 0.030687287 0.00616635 -0.011559478 -0.060000923 -0.058057796 0.03444646 -0.09377142 -0.06395931 -0.05245594 0.07585223 -0.08826706 -0.09336937 0.09839769 0.12264294 0.11030814 0.07093683 -0.03760519 0.013370296 -0.08481394 0.09178393 -0.07307493 0.049423736 -0.09412185 -0.0388243 0.05680982 -0.0842207 -0.11518988 -0.08208228 -0.03914484 -0.0085870065 -0.040167052 -0.02089609 -0.11971941 -0.11414662 -0.0879963 0.116376355 0.11195744 0.06876361 0.12063959 -0.023379466 -0.041203357 -0.07046846 0.025322145 -0.10092773 0.06738445 0.11656439 0.035946608 -0.049284652 -0.0020598543 -0.07185744 0.083057396 -0.08192729 -0.08091507 -0.08649044 -0.04748452 0.11664947 -0.106410496 -0.06678741 -0.037407234 -0.09915906 0.015194149 0.080443196 0.076228 -0.0059191864,
blockhash:-0.045833074 -0.028150555 -0.10542937 0.07562332 0.015168184 -0.0069499016 -0.09625756 0.0169793 0.018820066 0.020822758 -0.066178 0.033438455 -0.008300784 -0.0736194 -0.024926133 0.08457367 -0.043901853 -0.016643496 0.0025327199 -0.056819882 -0.09686995 0.12396841 -0.007565759 0.02369592 0.0940815 -0.06702567 -0.07680703 0.114752464 -0.117177285 -0.023288405 -0.10245722 0.10569042 0.020284647 -0.08327461 0.03049947 0.09860075 -0.11873211 -0.09704526 -0.10137074 0.066176236 -0.00981945 0.058374442 -0.04683711 0.06003965 0.11147332 0.11674838 0.011186652 -0.022405274 -0.11577639 -0.029337429 -0.05833482 -0.063288555 0.0660628 0.07943283 0.052164428 -0.05836352 -0.093965165 0.07366377 -0.03446467 0.0031692511 -0.038384847 -0.060518194 -0.07638659 -0.054310452 0.0341235 -0.0039890227 0.020365246 -0.08950699 -0.0035276606 -0.108982466 0.10016665 0.006702946 0.07607457 -0.05955087 0.105119586 0.015740436 -0.056396287 0.023552585 -0.09224956 0.10501858 -0.06769671 -0.083941594 -0.039270546 -0.09571646 0.064228795 0.10815619 0.018135216 0.11550825 0.114063025 -0.0042326488 -0.013633259 -0.098710515 -0.10442421 0.04528426 0.040561326 -0.08234706 0.040161792 0.021233514 0.09645306 0.03990323 -0.06989303 0.06431066 0.08822458 0.022814795 0.023149053 -0.038399413 0.061341 0.0363521 -0.12130433 0.06700335 0.11009766 -0.031316802 -0.12227041 -0.09501727 -0.033778865 0.060732037 -0.046834137 0.033974025 0.047309007 0.09248033 -0.11808418 -0.054526303 -0.090587676 -0.017638719 -0.08073434 -0.117014654 0.11593876 -0.04733591 -0.10007482 -0.07593861 0.032314554 -0.048959833 -0.07703319 -0.05742247 -0.0488232 -0.010762669 -0.09382063 -0.0508599 -0.045978323 -0.040410087 -0.12351419 0.035746112 -0.03780815 0.054968193 0.034849174 0.04772271 -0.109972194 0.016176188 0.031169709 0.118394434 -0.03736788 0.0035319559 -0.031233989 -0.11559927 0.01343471 -0.10465893 0.018464256 0.0017329089 -0.04591514 -0.103999704 0.059366025 0.060504463 -0.056368228 0.12043278 0.07975292 0.0091309445 -0.047677495 0.08967958 -0.061132625 -0.01125985 -0.049658995 0.053457763 -0.09129995 -0.0045042164 -0.07889339 0.067292675 0.09231486 -0.02239438 0.072961815 0.10703315 -0.06587061 -0.09112561 0.026978273 -0.08764222 -0.11569473 -0.043794993 0.11017057 0.0836276 -0.050045956 0.027429262 -0.028377742 0.121421956 -0.09539555 -0.066651374 -0.11311453 -0.045667253 0.075801134 -0.053066075 -0.0396772 0.12179057 0.1156493 -0.07358528 -0.12351408 0.055977 -0.0149083575 0.08729361 0.040823057 0.090523265 -0.11296773 -0.005487683 -0.04461863 0.085656464 0.03083407 -0.01795474 -0.0060301647 0.09667434 -0.06440901 0.049131107 -0.0361051 -0.037427105 -0.059993163 -0.05924601 0.030076245 -0.08795893 -0.101669714 -0.01712941 -0.08109552 -0.06908688 0.09468976 -0.0849983 0.11654787 0.051288042 0.083685756 0.022764115 -0.0744127 0.043717753 0.082056314 -0.0039528473 -0.06797393 -0.05066395 -0.022673676 0.048925944 0.04781466 -0.017416777 -0.038884614 -0.013594245 -0.031996615 -0.0005727267 -0.12142154 0.0048414767 0.02541991 -0.017391125 -0.018527765 -0.11869103 0.088571414 -0.07290573 0.07123638 -0.017863054 0.08331092 0.07904153 0.08258196 0.08160934 0.07777505 0.049927026 0.014200798 0.004882824 0.09107124 0.097839795 -0.02541273 -0.081112 -0.031029213 -0.07931592 -0.02031889 -0.070929214 0.10919487 0.055195514 -0.1013506 0.12457331 -0.07801507 -0.061738435 -0.050567273 0.044968862 -0.046104625 0.09308724 0.116932884 -0.021233216 -0.11023257 0.050835494 -0.04613591 0.113957465 -0.086627044 -0.050664026 0.102685325 0.056125462 -0.09200703 0.093069 0.0037025774 -0.11087522 -0.09231357 0.07122198,
booleanTy:0.037960894 -0.070115305 -0.09418714 -0.105956845 0.05328014 0.111659 0.024378493 -0.097561374 0.113337 0.03609089 -0.11852177 0.06636301 0.04640195 0.039210323 -0.009442255 -0.02256362 -0.01988043 -0.062085595 -0.07108823 0.0098032355 0.0508975 0.04246294 0.09656074 0.08550876 0.05273888 0.1060388 -0.07471174 0.0115081575 0.06848081 -0.07257578 0.12045426 -0.08064681 0.0513558 0.058249567 -0.05724626 0.06715288 -0.11772372 -0.070992336 0.08718397 0.114882894 -0.06735031 -0.043236475 -0.08485485 -0.08139684 -0.11151383 0.11870803 0.088706516 0.056076698 0.049687427 0.06492788 0.10488663 -0.036482416 -0.042565178 -0.068314485 0.022408439 0.019256502 -0.0013096246 -0.12404932 -0.11996151 0.10030474 0.09970385 0.11644535 0.08124505 0.071461715 -0.0154013615 0.035125498 0.064999126 0.028399546 0.105106264 0.06311772 -0.089484446 -0.10476715 0.07847337 0.045268953 0.074711904 -0.050356537 -0.048972018 -0.05608966 0.009324767 0.031636793 -0.022288514 0.097768545 0.016774628 0.0838324 -0.08816812 0.10435928 -0.00840176 0.09455683 -0.05672876 -0.040316287 -0.026472474 -0.026515381 0.060356967 0.024810042 0.08229327 -0.05241703 0.0285526 0.020621996 0.014261586 -0.104218975 -0.03441128 -0.08597221 -0.10079369 0.09501412 -0.111519426 -0.0513587 0.058296993 -0.045776356 -0.043948818 -0.09201403 0.10643872 -0.1242621 0.066776425 -0.09160019 0.051779013 -0.11109921 -0.012898813 0.035836894 0.05545888 0.049320605 0.10760349 -0.021697877 0.10291015 -0.075769566 0.027452908 0.05374583 -0.06716634 -0.10662339 0.05694797 0.039022893 -0.042728696 0.041928366 -0.083122805 0.0059165857 0.07077818 0.015727594 0.045502026 -0.04471351 0.114575244 0.038780976 -0.06685178 -0.044339437 0.0445623 0.11190811 0.0014285247 0.07999988 -0.09644578 -0.075986974 0.00024098069 0.0038980788 -0.02565031 -0.09842746 0.026235951 0.082367554 -0.067663416 0.120020896 -0.007046968 -0.06665335 -0.09508767 -0.107960045 -0.063019805 -0.018100645 -0.038080018 -0.024262255 -0.026223406 0.07596125 0.092496246 -0.09423522 0.022858417 0.09791317 -0.05146608 0.072470814 -0.035756785 -0.09156731 -0.024258628 0.006974365 -0.055680078 0.04199226 0.10832252 -0.118380494 -0.09533359 -0.010312321 -0.11085226 0.046891924 -0.056791913 0.11422964 -0.026124498 -0.04570243 -0.04840708 -0.028149305 -0.044323813 -0.06741018 0.044659544 0.00064044027 0.105891705 -0.04813 -0.10285945 0.0074226926 0.12102294 0.038704243 0.09896441 0.050366644 -0.02854126 0.0522256 -0.12316408 0.10198281 -0.09060217 0.07252639 0.07931219 -0.006176412 -0.12223676 0.008553268 -0.007881632 -0.037806798 0.045792498 -0.04495996 0.06921948 -0.03890988 -0.08097022 0.06516866 0.07683959 -0.021183977 -0.11215673 0.007706046 -0.0743425 -0.05674083 -0.123346336 -0.036834896 0.008339159 -0.008936825 -0.08283006 -0.11372615 0.026232265 0.01974692 0.0656051 0.019028645 0.00065760646 0.03148114 -0.10412338 -0.028013686 0.07993383 0.03241153 0.0017853141 -0.06735411 0.079556234 -0.038613074 -0.0061212275 -0.0015299614 0.07674037 -0.083432645 -0.086657435 0.10447559 0.10274705 0.07511984 -0.087465465 0.078974396 0.08371074 0.11467666 0.08099662 0.015443705 0.06863263 0.03192758 0.024710508 0.07689852 0.04787503 0.017582836 -0.11473646 0.0002607627 -0.05658757 -0.06895099 0.12355104 -0.1064669 0.0017282866 -0.041400984 -0.015039682 -0.10632398 -0.08854835 -0.018334879 0.05030728 -0.11301122 0.11037287 0.02315427 0.11993637 -0.100900486 0.08190936 0.10872845 0.0013574224 -0.09482959 0.0685168 -0.008983003 -0.08180629 -0.104781345 -0.09866688 0.0045806393 -0.055999786 0.04233701 -0.021483218 0.07880632 -0.051946394 -0.12148702,
break:0.06494959 -0.02251426 0.11318154 0.09203374 -0.117802754 0.015208833 0.07132221 0.09560102 -0.08215511 -0.008800075 0.039867084 -0.10137535 -0.030918622 0.0460237 0.006877313 -0.018504847 0.032530744 0.10046347 -0.08257487 -0.0057336725 0.066125475 0.003491277 0.01384435 0.12453719 -0.040714055 0.02538586 -0.046892293 -0.099704504 0.042365946 -0.020798473 0.05795486 -0.07419665 0.07303387 0.0062277173 -0.10633672 0.0011093226 0.0035562858 0.071223274 -0.030202784 -0.114627354 0.11428425 -0.07977244 0.00048288284 -0.06916834 0.031340834 -0.088573344 -0.053344555 -0.038839698 0.019485148 -0.06995814 0.10691759 0.106707744 -0.030788336 -0.059696686 -0.026004452 -0.005863616 0.06952947 0.08759976 -0.087276384 -0.078565516 0.086845964 0.122669764 -0.12088219 -0.030680167 -0.093604304 0.004221918 0.04042752 0.115893975 0.050174575 -0.0766031 -0.07894625 0.032926753 0.042479496 -0.03577398 -0.12415649 0.04460898 -0.07460828 0.05294533 -0.085026056 0.0641181 0.11899132 0.11413395 -0.054377396 0.0019599486 0.064924516 -0.023524925 0.08649472 0.08089304 0.022637574 -0.03713005 -0.002667597 0.09010084 -0.00261592 -0.0975219 -0.035626426 -0.06548355 0.022034796 -0.10632005 -0.011521638 -0.064740025 0.08843049 -0.037032045 -0.035550494 0.074230194 0.07276786 0.09352268 0.010991953 0.095772326 0.10284872 0.026278904 -0.046010025 0.00054555805 0.01446978 -0.01936916 0.013312258 0.1085406 -0.11017643 0.08650146 0.020233221 0.09934633 0.042391095 0.106498346 -0.055692177 0.023503227 -0.04390912 0.028852288 -0.058932662 0.07258377 -0.03728557 -0.08738703 -0.027544059 0.009329508 0.029526213 -0.030519072 0.1020647 0.032268062 0.09125824 -0.1156582 0.067474134 -0.09188525 0.05475933 -0.06325147 -0.08253741 0.0146748675 -0.08839067 -0.07384492 -0.00266134 0.10444784 -0.026944654 0.009324098 -0.1083572 -0.097160235 0.06261542 -0.04469022 -0.107852206 0.03316078 0.06875067 0.06254124 -0.043038934 0.07717826 0.10378518 -0.10776074 -0.08740798 -0.0721682 0.108755976 0.05575219 -0.10988263 -0.03521256 0.021358328 0.09328269 0.11935892 -0.09041034 -0.03590774 -0.023625277 0.093380265 -0.018427473 0.07493218 0.04563521 0.05789862 -0.045711394 0.036183532 -0.116208844 -0.107695386 0.06843737 -0.08179603 -0.10923807 -0.06024609 -0.107629485 -0.11920169 -0.057226952 0.02526925 0.012332997 -0.062272537 -0.10706712 -0.044279214 -0.031430695 -0.024235161 0.050137598 -0.058723252 0.10142615 0.112063706 0.026439479 0.09735132 0.10357957 -0.08675835 0.07001883 0.049162082 -0.12054333 0.031062594 0.110102385 -0.016212974 0.12116376 -0.11126239 0.041142005 -0.0018755294 -0.038424738 0.04191701 0.0011147326 -0.11111657 0.108316846 0.029755928 0.001322347 0.013325575 -0.04617854 -0.01608945 -0.024855744 -0.020580173 0.0038168405 0.03011123 0.045425188 0.09250533 0.0010042745 -0.09783303 -0.102289066 -0.03611894 -0.116446905 0.058683448 -0.1229437 -0.07760265 0.0809176 -0.011816629 -0.079560384 -0.0694007 -0.08923256 -0.07005976 -0.10265903 -0.022426052 0.104747854 -0.079156905 -0.11138827 0.03749393 -0.07523239 0.12108382 0.018699441 -0.092449814 -0.10138306 0.08859493 0.04712 0.112292215 0.0067312294 -0.1055074 0.016182862 0.103557415 0.016076313 -0.09031464 0.06211791 -0.04692425 -0.053558975 -0.06481719 0.04685184 -0.03496879 0.09786454 0.01789116 0.06167682 0.082766786 -0.03372157 -0.077100486 -0.12294935 -0.115490295 0.047650922 0.059980903 0.0706406 -0.020527856 0.1226527 -0.043833487 0.072141565 -0.0285213 0.04013534 0.046677306 0.11600891 -0.022587191 0.032576993 -0.012539928 0.019864202 -0.046485327 -0.012398793 0.008055805 -0.08584053 0.11924271 0.10045148,
byte:-0.0088858325 0.100561224 0.033943247 0.060405985 0.0788854 -0.11567883 0.036349576 0.0052382606 -0.06338086 -0.032023694 0.12347604 0.047069382 0.114934176 0.041031517 0.016689986 -0.0061339648 0.09373035 0.0125650605 -0.11594986 -0.02777043 -0.07306931 -0.0047717267 -0.06789443 0.01210792 0.102442786 0.027949836 0.06400372 0.0063184975 0.04167319 0.1096315 -0.061292622 0.10085913 -0.039006915 0.03562073 -0.08401515 -0.058546238 0.050999787 -0.005936695 0.028118199 -0.036268603 -0.11032654 0.10472834 0.023017237 -0.020024747 -0.08671907 0.023319006 0.012615683 -0.06831768 0.03230586 0.110323675 -0.113838494 -0.011098621 0.121442795 0.08241293 -0.06983996 -0.10065624 0.048920386 -0.05250558 -0.06459369 -0.09831087 -0.099046536 0.0005861327 0.0628477 -0.05490268 0.07878169 -0.06395182 -0.032808166 -0.107932046 0.026757639 0.024519004 0.09524204 -0.08604845 -0.032018937 0.12166806 -0.020724146 0.036837377 0.10866112 -0.024818083 0.049238846 0.04796296 0.11219064 -0.0077525214 -0.02954118 0.07672885 0.11507055 0.116184674 0.01170519 0.10904257 -0.102695435 0.047463045 -0.04683564 -0.08224572 0.030759415 -0.029593242 -0.10172106 -0.063351914 -0.053199988 -0.10887281 -0.022242663 0.03835252 0.065538585 0.049943984 0.119211614 0.048308246 0.119913794 0.045048274 0.055994645 -0.06705655 -0.0024037429 -0.08447208 0.0010378043 -0.07463643 -0.043361127 0.015664175 -0.058349326 0.11425768 -0.012311818 0.0033719016 0.12377032 0.100408494 0.039939154 0.122966245 -0.049018882 0.029770523 0.00077891425 0.06759049 -0.10250137 -0.050666213 -0.015102477 0.06460918 0.02328185 -0.046932884 -0.06449102 -0.007469346 -0.03216771 0.093346246 0.107740365 -0.090061635 -0.039626222 -0.09252324 -0.014648799 -0.10918281 0.11041233 0.050842986 -0.02042092 -0.096743815 0.034629595 0.020440748 -0.11518043 0.063945055 -0.026115194 -0.01757374 0.110821985 -0.04234502 -0.041299965 -0.08076041 0.08585215 0.10540774 -0.0709343 -0.047370005 0.12399284 0.0055028284 -0.05985922 -0.04945951 0.008664128 0.12088482 0.103598565 -0.1229975 0.083465725 0.07405871 -0.049058475 -0.065257005 0.101597406 -0.049111206 0.10304946 0.030833267 -0.04994789 0.027919516 0.08641552 0.054040045 -0.013439511 0.0027948201 6.569228e-05 0.057413448 0.060863186 -0.000757973 0.009027531 0.0029984068 -0.0014713139 -0.07337095 -0.086492956 -0.019808868 0.029176781 0.11541603 0.02957245 -0.076037325 -0.10835905 0.07316573 -0.061959203 0.098996975 -0.009386936 -0.054294534 -0.06735051 -0.014404341 0.0604694 -0.10533132 0.08154115 0.09497067 -0.04473765 -0.114318684 -0.019487467 -0.053214803 -0.116420545 -0.06460975 -0.10370005 0.12270294 -0.004602502 0.057560585 0.0529577 -0.066758364 -0.007473091 -0.094020456 0.061102677 -0.093125224 0.034921065 -0.07828736 -0.07631624 -0.06964289 -0.08789315 0.11858589 0.0796694 -0.024117984 -0.097787164 -0.007218571 0.00546646 0.0490964 -0.036928322 -0.102096535 0.03031015 0.106750965 -0.09422545 0.12164807 -0.09808638 -0.007767384 0.04992661 -0.11740142 0.008840813 -0.08196316 -0.006434975 0.10547896 -0.11376917 0.052247226 -0.08150008 0.0032487062 -0.11823089 0.054689597 -0.11305992 0.120532624 0.048069302 0.070846446 -0.122657314 0.037335537 0.07611507 -0.055680092 -0.011485939 0.025612915 0.09102297 -0.08620121 -0.11717694 -0.08845757 -0.059073605 -0.066282794 -0.01031241 -0.11828301 0.02920267 0.10118236 0.04771159 0.08178322 0.07677048 -0.0060369573 0.043112207 0.09220415 0.0007834919 -0.03513748 0.004669235 -0.041936614 0.1165815 0.034940343 0.09815524 0.010942655 -0.108764045 -0.05582093 -0.12202126 -0.06320443 -0.063514315 0.08908822 0.029711949 0.02301364 0.037190557 0.018369894,
call:0.08244102 -0.10461042 0.08844584 0.08653503 -0.048296876 0.10631463 -0.04059585 0.004894595 0.11153153 -0.08801227 -0.025682174 0.088306196 0.10022352 -0.09523626 0.040040426 -0.021788614 0.0941715 0.11211331 -0.012141612 -0.012821394 0.019045142 0.03888369 0.05417082 0.038386542 -0.0030400068 -0.033937436 -0.0022176197 0.040849093 0.08800483 0.12152851 -0.11052044 -0.095525995 0.02070655 0.05593461 0.0931522 -0.11065267 -0.0018924578 -0.014662116 -0.09306346 -0.035044618 0.11578446 0.111305 0.070708685 -0.061811235 -0.055798072 0.011045205 -0.069480166 -0.076192446 0.014500842 -0.037921507 0.017353998 -0.07214464 -0.08150407 0.05427712 0.07630007 -0.101723514 -0.017938688 -0.08209426 -0.025235213 -0.109969445 -0.032460116 -0.120462 -0.05588744 0.0070468793 -0.089182995 -0.0024432475 -0.080823906 -0.056322303 -0.105448045 0.038113028 0.08725775 0.11867077 -0.070553645 0.10079907 0.030529758 0.046522677 0.12255302 0.09816631 -0.07501202 -0.027519597 0.010940975 -0.00011458993 0.10089514 -0.009138792 -0.081166126 -0.034114387 0.019616844 0.005858919 -0.017638778 0.0848826 -0.09551501 -0.039952468 0.034965802 -0.08163621 0.06878597 -0.008295107 -0.080273956 0.11284602 -0.08641824 0.06387604 -0.016729683 0.075379066 0.108808175 0.09506443 0.06741199 0.041883644 -0.009340105 -0.052132964 0.11430946 0.11230642 0.05975209 -0.058832325 -0.069768295 0.059420317 0.0760425 -0.09719439 -0.06842013 -0.039819032 -0.105309315 -0.056361303 -0.05663204 0.028370518 0.014746297 -0.097934484 -0.058050975 0.09257163 0.121824235 0.10741148 -0.10837487 -0.10776991 0.03911516 0.036644373 0.10774616 0.06526675 -0.021752572 0.075046755 -0.012815806 -0.09538314 -0.021525428 -0.10835687 0.016111849 -0.03982024 0.10690133 0.08626759 -0.035502903 -0.11223979 0.011205022 -0.055166744 0.01607719 0.075268805 0.10616336 0.088888004 -0.060126554 -0.009143191 -0.09758184 -0.09785584 -0.043474987 0.097928494 0.03669767 -0.11027757 -0.009553842 -0.02255522 0.006440043 -0.109814696 -0.0740098 0.05194519 -0.10011404 0.09018272 -0.09650004 0.10190793 -0.08461494 -0.11158956 0.058934238 0.07497488 -0.051469725 -0.040328134 -0.11481457 0.04928691 -0.11364669 0.0028680775 -0.07891689 -0.038735796 -0.11718849 -0.1205625 0.051025677 -0.011028441 0.013785658 -0.10482089 0.0032332344 -0.025282878 -0.0075936858 -0.09240771 -0.09217447 -0.08867123 0.051538803 0.10516843 -0.031725924 0.004584221 0.08431617 0.111451976 0.012615117 0.012532259 0.016153345 -0.104084395 0.11281851 -0.018141398 -0.016513612 -0.024551256 -0.043405328 0.09049602 -0.07172826 0.041289307 -0.008139556 0.09579923 0.10573657 0.073598884 0.035895497 0.04841964 0.034358222 -0.102167696 -0.016365195 -0.10131135 -0.030085385 0.025133004 0.11738349 -0.039288457 0.10550404 0.005443794 0.11211678 0.047755316 -0.08878527 -0.050854474 0.09585557 -0.097825095 0.11989058 -0.08141903 -0.019113392 0.0038635086 -0.11029447 -0.12113167 -0.096314974 -0.10522848 -0.07262432 0.112036146 -0.10815323 -0.10541453 -0.090703145 -0.06706043 -0.09507519 0.11379496 0.0031379508 0.033985067 0.08585199 0.09913883 0.023965465 0.040889088 0.09124151 0.04014415 0.12068626 0.07922718 0.11640032 0.05464254 0.016763614 -0.049242903 -0.03501058 -0.025534455 0.017273087 -0.0924619 -0.112287305 -0.042135473 -0.03964636 0.07882965 -0.118979715 0.016776945 -0.10599869 -0.009505777 0.083453216 -0.04138936 -0.0026405028 -0.0896765 0.038120233 0.08070264 -0.038569633 -0.068307 0.05617965 -0.081406094 -0.047345735 -0.030979885 0.006681529 0.026693137 0.0061050868 0.02784281 -0.042087767 -0.008494725 0.099657044 0.048645608 0.11270235 0.08989788 -0.006015124 0.042244818,
calldatacopy:0.05941757 0.09276077 -0.047056362 -0.113558814 0.10903298 0.118581265 0.062085327 0.1204314 -0.11563467 0.025471915 -0.11503924 0.061136194 -0.05429467 -0.04503879 -0.07089927 0.028824687 0.10863865 -0.08552664 0.0125235645 -0.057865314 -0.11006828 0.023451786 0.025413297 0.09924579 0.022311803 0.08984351 0.08582867 0.11361544 0.08444032 -0.010717443 -0.11821088 -0.08910664 0.093895465 0.10155036 -0.080292776 -0.056990832 0.070679985 0.05659204 0.10854514 0.09937457 0.0056889066 0.069805585 -0.059265405 0.045831796 -0.02287056 -0.011468088 0.035665482 -0.106000334 0.04856461 -0.057834577 0.00771804 -0.098277286 -0.11952975 -0.0077915057 0.019896155 0.09384545 0.072254345 -0.06436711 0.10906559 -0.026513122 0.081475385 0.119637504 0.02520479 -0.045823384 -0.03216175 0.06793668 0.044147503 -0.05132309 0.06302052 -0.11900762 -0.018520482 0.018167617 -0.049840316 0.008684802 -0.077207886 -0.07264566 -0.007089475 -0.021614619 -0.0056768088 -0.009964211 0.0901333 -0.0032188178 0.052517083 -0.06585213 -0.12224727 -0.11792901 0.04775224 -0.08180938 0.044313084 0.012413641 0.00016313087 -0.11993065 0.09459871 0.12108055 0.114217624 -0.0077182334 0.095316306 0.08770695 0.105251014 0.082362644 0.035054456 -0.10277315 0.0994131 -0.051640093 -0.048718717 0.04294759 -0.020984715 0.04595364 -0.112924315 0.057411365 -0.017262297 -0.012314939 0.09336002 -0.122649565 -0.026753508 0.11974004 0.030476104 0.10686169 0.09572628 0.11434212 -0.056743786 0.039722577 0.038859155 -0.04979729 0.122493975 0.037580576 0.124002695 0.021293513 -0.077636234 -0.021073282 0.025882922 -0.11747205 -0.01655062 -0.046917174 -0.121597715 0.09437183 -0.027117833 0.11455264 0.06491394 0.0479228 -0.11476761 0.10292605 0.046666294 0.08527569 0.085954204 0.056852613 0.107407235 -0.06564331 0.044416185 0.011586201 -0.005060208 -0.12156998 0.0058410396 -0.0130958455 0.110199824 -0.10039161 0.08653555 -0.08942978 -0.054922 0.036163747 0.121124126 -0.059427556 0.094548434 0.021981498 -0.06002397 0.12281087 0.06379692 -0.10211859 -0.08058181 0.117039464 0.10503793 0.07483085 -0.047522403 -0.095047705 0.050384372 0.07946601 0.011356441 0.0704608 -0.01865087 0.09489222 0.0053533115 0.06470587 -0.012049406 -0.025124354 0.07374763 0.073700555 -0.06296693 -0.013902672 -0.04438328 0.0569462 0.026079716 0.1224175 0.030947797 0.061207578 0.016009178 -0.030102253 -0.016402174 0.028163647 -0.108421184 0.0934059 -0.09304629 -0.04246434 -0.01965993 -0.04494935 0.06195696 -0.0662221 0.0027977927 0.063695714 0.005574198 0.043516245 0.0048424425 -0.020543387 -0.117984645 -0.031015288 0.041374277 0.010801595 0.03484668 -0.057597417 -0.043068394 -0.1051704 0.0034578661 0.024620472 -0.04678191 -0.09269828 -0.032580934 0.04031779 -0.035748355 0.09658461 -0.11444463 0.10487254 0.061520644 -0.091906145 0.1237272 -0.038596682 -0.054581933 -0.06641934 0.123223275 -0.09876534 -0.054217145 0.037753828 -0.0008506556 -0.079688795 0.013490905 -0.08880539 -0.01890001 0.009790543 -0.11242925 0.070622355 -0.0586804 -0.10734747 -0.050626796 -0.060680598 -0.09208692 -0.106143355 0.07987661 -0.04440782 0.12015718 -0.11686764 0.07803788 0.013178332 -0.120986916 0.10597446 0.08773706 0.08876671 -0.073360205 -0.01872447 -0.07530362 0.11611154 -0.024889393 0.06575689 -0.022043506 0.057286654 0.06105959 0.05651715 -0.1065211 -0.05007589 -0.10008676 0.016940821 -0.026375005 -0.055945672 -0.023124976 0.060405523 0.053137016 -0.07975519 0.050813753 -0.022014331 -0.09688086 0.03406864 0.07412174 -0.010729452 -0.053634744 -0.044206414 -0.07496097 0.08970367 0.020139262 0.023972318 0.046553757 -0.11318835 0.12237691 -0.047525868,
calldataload:0.11210154 0.10284107 0.08928786 0.07339373 0.089446016 0.010715377 -0.031479668 -0.039921988 0.054277964 -0.041892666 0.08407574 -0.09118093 -0.008962419 -0.10368693 0.07527601 -0.019298043 -0.069415815 -0.054033507 0.07545344 -0.0514636 -0.122873455 -0.004116424 0.030373048 -0.07127235 0.010149889 -0.044751275 0.028896028 0.00554639 0.065249555 0.109913036 0.057676468 0.0125319315 0.08837377 0.077035956 0.024924304 0.041478537 -0.040457956 0.111719444 0.026111225 -0.015320822 -0.054192044 -0.10207094 -0.02765153 -0.06377102 0.12087717 -0.07553906 0.057137005 -0.006466543 0.021772815 -0.08293793 0.03553749 0.11062775 0.07403336 -0.10082982 0.035668068 -0.12350152 0.02633498 -0.117887974 -0.031645026 0.02566312 0.018027522 0.07249255 0.09647014 -0.0790717 0.10366697 -0.032173984 -0.00089235976 -0.0705573 0.06100585 0.04778776 0.08415157 0.05587748 -0.0015722451 -0.09283266 0.11870794 0.11526959 0.1069752 -0.03727783 -0.10108426 -0.047589242 -0.012933026 0.097185545 -0.0871133 0.004149151 -0.033176832 -0.09341398 -0.06923601 0.097115025 -0.055063877 -0.119959064 0.032008562 -0.059473794 0.08284577 0.025552409 -0.121163465 -0.059333906 -0.08177493 0.028341997 0.12093629 0.067262635 -0.06460388 -0.07355095 0.09410196 -0.052444734 0.10204568 -0.0959985 0.030689709 -0.111545324 0.0424465 -0.07473927 -0.063101776 -0.030364696 0.06447324 -0.0013521314 0.0006155456 -0.004013516 -0.111989275 0.05041557 0.07205477 0.007593374 -0.042862784 0.121834286 -0.097957134 0.08943992 -0.077980034 0.04414188 -0.024719069 -0.035527322 -0.11903163 -0.096453734 -0.093325295 0.09185114 -0.09772413 0.0486428 -0.04603287 0.11543144 -0.100690834 0.096739076 -0.026537362 0.06430864 -0.026597273 0.116476156 -0.092934705 0.048628874 0.11043514 0.11549593 0.018456217 0.00841148 0.09047468 0.08668752 -0.003596459 -0.11887216 0.09867116 0.06720395 0.06885542 -0.062468007 -0.08161978 -0.06163859 -0.082930945 -0.04651085 -0.015805533 -0.086708546 -0.06423598 -0.11738797 0.09048825 -0.052622356 -0.11528998 -0.11020828 -0.04177063 0.0037273532 0.08472478 0.06201852 0.023719298 0.0069693266 -0.10592173 0.09622057 0.08708125 0.10239017 -0.047093444 0.06698185 0.046160925 -0.08238613 0.08346559 0.088388026 -0.015254238 -0.10289919 0.041859314 -0.123678856 0.045791976 -0.052667283 -0.045054767 0.10992631 0.09654793 -0.06622823 0.068490446 0.069511026 -0.0403055 -0.058559913 0.09427264 -0.04768274 0.0008097688 -0.05115495 0.12170751 -0.07825119 -0.049512867 -0.050124116 0.119486205 0.05050372 -0.07869539 0.1111452 0.06801306 0.06111075 0.01921346 0.026567116 0.10978101 -0.04632098 0.012491774 -0.05486096 -0.12375559 0.11211251 0.11487145 -0.10357766 -0.034673292 0.0591051 0.05117017 -0.11656517 0.12198439 0.04144777 0.016528282 -0.0888522 -0.016449956 -0.106658176 -0.063913874 -0.07098626 -0.053425226 -0.017418308 -0.0041740905 0.091037475 -0.024211455 -0.012292616 0.04394748 -0.041476205 -0.10190511 -0.10679894 -0.03569906 0.06820439 -0.09621047 -0.07281346 0.020408897 0.079743445 0.08280723 0.06007501 -0.07332776 -0.09720873 -0.1210786 0.05826599 -0.029449403 -0.009112114 -0.08467992 -0.030231379 -0.048899103 0.11898926 -0.08660208 -0.07594075 0.0070755044 0.009605772 -0.11276105 0.061003752 -0.08986414 -0.03983522 0.05441146 -0.025763115 0.09885648 -0.027476301 -0.051191617 -0.025578434 -0.12132349 0.122917704 0.09898643 -0.07513468 0.09226124 -0.037651755 -0.0960624 -0.03697976 -0.12268769 0.042612072 -0.11013767 0.10337476 0.03248788 -0.073116995 -0.1027917 -0.06857813 -0.07131598 0.060420506 -0.11929165 -0.085305974 0.022757886 0.08058759 -0.049671076 0.03265993,
calldatasize:0.097720906 -0.015123879 0.1220258 -0.015628356 -0.08069038 -0.009105871 0.05526231 0.044679012 0.054900732 0.04558738 -0.07202548 -0.09498395 -0.0858819 -0.07560361 -0.08344938 -0.016002966 0.07537112 0.089789025 -0.061364453 -0.07470816 0.111910634 0.060841974 0.05683999 0.0021705206 0.037924375 0.04632774 -0.09242479 0.07073484 -0.007092195 -0.019644666 0.0498642 0.09906101 -0.09361878 -0.04383543 0.067099966 0.0012140884 0.041005045 -0.08757085 -0.0939152 0.037359156 0.003721215 0.023160273 0.07580925 -0.058656458 0.050455686 0.09238555 -0.09614908 -0.008784425 0.116707906 -0.11595753 0.022668801 0.08812807 -0.0047458364 -0.1225529 -0.10860992 0.023934625 0.10357275 0.08912772 0.008182315 -0.00089606055 -0.07971107 -0.087462 0.08814244 -0.034909964 0.060455833 0.009776379 0.0012311952 -0.06021332 0.06623936 -0.09187006 0.004491955 -0.09077897 -0.00036123322 -0.024800634 -0.085718006 0.11288832 -0.08539656 -0.1080351 -0.026879141 0.0071295593 0.09809488 -0.04162783 0.08975296 -0.010154095 0.02655994 0.051403303 -0.122877024 0.019104296 0.015625697 -0.034354966 0.10991172 0.11178417 -0.11175106 0.024373932 -0.08452065 -0.0061261174 -0.04407228 -0.07339881 -0.114545606 -0.02926212 -0.09860909 0.08726455 -0.08411333 -0.097072564 -0.015414931 -0.1167949 0.05909511 -0.07089564 -0.005228585 -0.077319086 -0.0011819557 0.0019044965 -0.1114574 -0.049551286 0.12132522 -0.09892358 -0.093544155 -0.0014452748 -0.023465952 0.00090850046 -0.051959813 0.044099048 -0.05906833 0.114701025 0.083697505 0.11528337 0.080430344 0.020914564 -0.0075375796 -0.12003017 0.010721099 0.0018246254 -0.0067844964 0.07093453 -0.12149059 -0.12168904 0.11242224 0.0902504 -0.10363549 -0.102016054 -0.044868957 -0.0028204727 0.102625385 0.027878465 -0.087079994 -0.055226073 -0.06637092 0.036554705 0.10096858 -0.07709911 -0.021312106 0.118763484 0.023650425 0.032042865 0.03956771 0.034088377 0.099336475 0.0797328 -0.08330703 -0.096360125 0.053878803 0.10073042 0.026958477 -0.07355009 -0.1197473 -0.119895086 -0.05923073 -0.008218119 -0.056017548 -0.1218751 0.059935227 -0.011717407 -0.11758924 0.08404645 -0.044621587 0.10048443 0.025161495 0.09453112 0.03670482 -0.016941875 -0.10385952 0.010989397 -0.023515487 -0.116026714 -0.003652892 -0.05908236 -0.03746991 0.019171 0.114118844 0.03852497 0.11211618 -0.109734096 -0.1147474 -0.09667309 -0.039730527 -0.09372325 0.09019303 0.11037235 0.09442714 -0.011885755 -0.09956799 0.070734754 -0.05273971 0.063339844 0.09766022 0.03636539 -0.11543022 0.05865435 0.1142745 0.032898903 0.06553353 -0.036438096 0.06360389 -0.11524365 0.04685447 -0.08020369 0.08182335 0.10194974 -0.032241073 -0.10863189 0.08130398 0.0954368 0.0811691 0.016522173 0.050114576 0.017392656 0.0848998 -0.09276291 -0.085196555 -0.06526989 0.034260515 -0.117005706 0.09652923 -0.05353301 -0.11793842 -0.11605553 0.09600234 0.115910925 0.023057306 -0.11107601 -0.05641742 0.017896198 0.012599021 -0.07874394 0.094115354 -0.018583171 0.05148909 -0.08393466 0.11262816 0.11441183 -0.03436442 0.0918787 -0.099990994 0.08073055 -0.11850722 -0.10762869 -0.107610926 0.07393235 -0.092300326 0.015343948 -0.08351051 0.1074851 -0.12146076 0.076373875 0.0070272163 -0.00441733 0.11606524 0.010751017 0.062065814 -0.0024304956 -0.042836968 -0.0460944 0.11024768 0.092297934 0.0503604 -0.08155836 0.11120684 -0.068882816 0.029041026 -0.045066256 -0.04730623 -0.07568229 0.109088585 -0.012682549 -0.11889549 -0.09716346 0.049864423 0.040615425 -0.07993413 0.10429846 -0.018666416 -0.09316998 -0.09166619 0.04165359 -0.011317665 0.083332635 0.0778152 0.07339657 0.073675275 -0.028510613,
caller:-0.08617085 -0.1093685 -0.00913683 0.06783388 -0.09839177 -0.018173888 -0.017949523 -0.031363696 -0.066132866 -0.014041175 -0.058273867 0.06751478 0.09618071 0.08179909 -0.062325627 0.06563907 0.1048967 -0.02808012 0.05418234 -0.009684409 0.041264176 0.10541029 -0.029509611 -0.111592636 0.005950041 -0.05642848 0.08110598 0.012126364 -0.10659804 -0.058684625 -0.10587657 -0.058275085 -0.025192186 0.051080562 -0.06962829 0.039933417 0.077592425 0.015948376 -0.07568 0.122278154 0.07343981 -0.035587337 0.042910032 0.041953556 0.06203157 0.061616965 -0.01481459 -0.06366717 0.08135084 -0.10560094 0.048735645 -0.095395 0.0828119 -0.008853506 0.08974093 -0.062241104 -0.101965785 -0.08713495 0.00922761 0.0009812375 0.011171062 -0.078012004 0.11514106 -0.044466704 -0.04497665 0.11200401 -0.058921218 -0.0929766 -0.09626633 -0.028817004 -0.058490608 -0.019117925 -0.03764502 0.003510108 0.048434623 0.070380956 -0.07412913 -0.11628244 -0.097506054 -0.0029302621 0.050590858 -0.101920635 0.116727024 -0.06593648 0.085099906 -0.088393256 -0.11657809 -0.008216172 0.037963167 0.027717847 -0.113964975 0.020160634 -0.07690151 0.017885763 -0.099138506 0.09405483 -0.035252202 -0.01996421 -0.017453993 0.10959136 -0.105896816 0.11221974 0.11606184 -0.03187975 0.09696591 -0.07666674 -0.11008069 -0.07771019 0.12237311 0.06972855 -0.03311851 -0.10484959 0.034560665 0.016407747 -0.113588475 0.053571653 0.040198326 -0.1016303 0.045279134 0.085968606 0.11234383 0.111993894 -0.11166647 0.09569625 -0.09328012 -0.070384614 0.060714573 -0.06868873 0.11144325 -0.003492377 0.09911248 -0.01933419 0.0404704 -0.11523014 0.03862996 0.07946251 0.105109595 -0.082745746 0.04364833 -0.10214215 -0.096806936 -0.012360418 -0.012314746 -0.12114225 -0.061763808 0.10043513 0.11468172 -0.009604657 -0.05526742 0.0988707 0.1089473 -0.052925564 0.06757515 0.078111686 -0.123564 0.107842214 -0.025596699 0.021509422 -0.027951946 0.10710367 0.08352344 0.034957998 -0.058431722 -0.04893776 -0.10712956 -0.09402689 -0.006894182 0.055935312 -0.109614275 0.100916944 0.012421726 0.07141998 0.015079083 -0.10679069 -0.06840166 -0.047891915 0.070506796 -0.023426432 0.024943434 0.12360236 0.05785219 -0.01709762 0.012335242 0.043819588 0.049643375 0.12389849 -0.029587356 -0.09547621 0.05292793 -0.071925156 -0.11126037 -0.043399174 0.0605595 0.090592995 0.029452821 -0.0148530835 -0.09915502 -0.08231394 -0.013006254 -0.0748373 0.016230378 0.10908467 0.029969085 0.11137603 -0.033348016 0.068013355 0.02835527 -0.12449959 0.03552878 -0.03359295 0.007875643 0.042702418 0.015332073 -0.01825584 -0.008351242 -0.05408334 0.1027781 -0.051792715 0.03915975 0.029986355 0.09814498 0.038626943 -0.040288452 0.020876264 0.013085754 -0.11694201 -0.040135354 -0.11117772 0.0028160587 -0.07991622 -0.058645446 -0.07487997 0.078518234 -0.0039452226 -0.08027552 0.05899635 -0.08171583 0.03232564 0.01422333 0.0636786 0.10489728 0.0084910095 -0.016602878 -0.030648911 0.04126361 0.042903345 0.098694876 0.05807783 0.08602018 -0.045350917 0.0956527 -0.08134838 0.008235939 0.09698291 -0.007759462 -0.016809301 -0.07510196 0.108820215 -0.083773844 0.005305766 -0.013059045 0.100187965 -0.005098256 0.08430852 0.049219288 -0.03871359 0.08840764 0.10268311 -0.012382163 -0.027237372 0.10136506 -0.011469931 -0.092589684 0.025817497 0.099911846 0.048132274 -0.065371856 0.059498537 0.112574436 -0.025468837 -0.11812416 -0.021546533 -0.11088897 -0.10423996 -0.0005315873 -0.048709385 -0.06761115 -0.026297467 -0.07833223 -0.072973646 -0.004790929 -0.10332951 0.0551524 -0.10717305 -0.052680332 -0.0019154353 0.08701081 0.07338989 -0.013164243 -0.073931135,
callvalue:0.013496702 0.090234324 -0.07806435 0.08923693 0.04893421 -0.09576818 -0.069646254 0.11434303 -0.08917708 0.07482923 0.037044678 -0.057833225 0.03322736 0.035509128 -0.014283687 -0.036287777 -0.08379249 -0.082967594 -0.027517902 -0.029761456 0.011130294 0.09089096 0.06917693 0.099375285 -0.11915417 0.059320368 -0.056098174 -0.053571682 0.009765277 -0.010510973 0.078880645 -0.009696701 0.104907155 -0.100532465 0.08294887 -0.09073658 -0.055780683 -0.012447647 0.03695204 0.036673695 0.0810182 0.109405056 -0.07681825 0.11954561 -0.061118197 0.053104986 -0.095964335 -0.09134195 0.08487487 0.108739346 -0.001621455 -0.026977174 -0.021852894 0.065218076 0.005417607 -0.030361263 -0.077612944 -0.06228978 -0.085148744 -0.054066338 0.117062606 -0.07311533 0.1105138 0.01779852 0.05117534 -0.066262335 0.066973485 0.05195503 0.022931317 -0.040211745 -0.045118913 0.046370085 -0.00963621 0.08435712 0.07112494 0.05132453 -0.010671755 0.0029700045 0.053117186 0.055833906 -0.040271122 -0.06049883 0.099978 -0.064836 0.10025068 0.014888887 -0.03788505 0.007974761 -0.112538666 -0.0136679625 -0.121957466 -0.027298294 -0.042101827 -0.03775713 -0.025026262 -0.088988945 0.070901826 0.034209494 -0.03168101 -0.0041136 0.10449164 -0.10282343 -0.11119381 0.024715621 -0.09592378 -0.10758012 -0.073828846 -0.023270836 0.056886587 -0.11086376 -0.11671376 -0.100050755 -0.08212904 0.11995895 -0.079467595 -0.0064041945 -0.07010249 0.047926337 0.10728801 -0.023616984 -0.0851042 0.019415041 -0.05873272 -0.051418923 0.059619356 -0.091291904 0.11993471 0.11358788 0.07412992 -0.11885281 0.0820567 0.119187824 0.070160545 0.047751065 0.06653317 -0.106731184 0.032883074 -0.1110996 0.094480224 -0.07006324 -0.06619386 -0.06736999 -0.009122666 -0.046852045 -0.11036291 -0.011237274 0.059243586 0.05081943 0.088149056 0.10630949 -0.11810882 -0.08653279 -0.04505444 0.102597415 -0.12276627 0.08934429 0.0046953633 -0.0031955133 0.061953586 -0.055555947 0.03167313 -0.12381467 -0.0961495 -0.09719101 0.10881455 0.0002133067 -0.09842793 0.022462435 0.10850456 0.06787414 -0.06569744 -0.008943707 0.10883556 -0.12045464 -0.060688507 -0.011146717 0.02081894 0.0352555 0.05284051 0.07704869 -0.05139944 -0.11868025 0.10663479 -0.036188927 -0.06867315 -0.049249236 0.020713072 -0.07403409 0.041856937 -0.08485933 0.095017165 -0.073269516 0.08725482 0.042479392 0.117575996 -0.052950326 -0.017348468 0.08859081 -0.010407827 -0.059980635 0.045758955 -0.119071506 -0.059582707 0.12204092 -0.105521 0.022878287 -0.08571679 0.06687991 0.056049485 -0.0038076108 -0.091873445 0.02407961 -0.03347704 0.053988025 0.044987097 -0.0059677274 0.017518006 0.022943994 0.089849085 0.10408298 0.031387266 0.100815445 0.052313644 0.06389049 -0.09796519 0.027310628 0.110471256 0.072051845 0.07362364 0.017175604 -0.032271825 -0.0076232026 -0.08412892 -0.12324503 -0.08043112 0.0022070229 0.07517508 0.063420504 0.07121645 -0.047524247 -0.12219394 -0.013739258 0.06368501 -0.018308185 -0.033029083 0.036903694 0.049358636 -0.08282541 -0.06660627 -0.0235997 0.09426226 -0.12180263 -0.012960909 0.029829884 -0.11808939 0.0617154 -0.063620165 0.040021133 -0.12401255 -0.10702731 -0.026804188 -0.059157964 0.084263235 -0.051900186 0.027097724 0.054629818 -0.013703559 0.014361075 0.014891102 0.06992312 -0.045996577 -0.022512313 0.08867151 0.09082656 0.06502778 0.109947845 0.09364128 -0.09925133 0.12437903 0.029665697 0.07176626 0.034222793 -0.018326527 -0.053747952 -0.06921596 -0.033706874 -0.07037758 -0.03402936 -0.089981034 0.027230907 0.034539737 -0.030356506 0.12190123 0.035814196 0.03405635 -0.09669448 -0.07236137 -0.0047867526 -0.02820666 0.099902846,
chainid:0.08505283 0.049674183 -0.106775634 -0.11835231 0.07616431 0.07514042 0.089033194 0.03896854 -0.119439 0.060438205 0.0017257599 -0.10668737 0.09595758 -0.11837236 0.102734014 -0.027777327 0.059218913 -0.086854614 0.087070525 0.008173829 0.044093728 0.054484643 0.03967766 0.10529769 -0.10018441 0.015012276 0.09364268 0.063682824 -0.06282331 -0.07410616 0.072449505 -0.0057985326 -0.014557335 -0.07008928 -0.11826275 0.11533707 -0.007211199 0.023581402 -0.023712952 0.067189336 0.020773163 0.09371916 -0.003365139 0.077079795 -0.0043895966 0.10867197 0.044977512 0.03861098 0.03108807 -0.007514781 -0.08349236 -0.065029666 0.07030863 0.08749975 -0.07628751 0.06305286 0.028055152 -0.07232509 0.07359946 0.019436028 0.082410194 -0.033603907 0.08369862 0.025714783 0.0400335 -0.017483925 -0.029473703 -0.030686766 -0.022544773 -0.010051483 -0.11276057 0.11874421 0.03386874 -0.048469324 -0.039739057 0.06841558 -0.063208885 -0.0018490741 -0.023334492 -0.12162383 -0.027666021 -0.10660198 0.028772475 0.11017649 0.08797641 0.052863203 0.06728013 0.12024845 -0.09678304 -0.08001324 0.10153693 0.12312004 0.08183739 0.01043293 -0.024429131 -0.003180963 -0.0883523 0.0289369 -0.09118851 0.09916925 -0.08140046 -0.105071574 -0.044902604 -0.008525431 -0.119870454 0.023722611 -0.09975333 -0.034785282 0.012872922 -0.0074099703 -0.0013379526 -0.102786556 -0.08036134 0.08748281 0.10138602 0.017722692 -0.0782341 0.02680731 -0.05170385 -0.064873606 -0.026392795 -0.064971656 0.11672151 -0.07423314 -0.010989456 0.063940525 -0.04290599 -0.017843733 -0.06827407 -0.06950939 -0.09533313 0.09214323 0.03319651 -0.09914312 0.026937878 0.016581459 -0.077025905 0.08312047 0.037003346 -0.057747602 0.048228376 -0.041229725 -0.032952942 0.0063361838 0.03479402 0.012141152 0.048449915 -0.08476612 0.09907286 -0.021011958 0.026599994 -0.06150587 0.0853799 -0.07632495 0.08353778 -0.10042756 -0.029523315 0.09487226 -0.063315704 0.11722463 0.07666516 0.012447899 -0.06762167 -0.081265524 0.10653601 -0.11152736 -0.026113365 -0.0812012 0.04667163 -0.09413139 -0.10139736 -0.018170068 -0.0074228263 0.04555581 -0.03018486 0.06195607 0.0017265031 0.03525727 0.09222673 0.04607071 0.041774612 0.081113264 -0.060629856 0.082040876 0.10700287 -0.0144063765 0.10531492 -0.07497613 0.063614115 0.021047538 -0.077838205 -0.0897611 -0.11845128 0.062462687 -0.01737763 -0.06855233 -0.07151428 -0.07276374 -0.07725861 0.10811088 0.056029778 0.013985871 -0.09446804 0.06451243 0.02566141 -0.028275147 0.0853881 0.10045564 0.023558946 -0.08662034 -0.08162704 -0.100087255 -0.12270918 0.11359225 -0.024679445 0.043158744 -0.0667563 0.11913383 0.042825986 0.04205541 -0.106678344 -0.009399792 0.020336963 -0.0734588 0.12094745 -0.07362902 0.07797153 0.037571095 -0.06589099 -0.00061159214 0.0070143896 0.0042062677 -0.11387272 0.118797295 -0.0998712 -0.031925127 0.06447119 0.007905263 0.11146116 -0.05519088 -0.075303786 -0.020403562 -0.0142973745 0.1163732 0.114113286 -0.047559634 0.013485896 -0.03053887 -0.12110333 -0.09924758 -0.10652688 -0.08528712 0.11009699 -0.073024236 -0.0032631822 -0.09917455 0.06956985 0.11920625 -0.0631603 0.016806107 0.057229657 -0.03480563 -0.11783157 0.050221168 -0.091688365 0.09156067 -0.06079675 -0.11995608 -0.07580075 -0.037723243 0.015987465 -0.11290128 -0.06159531 -0.09782753 -0.03364964 0.08909551 0.012765734 -0.003870048 0.09466143 0.090123445 -0.093417585 -0.09486412 -0.00067709124 0.10905874 -0.098208696 0.028526546 -0.033729807 0.046030656 -0.008485095 -0.079021305 -0.120376036 -0.010898914 0.06580214 -0.093737446 0.114386685 0.0069630845 -0.05860239 0.12338354 -0.037627008 -0.11619172,
codecopy:0.11856417 0.06546786 0.033611216 -0.086563 0.015503958 0.0094921775 0.003397138 -0.08905764 0.036655817 -0.04420294 -0.0039898846 -0.07679118 -0.07649679 0.120681606 -0.062736 -0.11111348 0.014066991 0.057275508 0.107089296 0.006785418 -0.07139062 -0.0325138 0.036293767 0.019698128 -0.11829337 -0.045713607 -0.042720657 0.09414706 0.0009442745 0.12129769 0.027469821 -0.040891305 0.028154062 -0.044974644 0.11331725 0.044951517 -0.02052842 0.09796144 -0.0918866 -0.024245862 0.07298039 -0.086273864 0.015561729 -0.09066603 -0.086303174 0.078897886 0.021331219 -0.08248521 0.0012476182 -0.023667859 -0.11928376 0.11108073 0.04097898 -0.004101398 -0.042345792 0.11562864 -0.10517055 -0.06983702 0.046018187 -0.05622302 -0.09840567 -0.10648121 -0.11291953 0.10650829 -0.112643056 0.10044459 0.06101958 0.0360363 0.044159167 -0.118966535 -0.017178768 0.009590865 0.00024191702 0.008845213 -0.06579553 -0.0021792895 0.09900821 -0.0952251 0.028823573 0.108328454 0.022359943 -0.057952005 -0.05555703 -0.10233002 0.11664758 -0.020225449 6.634623e-05 -0.0136817545 0.07141067 0.105655566 -0.10867743 -0.08952472 0.0051583005 -0.07582208 -0.06543589 0.09345968 -0.10814357 0.002982147 -0.10297298 0.095323704 0.08702674 -0.077079 -0.05985219 -0.044156153 0.035588704 -0.090641476 -0.05617956 0.061501186 -0.083393745 0.01490381 -0.021686448 0.0023621577 -0.0037748984 0.019174699 -0.009753416 0.018058985 0.10021684 0.054595232 -0.07205385 -0.071548745 0.07358547 -0.009134646 -0.113413304 -0.06905516 0.0652695 0.049209062 -0.10932234 -0.11266688 0.057949644 -0.09532677 -0.04237537 -0.03705657 -0.06889408 0.012493705 -0.06970441 -0.1159983 0.119903915 -0.11085651 0.06683629 -0.102131374 -0.027365562 0.034451902 0.05499019 -0.0037292556 -0.05105408 -0.057371803 0.0832691 0.033317164 -0.11977006 0.08841369 -0.06980386 0.07202301 -0.011149972 0.103423856 -0.009074021 -0.0895756 -0.027636059 0.0064213164 -0.043121736 0.084764205 0.03952651 -0.07589445 0.063941136 -0.091584414 -0.09405898 0.09819893 0.12210056 -0.0020767231 0.038399737 -0.10467224 -0.071657926 0.10569861 -0.039136413 -0.08978238 -0.040477235 0.052812297 0.108611666 0.028446838 0.028965257 0.0009558524 -0.08951362 0.10336184 -0.060361844 -0.11258783 0.12119844 -0.0735724 0.048866108 -0.11116363 -0.11134928 -0.090651825 0.07619728 0.018876454 -0.05127452 -0.09124783 -0.09114184 0.08732255 0.06105412 0.0996065 0.10069353 -0.065633096 0.031802345 -0.094731465 -0.106432624 0.007550421 -0.027276773 0.042055395 -0.040781602 -0.020366257 -0.042939268 -0.04917275 -0.09725171 0.026510045 0.11830263 0.06892994 -0.0062265582 0.086415105 0.06971151 -0.06319868 0.12290773 -0.10974893 -0.04308577 -0.12102288 -0.056919836 -0.11228352 -0.047187194 0.08970721 0.02785164 0.0717236 0.060397897 -0.012276668 0.09894672 0.056581877 -0.077134125 -0.052964147 -0.05761684 0.026512617 0.120836936 0.08565095 -0.07377071 -0.09194807 -0.017758911 0.012606706 -0.06316157 -0.103046276 -0.11879835 0.034971952 -0.013776147 -0.04846145 0.06990235 0.018767467 -0.10732586 -0.10591213 0.057912648 -0.013789746 0.049599085 0.09527881 -0.11172245 0.088516854 -0.12169808 0.10954366 -0.014823552 -0.056883138 0.040057324 0.08398898 -0.04152482 0.12135217 -0.039019194 0.08235493 -0.098744996 -0.003679823 -0.0017489307 0.076317854 0.101302356 0.11158018 0.03875418 -0.026195673 0.07227844 0.031944253 0.0004168636 0.06227371 0.015985042 -0.10681434 0.0406324 0.10701703 -0.03319654 0.11656687 -0.007056748 0.0722843 -0.09349593 -0.054978807 -0.07527771 0.049576033 -0.100204505 0.11327562 -0.106719054 0.008049593 0.028864102 -0.043951746 0.10787536 -0.033578876,
coinbase:0.07666585 0.013290351 -0.045004293 -0.07980142 -0.085501 0.08118166 0.07185167 -0.09183201 -0.052485175 0.073241256 -0.005674832 -0.09203264 0.12178924 -0.08491377 -0.113511786 -0.007239022 -0.084795296 0.024712216 0.059724033 -0.1040875 0.014824415 0.031712204 0.092818335 -0.03443775 -0.045745146 0.030177949 -0.0802849 0.058195125 -0.033722702 -0.043174885 -0.039814796 -0.0099735595 -0.10057066 -0.05546973 -0.029275542 0.122222595 0.023508532 -0.0801661 -0.027955899 -0.07475399 0.11109975 0.0642032 0.100307755 0.09723389 0.07485802 0.027028287 -0.0072849765 0.022103729 0.09164096 -0.069493696 -0.057303794 -0.015663017 -0.018305272 -0.09060477 -0.06539301 -0.09750629 -0.116024144 -0.039528903 0.06377802 0.0004905668 -0.11749149 0.00581399 0.004069488 0.048194025 -0.003411406 -0.002987557 0.116627045 0.060095284 -0.06590422 -0.085094646 0.086346604 -0.0700983 0.028598212 0.123216674 -0.09243217 -0.122779764 -0.051846012 0.051884253 -0.013537321 0.0011962535 0.039333194 0.0021718582 0.03783563 0.07747186 0.05075017 -0.07403669 0.0298123 -0.00639498 -0.10908751 0.07448434 -0.050836757 -0.11076833 -0.10487462 0.012130629 0.060809843 0.09823698 -0.064358905 0.05874691 0.0015647396 -0.020914149 0.11959578 0.060159504 -0.0104832845 0.08559539 0.059568364 -0.029998751 -0.035800613 0.015567926 0.03486835 0.035321996 -0.085603625 -0.12419644 0.11718602 -0.016667321 -0.022650044 -0.10779475 -0.013264193 -0.039067987 0.045917343 0.08686759 0.05704829 0.117168956 0.023091907 0.101126455 0.0063441205 -0.055681832 0.014527729 -0.118855216 0.084248714 -0.051723916 -0.01439248 -0.09585826 -0.0018811178 0.11682608 0.047778916 -0.081195496 0.09038987 -0.11986882 0.0128775295 -0.10079565 -0.09490296 0.0484676 0.06521506 0.02153873 0.05303913 -0.118497975 -0.057187285 -0.008701507 0.06338807 0.033773366 0.074614316 0.027611535 -0.11713861 0.047022104 0.003357247 -0.09700938 0.08642014 -0.008585372 -0.043244887 -0.023136554 -0.10013293 0.09094014 -0.09213403 -0.08035542 0.08252624 -0.08127195 -0.061121225 -0.06727112 0.1083341 0.027766194 -0.09238387 0.040804107 0.12073089 -0.10218947 -0.037689205 0.074733675 -0.013238585 -0.09502268 -0.05393244 0.086031504 -0.07716652 0.11376971 0.092879355 -0.08684879 -0.05929241 0.086294435 0.11727362 0.06784889 -0.09006141 0.03632303 -0.05882491 0.039871916 0.005895213 0.08504953 -0.11914915 -0.104464605 0.00396337 -0.034800008 -0.07604957 -0.081476666 0.019237673 -0.10315937 -0.08437772 -0.07126071 -0.0061986316 -0.112038344 -0.031609893 -0.08576561 0.085486256 0.10133482 -0.083482906 -0.03893088 -0.05131939 0.08687752 0.11914955 -0.04609256 -0.030471453 -0.08695341 -0.06620999 0.019206565 0.113278545 -0.012726274 -0.06866493 0.08422962 -0.03473906 -0.07737686 -0.124047235 0.060990274 -0.09837214 0.06535724 0.098114975 -0.051103435 -0.037784223 0.06546042 0.07127929 0.09973643 -0.10700712 0.04191356 0.12303024 -0.08594775 -0.08702061 0.09127122 0.029214159 0.0658029 -0.021361837 -0.009014898 0.08939551 -0.1100795 0.016348058 0.11027616 -0.0044512614 -0.028621413 -0.10318802 0.0932053 -0.061803743 -0.07459806 0.045944765 -0.058917355 0.057263218 0.081356205 -0.060461108 0.117438845 -0.09283035 -0.0997925 0.042535663 0.06715325 0.09888635 -0.06206513 0.09710435 -0.042434685 0.066361256 -0.051131304 -0.037553526 -0.0232316 0.104606144 -0.11386316 -0.1238357 0.11734952 -0.043814417 0.036083847 -0.045310255 0.089214794 0.06923351 -0.02551396 -0.023967978 0.03248721 0.013579426 -0.029917305 -0.11454166 -0.11342453 -0.0553379 0.121569656 0.04465724 -0.047961652 -0.06604687 0.095824495 -0.09422802 -0.03434025 0.037653923 0.06396552,
constant:-0.0276338 0.008594512 -0.08407514 0.01255543 0.03231421 0.11413372 0.07495172 -0.024065342 -0.013550013 0.12021096 0.00048310577 0.10548465 -0.11027934 0.090755954 -0.020328937 -0.017554969 -0.055455685 0.04616721 -0.055443645 -0.113318585 0.05067709 -0.080862604 0.10441214 0.009811098 -0.047656406 -0.0016648237 0.035908382 -0.11640843 0.06720033 0.108543545 0.006063799 -0.05811851 -0.021079374 0.088015616 -0.11424228 0.02465064 0.0034970883 -0.021593438 -0.12020046 -0.08625413 -0.104344994 0.078868486 -0.07787844 0.09837858 0.0549801 -0.01738952 0.018689618 0.040420134 -0.048759885 -0.12393813 0.09860598 0.023741234 0.07220848 0.10035355 -0.057730615 -0.05865463 0.06932001 0.09901477 -0.03172249 -0.05925992 -0.0092809815 0.035559244 0.052077644 0.1088323 -0.07291888 0.089141436 0.011812334 -0.06631704 -0.094104476 0.036660735 -0.09705573 -0.024673233 0.08591055 -0.09690378 -0.07334252 -0.026495777 -0.04343291 -0.12393192 -0.05851455 -0.09272868 -0.010480133 -0.06473194 0.038814478 -0.0659302 -0.10930766 -0.05180979 0.1221598 0.10078019 0.089850515 0.021615867 0.10260516 0.031570744 0.11768389 0.087344855 0.06441137 -0.09387849 -0.06262234 -0.045775004 -0.08982415 -0.096010365 -0.06337361 -0.04864922 -0.098593116 -0.07912512 0.011926255 0.018616568 0.1094846 0.024547348 -0.045697987 -0.07337828 -0.07162578 0.062353402 -0.07106405 0.08370959 0.09975847 -0.0042005754 0.057279047 0.08435981 0.01817762 -0.06466919 0.04216606 -0.112172484 -0.07458523 -0.00278348 0.019678166 -0.11469814 0.03313382 -0.029502671 -0.09922492 0.010007401 0.056353036 -0.062945835 0.106605 -0.03330771 0.027669143 -0.10304393 -0.04011083 -0.1157035 0.077408426 0.124371834 -0.0062861717 0.082664624 0.07414384 -0.040364783 -0.043209188 0.05531956 0.02585107 -0.04322555 -0.119417466 -0.044149403 0.033894543 0.06507653 0.042020336 -0.0933563 -0.009839529 -0.05642873 -0.06486506 -0.0036079627 0.023771852 0.02631389 -0.11184399 -0.09949827 -0.10477274 -0.07563815 0.10234188 0.03514565 0.059802834 0.10537898 0.05831734 -0.004854496 -0.09356058 -0.07012118 0.036662996 0.09971737 0.005885523 -0.114670776 0.1081293 -0.028765282 0.08124659 -0.07417119 -0.10067608 -0.120087884 0.12036492 0.10547371 -0.09114911 0.120728515 0.10229554 0.016523972 0.07405604 -0.08593271 -0.11989021 -0.0585596 -0.05102379 0.017316129 -0.11861169 0.11233227 -0.054913722 -0.06271486 0.086464666 0.0032789663 -0.005925087 -0.041732315 0.10655737 0.077103205 -0.0067789378 0.010102254 -0.03113817 0.019036895 0.042429395 -0.027011136 0.03535798 -0.048629202 -0.114116184 0.027664179 -0.10921393 0.06877803 0.0065667164 0.015835555 -0.095462464 0.009930652 -0.06821909 -0.068073265 -0.03534398 -0.11248626 -0.123886794 0.08247935 -0.05065178 -0.11030874 0.11678268 -0.021384101 -0.022353033 -0.06745028 -0.033381026 -0.016978288 0.054042675 -0.08566927 0.023666373 0.081331946 -0.08344282 -0.06514977 0.1229261 -0.100658245 -0.016684992 0.0077687213 0.04953091 0.087312415 0.032057356 0.07296455 0.094077975 0.104775175 0.034493588 0.09837099 -0.008722449 -0.00015354456 -0.065215476 0.023227304 -0.093647435 0.11386016 -0.08104601 0.10379478 -0.009768532 -0.073633924 -0.0786409 0.07899234 -0.07501797 -0.08548407 -0.063243635 -0.011429654 0.022203455 0.104261436 0.027797777 0.07896642 -0.010658171 0.06998726 -0.06475162 -0.00088690524 -0.05009711 -0.059601016 -0.11004292 -0.050741877 0.0006859641 -0.092199445 0.08565805 -0.051857367 -0.036569033 -0.005614074 -0.076609015 -0.055703666 -0.026795436 -0.07956512 -0.08057696 0.0933174 0.037956093 0.024444291 -0.11333935 0.10110473 0.0381694 -0.011816243 -0.09007767 0.0065702386,
continue:0.025529968 0.07705147 0.0023400274 0.036582038 0.008927224 -0.124194376 -0.0206865 -0.11603853 -0.106772 -0.08797995 -0.058815576 -0.09864403 -0.11854566 -0.033119105 0.023003103 -0.08282958 0.12011783 0.028453408 0.014896081 0.0064772586 -0.050505638 0.107094005 -0.10668538 0.066818886 0.11047076 0.073163204 -0.03135519 -0.11186889 0.07303057 0.02958073 0.10963935 0.039580565 0.0500195 -0.031430814 0.07582787 -0.100111276 -0.003201161 -0.051999066 -0.031001985 0.06584575 0.05673249 0.06288869 -0.09853094 0.02319651 -0.11790969 -0.063791975 0.04294783 -0.04290391 -0.04160112 0.061002698 0.020456472 0.0045182914 0.10928914 -0.098945014 -0.04710719 -0.061315108 -0.08570629 0.08657119 0.041942783 -0.06564059 -0.121752374 -0.10898641 0.03821342 0.020680524 -0.087685205 0.0805021 -0.060761925 -0.10013593 0.050362185 0.11368431 0.08370892 -0.08355532 -0.057648186 0.06878762 0.08422391 0.05910645 -0.11451169 -0.031239325 0.058984727 -0.03315653 -0.06719497 -0.040091865 -0.0360834 0.060527157 -0.08820822 -0.01935458 -0.092630975 -0.059870414 0.0050339606 0.11043253 -0.033709742 0.026152097 -0.081050985 0.018840961 0.019290568 -0.09337572 0.0957503 0.053526916 0.053439185 0.07455432 0.03005707 0.11641742 0.07284061 0.0023885535 0.06304565 0.096709915 -0.040488634 -0.034479026 -0.10324596 0.074429266 0.0104042 -0.09773607 -0.05837954 0.09080445 -0.06400172 -0.09344189 -0.024542086 0.048239343 -0.028513065 -0.01573125 -0.10498392 0.10269647 -0.06384382 -0.10552134 -0.09786283 0.11359552 0.118188895 -0.12240344 -0.10043933 0.03776707 -0.102982976 0.043305244 -0.023325665 -0.12311021 0.04629897 0.08326574 -0.04484344 0.100168884 0.05448956 0.04074418 -0.11519886 0.09568143 -0.1197869 -0.044129457 -0.054333698 -0.120863125 -0.053278178 -0.079676665 0.049189012 0.043829355 0.017132012 -0.050539106 0.086223796 0.107234694 -0.100408375 -0.11297473 -0.092480406 -0.12182969 0.046093747 -0.081070915 0.026374618 0.024207382 -0.11285986 0.055231083 -0.09901565 0.03426771 0.060670223 0.01503292 0.05547337 -0.018240888 0.021055104 -0.010506797 -0.06145125 0.010760723 -0.118149735 -0.060765937 0.080325544 0.036598627 0.09075873 -0.038793106 0.010970477 0.014032792 0.014730543 -0.026111744 -0.06930079 -0.108244695 -0.04390142 -0.0017058888 -0.077690035 0.00077814143 0.11432909 -0.011361926 0.050623823 0.0776692 -0.10920408 -0.093595624 0.08553208 -0.08762704 0.10187141 0.04648356 -0.01678264 -0.06279815 -0.049670395 0.021924976 -0.12177433 0.10039684 -0.12301401 0.013670995 0.09804897 -0.010724934 -0.06262383 0.024927247 -0.11440703 -0.070531 0.0002925833 0.06935852 0.033133984 0.02133932 0.004429458 -0.060205743 -0.044729814 -0.033689752 -0.09491888 -0.0155654885 -0.08073611 -0.046516746 -0.08496376 -0.07667472 0.117344454 -0.07326078 -0.020300401 -0.06943373 -0.022278303 -0.04113322 0.0014298623 -0.021287048 0.090944454 -0.1110892 -0.12055155 -0.07362177 0.0387271 0.027727552 0.05043122 0.09596236 -0.099372536 -0.118947186 0.041225605 -0.004248403 -0.09982794 0.053079896 0.086703986 0.039945394 0.045890383 0.0024363364 -0.100786164 -0.09967515 0.12227557 -0.040952254 0.04364894 -0.10943448 -0.116160154 0.0654362 0.07825397 0.10624124 -0.06256679 0.11969017 0.088002466 -0.06442669 -0.1242201 0.10471837 0.12109287 -0.011605775 -0.10591921 -0.059709884 -0.06245655 -0.11311212 -0.014028467 -0.055918325 0.032393888 -0.019121418 -0.10362817 0.07958153 -0.010196022 0.073161416 0.11984032 0.10252068 -0.05618145 -0.06743891 0.04674346 0.058571044 0.11717892 -0.105847165 0.03513235 0.09539818 -0.055177875 0.05510732 0.11244662 -0.030917982 0.021868752 -0.0048318603,
create:0.00967026 0.100111604 -0.036042098 0.03231773 -0.07658363 -0.06498744 -0.07778858 0.051986493 -0.044617083 -0.108303875 -0.005512831 -0.060081106 -0.120038 -0.050705507 -0.057122827 0.11139755 0.011653662 0.09673579 -0.106097996 0.0034606752 -0.11430292 -0.024887312 0.008961883 -0.01015075 0.031290956 -0.10117329 -0.021621171 0.033006493 -0.06979562 -0.11486846 0.0778214 0.12095399 0.05828457 0.013376137 -0.10722878 -0.08948039 -0.0075323037 -0.018602999 0.054004315 0.0724565 -0.08400956 0.099326015 -0.023874372 0.0925503 -0.029599367 0.0818437 0.09153067 -0.07214402 -0.07093375 0.051928736 0.10380908 -0.113128155 0.038429346 -0.12049944 0.05758478 -0.053759307 0.062444422 -0.10951001 0.0913708 0.019803934 0.08860664 0.033114363 -0.04757927 0.05899959 0.044006336 -0.024662428 0.08220907 -0.078592315 0.07448139 -0.022587964 0.08095208 0.06065845 0.05576708 0.11511802 -0.044386815 0.012121549 0.065649405 0.05215921 0.06303094 0.12442565 0.11442622 0.015516235 0.081299946 -0.073273435 -0.08046105 -0.030463962 0.120881036 -0.010235407 0.08364677 0.06309177 -0.033794027 0.012289287 0.042779632 0.11984461 -0.122152895 0.095200315 0.019581739 0.10663805 0.0492023 -0.06687831 -0.013952297 0.082204275 0.027620453 -0.042166106 -0.09811259 0.09437332 0.057912398 0.11380062 0.08149028 0.10495462 0.11417986 -0.11306105 -0.052430794 -0.039031528 0.070001096 0.0041727084 -0.005051513 0.029333059 -0.107943416 0.1144836 -0.065659165 -0.0050909286 0.11452679 -0.11268508 -0.12167985 -0.090609364 -0.0051437947 0.027167592 -0.111683115 0.015657444 -0.124245994 0.011678869 0.076999836 -0.04926909 0.07868798 -0.045067728 -0.053122077 -0.01875678 0.020605246 -0.06546762 0.00091270654 0.08126495 0.011681737 0.03403645 0.002742623 -0.07460818 -0.010680123 0.093334004 -0.036270924 -0.0031826424 -0.03820302 0.026426354 0.11120603 0.024336983 0.05943668 -0.119384095 0.10420369 -0.09734462 0.12097911 -0.11491011 -0.040088937 -0.009388527 -0.0024961282 -0.10723462 0.07969291 -0.0017473552 -0.06634812 0.1200007 -0.07647586 -0.10642338 -0.118029185 -0.04034545 -0.059521057 -0.035321757 0.07308193 0.1178257 -0.03639119 0.057945244 -0.06195708 -0.07517135 -0.030026708 -0.04295098 -0.09988077 0.0073369658 -0.044552 0.06565236 0.021590006 -0.03821369 -0.038757272 -0.12315681 0.11006629 -0.11648671 -0.094217084 0.090084225 -0.03771186 -0.112201065 0.00026100047 0.08787288 0.055452712 -0.03835512 -0.11771868 -0.080410086 0.09563641 0.10638423 -0.10132553 -0.06617165 0.026704907 0.100130804 0.11600713 0.0693182 0.026528103 -0.09935522 0.01039943 -0.097685225 0.11513581 0.01164357 -0.04891493 -0.08443442 -0.0581867 -0.017389817 0.08503359 -0.036194336 0.08780885 0.015531453 -0.059136964 0.064480186 -0.06249525 -0.12031168 0.0501848 -0.08410826 0.0059803757 0.086810745 0.09557222 -0.038409695 0.02972051 -0.026594272 -0.071072064 -0.008026868 -0.07414518 -0.07494776 0.09305357 0.049466107 0.09602175 -0.041552953 -0.055015933 0.08792608 -0.09597241 0.0923084 -0.012875122 -0.0105411885 -0.10308235 -0.009225797 -0.021874534 0.025447242 0.108325586 -0.072382845 0.04020788 -0.04523233 0.01795483 -0.004634085 -0.08097923 -0.09417543 0.022265922 -0.09240943 0.12110202 0.115187146 -0.015870303 0.08995831 -0.020181352 -0.09274443 -0.106134795 0.111927055 0.036312625 -0.012888082 -0.10226554 0.06175025 -0.035759535 0.0030940322 0.099501126 -0.07623928 -0.07906699 0.08991071 -0.12248483 -0.04729299 0.11962065 0.040382024 0.10680417 -0.045435086 0.06723917 0.048902523 0.08110265 -0.04514174 0.09689266 -0.008740388 0.0804672 -0.06407198 0.054556504 0.080656104 0.049079757 -0.01614373,
create2:0.12398419 0.10173266 0.058766264 -0.0201535 -0.11486964 0.03840699 -0.101421036 0.0681563 -0.08931439 -0.060642164 -0.10379212 0.05547637 -0.08853378 -0.11879086 0.06412596 -0.017334692 0.017863203 -0.016056783 0.052397307 -0.08870714 -0.095586024 0.038742214 -0.1035244 0.10615547 0.1206561 0.084960744 0.08455597 0.050931506 -0.028546462 -0.08138863 -0.08336291 -0.078729495 0.004235428 0.026350956 0.12278217 0.08962554 -0.013983285 -0.059396405 -0.012653492 -0.05151119 0.047089845 -0.11520806 -0.011441336 -0.08107508 -0.11755877 0.029556576 0.11129073 -0.03211119 -0.025517972 -0.107194506 0.113525145 -0.11077413 -0.09971076 0.02206629 0.114831574 -0.11901876 0.11843981 0.034665074 -0.05392192 -0.039729487 0.06917837 -0.011150715 -0.03566034 -0.09860695 0.021827925 -0.1168067 -0.061649293 -0.060849376 -0.055947173 -0.06562051 -0.0500781 -0.04509188 -0.075704366 -0.06633193 0.12001923 -0.11108175 0.079180256 0.03671488 -0.061026774 0.007239081 -0.08058264 -0.12285482 0.047421385 0.0015355198 0.05349162 0.011906458 -0.021801231 0.0931948 0.12363189 -0.11483532 0.01596352 -0.046012536 -0.009046392 0.08710875 -0.042468604 -0.0048435275 0.08566434 0.015647931 -0.12268537 0.030825835 0.012593403 0.073089704 -0.120562874 -0.047503427 -0.04549556 0.08403698 -0.09281447 0.056906562 0.08129736 -0.075440705 -0.010518315 0.0840658 -0.11452446 -0.0695672 -0.085134774 0.06908627 -0.049063675 0.080428734 0.020908143 0.0031369699 0.05303503 -0.03974796 0.036883242 -0.014898712 -0.08670901 0.06163404 -0.03384297 -0.12430613 -0.0020282269 0.04288884 -0.04924072 0.008888492 -0.059893377 0.108059324 -0.087203234 0.012745387 -0.0029585753 -0.10810689 0.033291183 0.0304447 0.010203899 -0.043536324 -0.057471145 0.12251713 -0.07625664 -0.029379386 0.108999036 0.027468009 0.002910911 -0.12369783 -0.09268821 0.057531204 -0.07347889 -0.0073259673 -0.116027966 -0.08727157 0.0797111 0.04666677 -0.0011501203 -0.049548775 0.07869454 0.04080986 -0.11422492 -0.024309115 0.019754026 -0.057660863 0.027181845 0.02277758 -0.015189497 0.114051744 0.10934823 0.012330693 0.10447547 -0.05881984 0.015936263 0.014593213 -0.12074103 0.051067293 -0.12419387 -0.017748434 0.013204549 -0.03370766 0.08561964 -0.0065211626 0.0007901057 -0.033800222 -0.07873618 -0.11431371 0.10962517 -0.024637086 0.09793105 -0.04861566 -0.055092964 -0.062005665 0.006020757 -0.09727635 0.06874907 -0.12418259 0.11163529 -0.056004807 -0.076098725 -0.10547768 -0.016262585 0.024080368 -0.036074635 -0.017656941 -0.08301059 0.0013952624 -0.049674124 0.10694544 0.105461895 0.024245104 0.12441651 -0.047117565 -0.11852048 -0.061539456 -0.070049405 -0.06136732 -0.11740019 0.0619709 0.05259468 -0.06620065 0.029719485 0.03284712 0.10990746 0.031128094 0.082522094 -0.02096037 0.0004024767 0.07360116 -0.0734788 -0.057324495 0.09424 0.123773545 -0.10584684 -0.104637444 0.051227584 -0.082043834 0.09548309 -0.119854525 0.049829677 0.033674087 -0.043634776 0.09350044 0.11390819 -0.07670871 0.012271437 -0.06155313 -0.026411165 -0.016865036 0.11779754 -0.08984916 0.049435806 0.03604776 -0.11696537 0.027716242 -0.10303015 0.019675655 0.0223905 0.00911953 -0.014482175 -0.10884705 0.110629916 0.08381439 0.07740884 -0.07392337 -0.05267112 -0.12382619 -0.120489165 0.015872965 -0.013813273 -0.050731264 -0.010563244 -0.06824722 0.04768277 0.11226398 0.0837087 0.024226718 0.08522729 -0.11023147 -0.10983602 0.07221716 0.11824594 0.067458674 0.021324323 0.05499777 0.10550933 -0.045686215 -0.10002981 0.0674615 0.09421731 0.058395904 0.031052176 0.07917748 0.10517104 0.03848435 -0.09041492 -0.037867617 0.007690218 -0.115935,
delegatecall:-0.09606806 0.093075946 0.053317312 -0.05893213 0.083220795 0.12400186 -0.0873331 0.054724656 0.04504139 0.03714955 0.099605605 -0.0013829711 -0.051719606 -0.013898584 -0.07844622 -0.075055525 0.049672846 0.032133184 -0.007692893 -0.047577158 -0.002105081 0.057118606 0.06230947 0.08316561 0.10064359 0.12176009 0.009386862 -0.073368676 0.043693658 0.020646488 0.022896614 0.026756749 -0.07691044 -0.07231183 0.10651993 0.05138881 0.11990883 0.032078434 0.065300874 -1.5813706e-05 0.07852506 0.085047856 -0.06066578 0.07583521 -0.011715356 0.11527274 -0.003730415 0.040993456 0.04549027 0.044833437 0.014875066 -0.006240722 -0.09504062 0.10207989 0.027629862 0.11952275 -0.08670067 0.045427877 -0.013870226 0.041310366 -0.05451055 -0.12401234 -0.07555149 -0.030552365 -0.0059296796 -0.006221163 -0.0526232 0.10867392 0.11882348 -0.062589094 0.0776401 0.021937178 -0.04744753 -0.019449968 0.099417016 -0.028294275 -0.07796626 -0.064950995 0.02823952 -0.061422355 -0.01201809 0.07734156 -0.0077937646 0.08904277 0.027579164 0.018645223 0.10400412 0.1073018 -0.06427012 -0.069954775 -0.005351825 0.021793295 -0.12444202 -0.07847586 0.10842135 -0.096713305 0.021452973 -0.035455998 0.08468813 -0.03213381 0.054644756 -0.050774053 0.036291834 0.09543474 -0.08556865 -0.022656256 0.012810217 0.010931582 -0.037948452 -0.06816797 -0.08986316 0.044888027 0.02363241 0.009995066 0.059546635 0.023195438 0.11331612 0.0579935 0.05157223 -0.029742284 0.035553154 -0.08210031 -0.057267856 0.020483626 -0.08459943 -0.067603536 -0.014014319 0.008798054 -0.11195602 -0.10604209 -0.038315766 -0.059051313 0.063820645 -0.0072158957 0.08020986 0.07471571 0.016989168 0.028820228 0.009012044 0.024253739 -0.02661059 -0.0895252 0.10951012 0.0861146 -0.10469078 0.08680976 -0.040337853 -0.022590773 -0.060626395 -0.04267439 0.012614568 0.051752705 -0.1146323 0.0258518 -0.114776336 -0.035186302 -0.101801306 0.05224146 0.055458628 0.07669642 -0.080129854 0.007866651 0.08850051 -0.07142637 -0.10476923 0.0058056815 -0.031412177 -0.013129821 -0.11243319 0.079827 -0.03127529 0.04731057 0.08129975 0.013165238 -0.09436802 -0.10256704 -0.07956524 -0.07007013 -0.06357787 -0.03744277 -0.066386 -0.015369972 -0.05148023 -0.097094245 -0.0865512 0.101738125 -0.055596877 0.07545265 -0.03357635 -0.06519978 0.013457093 0.088061035 -0.101717286 0.057355974 -0.06272415 0.03479665 0.08823404 -0.027301474 0.049379013 -0.08565199 -0.10415212 0.052753232 -0.0030340024 0.08927471 0.058527287 0.117542796 0.10775188 -0.035119776 0.093854025 -0.10464963 -0.096481465 -0.10560102 -0.009852103 0.10311745 -0.0005923155 -0.112896316 0.092328526 0.09280132 0.03343767 0.07967206 -0.115495026 -0.08581115 0.096444964 -0.025348794 0.015808951 -0.0677314 0.02198691 -0.00992704 0.09443416 0.059665073 0.04361602 -0.05280402 -0.11140732 0.003737326 -0.069789246 0.037417 0.048426047 -0.08523771 0.03806227 0.0065746973 -0.08352133 0.018609568 -0.089924335 0.07712299 0.01665922 -0.098011576 0.10233261 -0.017768988 0.049867306 -0.10767226 -0.017859621 0.01825731 -0.01647934 -0.0015666569 -0.0359045 -0.017808108 0.11904473 -0.09321697 -0.017835751 0.072968416 0.040829267 0.108123876 -0.08058178 0.10715946 -0.008805902 -0.057835218 -0.034691438 0.082078874 0.007693725 -0.033182982 -0.10428443 -0.102108724 -0.033097807 0.12414701 0.00036280864 0.008729374 0.050846644 -0.0065836594 0.07497105 -0.023989884 0.032672428 0.037584737 -0.022992313 -0.07646528 0.0922937 0.072904624 -0.047618296 0.07431623 -0.10172726 -0.050703324 0.099838845 -0.0061251065 0.05913448 -0.123558305 0.054082625 0.028758446 -0.05957132 -0.11560088 -0.009133768 0.052643966,
div:-0.09735416 0.08765779 0.04750436 0.0769491 0.09351378 -0.119410045 -0.039071314 0.072867975 0.093848586 -0.056185596 0.1071686 0.09035958 -0.04731748 0.104234 -0.11361948 0.07527163 -0.08372395 -0.057146844 -0.11277749 -0.03222795 0.09663311 0.05878979 0.026159022 0.095041454 -0.12321718 -0.103013314 -0.09319147 0.1029578 0.003991445 0.027418636 -0.10896126 0.04686053 -0.055164646 0.011141663 0.073080994 -0.11268363 0.09409353 0.06773675 -0.085354425 0.079952694 0.073195055 0.068656385 -0.009511707 -0.059792772 0.07707059 -0.04100912 -0.04465189 -0.11099094 -0.023905734 -0.06633776 -0.030013628 0.04823995 0.06765227 0.003588374 -0.05286106 -0.11290337 -0.036185298 0.0048687193 0.017030159 -0.061324574 0.06868416 -0.105486505 -0.09616996 -0.026767181 -0.10978715 0.01613447 0.12344177 0.0037282004 0.12298546 -0.023552466 0.11981612 0.005910819 0.10730962 -0.024706168 -0.10644139 0.056757998 -0.042089637 -0.083201386 -0.08468547 0.029374408 0.07934086 0.057577588 0.11221707 0.07238858 0.08986462 -0.11918451 -0.11062437 -0.04275762 -0.015664754 0.0053095412 -0.0050883577 -0.07750094 0.116554976 0.11027525 -0.020299792 0.051866345 0.11402359 0.05628467 -0.11884976 0.0017584723 -0.07218628 0.08698674 0.01791971 0.058276527 0.08575727 0.10558696 0.10858439 0.015265013 -0.10346243 0.0799541 0.104725145 0.089436725 0.057597 0.046816226 0.091609 0.06835974 -0.09583172 0.061567936 0.075734146 0.06808196 0.028274491 0.06862486 -0.01660955 0.033101033 0.09599809 0.045488056 0.07617632 0.008827304 -0.12417357 -0.08424598 0.023761893 -0.11154393 -0.060156412 0.10088286 0.021062952 -0.09698348 0.0020876918 0.03834283 0.015143943 0.05077178 0.08503895 -0.047603823 0.019802358 0.024171103 -0.11357011 -0.06970736 -0.019227907 -0.046527777 0.04640146 0.104589246 -0.03432141 0.0026937402 -0.058850918 -0.033772327 -0.006525577 0.053041108 -0.022476286 -0.051840305 -0.059330102 -0.049704473 0.058366567 -0.055851873 0.105405316 -0.08640259 0.055979423 -0.014675982 0.00728731 0.08928559 -0.02624267 0.07218599 -0.04213647 -0.026972774 0.049240794 -0.10326507 0.06185096 -0.013856255 0.112496175 -0.086823836 -0.102988996 0.065185025 0.008200805 -0.119766675 0.10559746 -0.07248106 0.08679415 0.11693529 0.102649376 0.023001187 0.079785 -0.003137475 -0.10593607 -0.08079778 0.03302797 0.051557366 -0.09967368 0.028796196 0.08359618 0.008317104 -0.06828815 0.07078056 0.039923858 0.08698202 -0.015866691 0.085596524 0.122197494 0.042227443 -0.053598806 0.06593228 0.011746538 -0.011244126 -0.056194127 -0.056540854 0.10221619 -0.01601172 -0.08949257 -0.018778717 0.118354775 -0.069658265 -0.08806077 0.03044904 0.034827698 -0.10531726 0.09371737 0.010968976 0.079025224 0.07955565 -0.08311892 0.120865084 0.023582175 0.121502526 0.07742901 0.046885844 0.012440438 0.0019339094 -0.002532155 0.04642653 0.10095658 -0.109730646 -0.055891734 0.0987219 0.047115676 -0.09900082 0.10818483 -0.05762225 0.10169086 0.035963893 0.10350003 -0.08059564 0.017428415 0.055704318 0.10806301 -0.045608263 -0.07806453 -0.115851976 0.12284528 -0.010299301 -0.121446624 -0.12155867 -0.08157723 0.108539164 -0.013163173 -0.025308352 0.0028228953 0.06526103 0.07134235 -0.084454246 -0.054385375 -0.04270004 0.09948486 0.10938478 -0.034378227 -0.0738891 -0.03886773 -0.10997018 -0.040627524 -0.075093485 -0.06090697 0.12424003 0.107968695 -0.035369243 -0.053035192 0.05716917 0.018913759 0.01552637 0.052909084 -0.03347738 -0.07222432 0.055162758 -0.06509521 0.1213714 -0.04772917 -0.02135384 -0.088055596 -0.060020078 -0.0011071527 -0.022213502 0.11159023 -0.013421661 -0.0936026 0.088489406,
eq:0.06824987 0.039733052 -0.054705292 0.07664269 0.037175275 0.056952205 -0.049246278 0.048756544 0.0066383537 -0.069297254 -0.05525987 -0.045389872 0.006239548 -0.010517245 0.049989566 0.088610396 -0.10403954 0.079213195 -0.07066643 -0.021888118 -0.047530685 -0.10576234 0.014393847 -0.009835428 0.074635915 -0.11447244 -0.04219919 0.021745587 -0.103240795 0.027089266 -0.099206835 -0.09619169 0.039310988 -0.10017449 0.105724014 0.10004626 0.1074215 -0.11650807 -0.05217834 -0.09311805 0.053293027 0.052535854 0.07547408 -0.070340246 0.081366606 0.08677833 0.03264924 -0.11817757 0.08972118 0.101822704 -0.049783066 -0.09272335 0.06042902 0.100607075 -0.102060124 -0.07433957 0.06285916 0.073670045 -0.098588176 -0.08857094 -0.0023559898 0.06973069 -0.05970908 -0.051708594 0.080424845 -0.119335495 0.122110255 0.002882702 -0.007412274 0.0917339 -0.031198438 0.028247487 -0.04430913 -0.05365212 -0.008495157 0.11525 0.002558536 0.014573802 0.010264716 -0.007993101 -0.07260556 -0.048866317 -0.06209322 0.057775185 -0.05427147 0.009533272 0.09947005 0.004809611 0.06923232 0.054474313 -0.038688175 0.008570152 0.0447545 -0.0285103 -0.11278734 -0.10851205 -0.11015989 -0.059946347 0.06555194 -0.008092234 0.10402583 -0.02001467 -0.0695863 -0.092631884 -0.03576802 0.035586193 0.09439348 -0.099355295 -0.09707525 0.023002122 -0.031642932 -0.06754576 0.021103853 0.12233899 0.008371753 -0.0711021 -0.085755534 -0.12298721 0.086101666 -0.020539152 0.104905725 0.0899852 0.111777686 -0.021874206 -0.06230681 -0.072400324 -0.026533497 -0.06957209 0.122214854 0.002672353 -0.12117068 0.11589989 -0.105954126 0.11685227 0.03369824 -0.09195397 0.042975668 -0.006904437 0.015512117 -0.006804695 0.117496885 -0.11772314 0.052014865 -0.07632025 0.12336691 0.014361031 -0.022160161 -0.09306426 0.07124383 -0.0067197555 -0.045161035 0.06386957 0.06701107 0.11275995 0.060826443 0.0062728697 0.07980676 -0.106262185 0.12184256 0.09218886 -0.046610396 0.10372385 -0.0106697045 -0.012896598 0.043578 -0.06360398 -0.10749577 0.03393241 0.00743922 -0.03933844 -0.094197005 0.00082754437 0.107108675 -0.1039595 0.039619595 0.09337184 0.006053291 -0.013539966 -0.033019364 0.06769525 0.050642714 0.07415857 -0.04142949 0.059106153 0.107346565 0.113908984 -0.10494506 -0.10036245 -0.035906523 0.0040456485 0.0949948 -0.08648763 0.119482145 0.03552163 0.018886724 0.025287708 -0.119968295 -0.010779613 0.018755754 0.04896557 -0.07575014 0.011283601 0.0008878267 -0.11387846 -0.02423592 0.09290572 -0.11988061 -0.03176791 0.09765154 -0.11360779 -0.05046307 0.09656126 -0.10521755 0.12090034 -0.023026913 0.121150106 -0.026103778 0.112732336 0.024534581 -0.0046203076 0.10755079 0.048390124 0.07457655 -0.11381008 -0.109538265 -0.08731378 -0.07983159 0.008452412 0.0804192 0.12185514 -0.020022769 0.021107242 -0.09011593 -0.024820743 0.05471342 0.058585223 0.05921184 0.12277966 0.00919787 -0.085535005 0.08078623 -0.023604514 0.08029436 -0.086626165 0.04708964 -0.059296437 -0.06854786 -0.097874366 -0.053110648 0.020778304 -0.06967509 0.06350816 0.053517077 -0.09878686 0.037443023 -0.0071641146 0.07922551 0.025636502 0.036131125 0.10271371 -0.039007705 0.118969746 -0.11724751 0.007208717 0.011149005 0.099132545 -0.09715362 -0.030024836 -0.0555945 -0.090299524 -0.09249616 -0.040294442 0.075505935 -0.027873844 -0.09945405 -0.04975343 -0.015436125 0.10601175 0.0449934 0.07527393 -0.0217003 0.028112967 -0.057658978 -0.011059415 0.055115227 -0.0038261444 0.03831758 0.11355596 0.012123049 -0.015482258 -0.029300556 0.017125383 -0.055940084 -0.0066990075 -0.032967508 -0.04914438 0.10464759 0.06671882 -0.009989775 -0.041541032,
